<?xml version="1.0"?>
<opencv_storage>
<cascade>
  <stageType>BOOST</stageType>
  <featureType>LBP</featureType>
  <height>45</height>
  <width>45</width>
  <stageParams>
    <boostType>GAB</boostType>
    <minHitRate>9.9500000476837158e-01</minHitRate>
    <maxFalseAlarm>5.0000000000000000e-01</maxFalseAlarm>
    <weightTrimRate>9.4999999999999996e-01</weightTrimRate>
    <maxDepth>1</maxDepth>
    <maxWeakCount>100</maxWeakCount></stageParams>
  <featureParams>
    <maxCatCount>256</maxCatCount>
    <featSize>1</featSize></featureParams>
  <stageNum>20</stageNum>
  <stages>
    <!-- stage 0 -->
    <_>
      <maxWeakCount>2</maxWeakCount>
      <stageThreshold>1.4930436387658119e-02</stageThreshold>
      <weakClassifiers>
        <_>
          <internalNodes>
            0 -1 32 -191430832 1083895884 111069 1141170311 1367980316
            1283981448 -99890981 -856691969</internalNodes>
          <leafValues>
            -7.8215456008911133e-01 8.5682541131973267e-01</leafValues></_>
        <_>
          <internalNodes>
            0 -1 196 -2044067840 35791426 585901136 268482568 81527808
            4195652 525440 -2147351488</internalNodes>
          <leafValues>
            -6.3804250955581665e-01 7.9708504676818848e-01</leafValues></_></weakClassifiers></_>
    <!-- stage 1 -->
    <_>
      <maxWeakCount>4</maxWeakCount>
      <stageThreshold>-1.2528331577777863e-01</stageThreshold>
      <weakClassifiers>
        <_>
          <internalNodes>
            0 -1 60 -53543172 1141918720 -991112305 1209073598
            -1063715588 -923238148 -133628674 -318963969</internalNodes>
          <leafValues>
            -7.6855254173278809e-01 8.0778765678405762e-01</leafValues></_>
        <_>
          <internalNodes>
            0 -1 181 -84994550 -2136961324 -2006948352 -804999742
            809829892 5567568 640943744 -1878899712</internalNodes>
          <leafValues>
            -5.8315682411193848e-01 7.6770794391632080e-01</leafValues></_>
        <_>
          <internalNodes>
            0 -1 66 -1307957968 -1766970344 1056849781 -1150735036
            -179300432 668450813 1057234939 -1154806776</internalNodes>
          <leafValues>
            -6.1464583873748779e-01 6.6026955842971802e-01</leafValues></_>
        <_>
          <internalNodes>
            0 -1 217 -225983862 -997947262 -2109730664 281034900
            1610817536 573472 -1606238002 -185466474</internalNodes>
          <leafValues>
            -6.3015621900558472e-01 5.6615650653839111e-01</leafValues></_></weakClassifiers></_>
    <!-- stage 2 -->
    <_>
      <maxWeakCount>5</maxWeakCount>
      <stageThreshold>-4.1096013784408569e-01</stageThreshold>
      <weakClassifiers>
        <_>
          <internalNodes>
            0 -1 20 -1 -324079617 -16777284 -1002504450 -259 -1060569908
            -52101470 -1060832018</internalNodes>
          <leafValues>
            -6.5525293350219727e-01 7.8358411788940430e-01</leafValues></_>
        <_>
          <internalNodes>
            0 -1 52 -822864652 -755224739 1847738171 -787593 -1286920
            -459523 -17760325 -1</internalNodes>
          <leafValues>
            -4.4061407446861267e-01 7.2805505990982056e-01</leafValues></_>
        <_>
          <internalNodes>
            0 -1 103 -531692142 -2008547324 1073742096 273205568
            809582978 35668000 1073758336 -2147483520</internalNodes>
          <leafValues>
            -6.6381251811981201e-01 4.7687473893165588e-01</leafValues></_>
        <_>
          <internalNodes>
            0 -1 248 -779124096 1913929754 -1879048176 1343180928
            -1342144512 574652440 436302400 -771583872</internalNodes>
          <leafValues>
            -5.0450658798217773e-01 5.3948265314102173e-01</leafValues></_>
        <_>
          <internalNodes>
            0 -1 141 1557655270 1172824774 -729089298 1086777966
            -110921753 -610498315 -107096353 -131073</internalNodes>
          <leafValues>
            -6.2960034608840942e-01 4.5346748828887939e-01</leafValues></_></weakClassifiers></_>
    <!-- stage 3 -->
    <_>
      <maxWeakCount>6</maxWeakCount>
      <stageThreshold>-9.1098964214324951e-01</stageThreshold>
      <weakClassifiers>
        <_>
          <internalNodes>
            0 -1 5 250356852 1052671542 1857716091 1060142899 -4420168
            -196611 -332857368 -1114117</internalNodes>
          <leafValues>
            -4.1781452298164368e-01 7.9428249597549438e-01</leafValues></_>
        <_>
          <internalNodes>
            0 -1 18 -2100428076 -1879046305 -1592741603 -1886759790
            -258162216 -1417018966 -1081294456 -1344347992</internalNodes>
          <leafValues>
            -5.3515112400054932e-01 5.4791957139968872e-01</leafValues></_>
        <_>
          <internalNodes>
            0 -1 59 -4718690 1349358116 -989222449 215856282 537704563
            816317355 -99767301 -1126171717</internalNodes>
          <leafValues>
            -6.0895949602127075e-01 4.4072535634040833e-01</leafValues></_>
        <_>
          <internalNodes>
            0 -1 186 -1172599582 369137940 38305908 1883603992 17310230
            1610813968 -762789222 -1334377374</internalNodes>
          <leafValues>
            -5.6044882535934448e-01 4.4427719712257385e-01</leafValues></_>
        <_>
          <internalNodes>
            0 -1 108 -1280174448 -1332458670 1493242077 991899945
            -1861455712 -1199284096 715930616 -1084278722</internalNodes>
          <leafValues>
            -5.3439003229141235e-01 4.1607889533042908e-01</leafValues></_>
        <_>
          <internalNodes>
            0 -1 187 -968497586 67158022 4441306 1325900803 1208414111
            672178656 1778641010 1397221211</internalNodes>
          <leafValues>
            -4.7104865312576294e-01 4.7362872958183289e-01</leafValues></_></weakClassifiers></_>
    <!-- stage 4 -->
    <_>
      <maxWeakCount>8</maxWeakCount>
      <stageThreshold>-8.9218997955322266e-01</stageThreshold>
      <weakClassifiers>
        <_>
          <internalNodes>
            0 -1 110 -589889776 339017304 771751677 4517628 1149107711
            552926207 -33283 1154481663</internalNodes>
          <leafValues>
            -5.0142335891723633e-01 7.5917607545852661e-01</leafValues></_>
        <_>
          <internalNodes>
            0 -1 125 -141559077 -541081665 -546029698 -1098509 -58723093
            -551309577 -8917910 -760033772</internalNodes>
          <leafValues>
            -3.3726760745048523e-01 6.3126939535140991e-01</leafValues></_>
        <_>
          <internalNodes>
            0 -1 40 -8914849 525860735 376209017 793111207 1503461565
            1628728831 1048538239 1065315967</internalNodes>
          <leafValues>
            -3.9748603105545044e-01 5.4694068431854248e-01</leafValues></_>
        <_>
          <internalNodes>
            0 -1 73 -44564569 -502086889 -179840515 2127885274
            -108006465 -257916751 -64881956 -184755824</internalNodes>
          <leafValues>
            -5.8252680301666260e-01 3.7393063306808472e-01</leafValues></_>
        <_>
          <internalNodes>
            0 -1 1 -1504824015 38678943 -1857371645 -1177673573
            -1144264571 -1148320361 -204553221 -1363190277</internalNodes>
          <leafValues>
            -5.4471200704574585e-01 3.5196939110755920e-01</leafValues></_>
        <_>
          <internalNodes>
            0 -1 211 -1848518202 528961608 643569906 -1299443632
            1527300589 25264131 813769628 -171534286</internalNodes>
          <leafValues>
            -5.5805557966232300e-01 3.3063501119613647e-01</leafValues></_>
        <_>
          <internalNodes>
            0 -1 198 -1030307092 1077944388 -2147434466 1076144154
            818067458 1619005473 178161734 1371925314</internalNodes>
          <leafValues>
            -6.3474875688552856e-01 2.9875817894935608e-01</leafValues></_>
        <_>
          <internalNodes>
            0 -1 134 -745044553 -1870356006 805409233 -599621424
            276873616 134942851 -45112662 -927013936</internalNodes>
          <leafValues>
            -4.2675760388374329e-01 4.3015635013580322e-01</leafValues></_></weakClassifiers></_>
    <!-- stage 5 -->
    <_>
      <maxWeakCount>9</maxWeakCount>
      <stageThreshold>-5.7752579450607300e-01</stageThreshold>
      <weakClassifiers>
        <_>
          <internalNodes>
            0 -1 65 -285249806 -486539338 1862201072 -17105154
            -830511546 -595591178 -453720960 -790563468</internalNodes>
          <leafValues>
            -2.2688110172748566e-01 7.7504998445510864e-01</leafValues></_>
        <_>
          <internalNodes>
            0 -1 93 1574919679 1561069439 2129553151 721473245
            1960578300 2029805053 -18064193 2079293098</internalNodes>
          <leafValues>
            -3.2731989026069641e-01 6.0248368978500366e-01</leafValues></_>
        <_>
          <internalNodes>
            0 -1 89 -638069058 -304877539 1879425355 -1526732401
            -531762946 -123107077 -119939620 -319949064</internalNodes>
          <leafValues>
            -5.9267747402191162e-01 3.9752924442291260e-01</leafValues></_>
        <_>
          <internalNodes>
            0 -1 56 -770442241 -19824508 268521689 -52592488 -90572557
            -636869992 -394229506 -187506224</internalNodes>
          <leafValues>
            -4.1314768791198730e-01 4.7767698764801025e-01</leafValues></_>
        <_>
          <internalNodes>
            0 -1 49 -2163361 954132686 1469312791 1793516044 -73430529
            1562110138 -1148630021 -276825445</internalNodes>
          <leafValues>
            -5.8494657278060913e-01 3.2834765315055847e-01</leafValues></_>
        <_>
          <internalNodes>
            0 -1 10 -1896043780 -1075961337 -1916563233 -49590269
            -1075122184 -7634799 -1426294020 -263457</internalNodes>
          <leafValues>
            -4.8832136392593384e-01 4.0090006589889526e-01</leafValues></_>
        <_>
          <internalNodes>
            0 -1 226 -1689811578 1946206344 1317749332 1923678236
            1108919876 21577728 -1027028348 -837567722</internalNodes>
          <leafValues>
            -5.1539081335067749e-01 3.4649962186813354e-01</leafValues></_>
        <_>
          <internalNodes>
            0 -1 166 -200343534 1761219970 -2143272417 -1327939373
            537527332 -1442303815 671615934 -1159554454</internalNodes>
          <leafValues>
            -4.3785157799720764e-01 3.9861300587654114e-01</leafValues></_>
        <_>
          <internalNodes>
            0 -1 173 -740884833 -2111577982 -535810848 -1677402102
            39493712 1082134678 -770518378 -2146983744</internalNodes>
          <leafValues>
            -4.3220552802085876e-01 3.9249995350837708e-01</leafValues></_></weakClassifiers></_>
    <!-- stage 6 -->
    <_>
      <maxWeakCount>10</maxWeakCount>
      <stageThreshold>-5.4493540525436401e-01</stageThreshold>
      <weakClassifiers>
        <_>
          <internalNodes>
            0 -1 33 250348788 -1100451980 1043525503 -1087213966
            -34850820 -196611 -26705992 -17235979</internalNodes>
          <leafValues>
            -3.5850694775581360e-01 7.3553794622421265e-01</leafValues></_>
        <_>
          <internalNodes>
            0 -1 184 -361760786 -2065240350 -319885586 -303057234
            2455260 71591399 1156996174 1120387659</internalNodes>
          <leafValues>
            -3.7961483001708984e-01 4.9945482611656189e-01</leafValues></_>
        <_>
          <internalNodes>
            0 -1 225 -544736302 -203691377 -1930939448 -783029152
            -1879642984 -1713552371 -891869556 392148612</internalNodes>
          <leafValues>
            -3.8380888104438782e-01 4.7377839684486389e-01</leafValues></_>
        <_>
          <internalNodes>
            0 -1 12 -1429290068 -2113633816 17137795 -1494965504
            -977042688 -1073545209 1074249867 -10814608</internalNodes>
          <leafValues>
            -6.6625237464904785e-01 2.5949585437774658e-01</leafValues></_>
        <_>
          <internalNodes>
            0 -1 99 -2395786 -994860826 -1626210465 1626267822
            -1844249153 1504850745 -1147948125 -75515457</internalNodes>
          <leafValues>
            -6.1798393726348877e-01 2.8256481885910034e-01</leafValues></_>
        <_>
          <internalNodes>
            0 -1 133 -232278901 -68748398 -433987193 -2428200 -800214087
            -1610472828 -286401830 -228396448</internalNodes>
          <leafValues>
            -4.6309116482734680e-01 3.7239569425582886e-01</leafValues></_>
        <_>
          <internalNodes>
            0 -1 178 2015211004 1366903934 1283925389 693102059
            1494307017 327223687 -506478577 1173873419</internalNodes>
          <leafValues>
            -4.0135031938552856e-01 3.9920556545257568e-01</leafValues></_>
        <_>
          <internalNodes>
            0 -1 61 -1441660781 -1476366333 838942033 -54622184
            -1138674863 -1666626646 -585219146 -1160890064</internalNodes>
          <leafValues>
            -4.5422372221946716e-01 3.5811141133308411e-01</leafValues></_>
        <_>
          <internalNodes>
            0 -1 38 -83630461 918748057 -1610145452 1070949126
            -1311410796 -1264578305 2019777140 459752747</internalNodes>
          <leafValues>
            -3.9181017875671387e-01 3.8629969954490662e-01</leafValues></_>
        <_>
          <internalNodes>
            0 -1 71 -216664397 1686174396 -1592141365 -859254065
            201716211 -593370923 419548381 -324471648</internalNodes>
          <leafValues>
            -6.7754143476486206e-01 2.2278037667274475e-01</leafValues></_></weakClassifiers></_>
    <!-- stage 7 -->
    <_>
      <maxWeakCount>11</maxWeakCount>
      <stageThreshold>-9.1712510585784912e-01</stageThreshold>
      <weakClassifiers>
        <_>
          <internalNodes>
            0 -1 41 374275156 2022382 -1508243944 551977608 478915455
            1144720555 1000955582 1849371119</internalNodes>
          <leafValues>
            -7.2734695672988892e-01 7.0423203706741333e-01</leafValues></_>
        <_>
          <internalNodes>
            0 -1 84 -1229835 -1141035012 1073692671 1073723388 792215516
            -1074380802 802439099 -36737286</internalNodes>
          <leafValues>
            -3.3217477798461914e-01 6.0561084747314453e-01</leafValues></_>
        <_>
          <internalNodes>
            0 -1 127 -78187521 -163920957 -921599209 -8158693 -2131969
            1257857335 -540215812 1156575390</internalNodes>
          <leafValues>
            -3.8426482677459717e-01 4.3384942412376404e-01</leafValues></_>
        <_>
          <internalNodes>
            0 -1 107 1088233694 2135241724 1161877167 -16190824
            1755320568 984232106 -125294293 -16794945</internalNodes>
          <leafValues>
            -4.2347627878189087e-01 3.8575538992881775e-01</leafValues></_>
        <_>
          <internalNodes>
            0 -1 160 -626015527 -101908489 779271261 -560333125 -1800576
            -1673951395 -805254518 -1091644862</internalNodes>
          <leafValues>
            -3.0786025524139404e-01 5.2425312995910645e-01</leafValues></_>
        <_>
          <internalNodes>
            0 -1 249 -1166285654 -208824894 268785904 1925303188
            -1817779964 1362135088 1108598736 -799600320</internalNodes>
          <leafValues>
            -4.5757710933685303e-01 3.2458075881004333e-01</leafValues></_>
        <_>
          <internalNodes>
            0 -1 165 1986575326 1524393548 1695488460 1091742260
            -395785291 -654112632 -175431235 1172828383</internalNodes>
          <leafValues>
            -4.5456185936927795e-01 3.3201536536216736e-01</leafValues></_>
        <_>
          <internalNodes>
            0 -1 115 -171443514 -321926501 -1073741810 -857284568
            -234755170 -392683359 -860837704 -334635006</internalNodes>
          <leafValues>
            -6.1649030447006226e-01 2.3088426887989044e-01</leafValues></_>
        <_>
          <internalNodes>
            0 -1 27 -1427235995 907745665 -1609317117 -1428217086
            -1291089019 -1023201149 -209228981 -1409328706</internalNodes>
          <leafValues>
            -4.9275454878807068e-01 2.7249827980995178e-01</leafValues></_>
        <_>
          <internalNodes>
            0 -1 216 -1649807641 -638253402 -1929433348 1911008942
            -1620841233 -287838618 2113135774 -613454481</internalNodes>
          <leafValues>
            -2.6831641793251038e-01 5.6051588058471680e-01</leafValues></_>
        <_>
          <internalNodes>
            0 -1 233 -548476468 459440194 1098929404 486588416
            -939154292 -77061906 -1122724610 -163923168</internalNodes>
          <leafValues>
            -4.8515105247497559e-01 2.9077684879302979e-01</leafValues></_></weakClassifiers></_>
    <!-- stage 8 -->
    <_>
      <maxWeakCount>13</maxWeakCount>
      <stageThreshold>-6.1415368318557739e-01</stageThreshold>
      <weakClassifiers>
        <_>
          <internalNodes>
            0 -1 45 -1246841033 -1644413057 -4 -1342177281 -789250059
            -33554433 -185204747 -1364918416</internalNodes>
          <leafValues>
            -1.2802359461784363e-01 7.5480812788009644e-01</leafValues></_>
        <_>
          <internalNodes>
            0 -1 50 -540297349 -1938755425 -1618837075 585285935
            -1350354757 899342522 -1451127877 -346313829</internalNodes>
          <leafValues>
            -4.5862883329391479e-01 4.2628380656242371e-01</leafValues></_>
        <_>
          <internalNodes>
            0 -1 8 -1794659533 -1621481551 1438782762 -1081138410
            -1323730060 -71826533 742994718 -1887479745</internalNodes>
          <leafValues>
            -4.3992996215820312e-01 3.8664296269416809e-01</leafValues></_>
        <_>
          <internalNodes>
            0 -1 151 -119549217 -1090852129 -58860621 -558892305
            -974474246 -52052586 -659904598 -85003312</internalNodes>
          <leafValues>
            -3.8158178329467773e-01 4.1764974594116211e-01</leafValues></_>
        <_>
          <internalNodes>
            0 -1 92 2078236415 1599993311 -109001393 789369021
            1347158136 985532604 2018380924 2076002990</internalNodes>
          <leafValues>
            -4.4102078676223755e-01 3.3937725424766541e-01</leafValues></_>
        <_>
          <internalNodes>
            0 -1 74 -241574913 1960868240 -1877910315 2094010450
            -752274457 1971880375 -99894856 -524224336</internalNodes>
          <leafValues>
            -4.0279760956764221e-01 3.5482153296470642e-01</leafValues></_>
        <_>
          <internalNodes>
            0 -1 202 -418913418 -460955598 -1073725221 1338534018
            -804789472 10293283 1548394678 1509413831</internalNodes>
          <leafValues>
            -4.5490258932113647e-01 3.0816471576690674e-01</leafValues></_>
        <_>
          <internalNodes>
            0 -1 219 -1257385980 -1686419899 168126020 1896937052
            -1954346880 151463947 -2142963636 1700129224</internalNodes>
          <leafValues>
            -4.5776054263114929e-01 2.9234898090362549e-01</leafValues></_>
        <_>
          <internalNodes>
            0 -1 9 -345772145 -1440222304 -49232 -15556092 -92537633
            -1438646363 -143546376 -33557068</internalNodes>
          <leafValues>
            -3.2304045557975769e-01 4.2527267336845398e-01</leafValues></_>
        <_>
          <internalNodes>
            0 -1 232 -1065031024 1411548864 -2128554332 1531773089
            816873657 430937234 36922043 792416403</internalNodes>
          <leafValues>
            -3.1053832173347473e-01 4.2162933945655823e-01</leafValues></_>
        <_>
          <internalNodes>
            0 -1 6 654301902 407493631 2013280823 1020246986 807996223
            1223550891 1479058363 -16834597</internalNodes>
          <leafValues>
            -5.1503765583038330e-01 2.5675374269485474e-01</leafValues></_>
        <_>
          <internalNodes>
            0 -1 250 -787615096 501502167 269571252 1356317852
            -1286665146 1529552930 -670909498 -1874607324</internalNodes>
          <leafValues>
            -4.0564361214637756e-01 3.1711247563362122e-01</leafValues></_>
        <_>
          <internalNodes>
            0 -1 112 1078199312 1450492548 -862948547 -880368869
            537688572 -124231524 -1467208964 -288817632</internalNodes>
          <leafValues>
            -5.3367882966995239e-01 2.4016624689102173e-01</leafValues></_></weakClassifiers></_>
    <!-- stage 9 -->
    <_>
      <maxWeakCount>15</maxWeakCount>
      <stageThreshold>-7.3263210058212280e-01</stageThreshold>
      <weakClassifiers>
        <_>
          <internalNodes>
            0 -1 147 -59314964 -546902298 -286331220 1693380326
            2120119380 1609400304 -33595553 1315208959</internalNodes>
          <leafValues>
            -3.2403847575187683e-01 7.2140944004058838e-01</leafValues></_>
        <_>
          <internalNodes>
            0 -1 113 -866 -838861739 -33554433 -134746146 -50332164
            -856301827 -587334145 -387059460</internalNodes>
          <leafValues>
            -3.1596574187278748e-01 4.8121500015258789e-01</leafValues></_>
        <_>
          <internalNodes>
            0 -1 87 -1097712464 2143507357 -83768673 -619220083
            -607244335 -209612373 -353556433 -1086631112</internalNodes>
          <leafValues>
            -4.6189829707145691e-01 3.2282701134681702e-01</leafValues></_>
        <_>
          <internalNodes>
            0 -1 255 -1315046725 -678743423 75815766 1475418139 -8203638
            -1740436359 -2132686610 1544143360</internalNodes>
          <leafValues>
            -3.8908618688583374e-01 3.8702100515365601e-01</leafValues></_>
        <_>
          <internalNodes>
            0 -1 102 -703084559 1723883982 -728655458 1984700886
            1487106277 -1358391232 -729697604 -57611900</internalNodes>
          <leafValues>
            -4.4425931572914124e-01 3.1376224756240845e-01</leafValues></_>
        <_>
          <internalNodes>
            0 -1 91 1225020158 -330946416 85033294 730825484 -357221774
            1152692666 2064196479 2143967823</internalNodes>
          <leafValues>
            -4.5240435004234314e-01 3.0941733717918396e-01</leafValues></_>
        <_>
          <internalNodes>
            0 -1 39 -134089782 -253119465 -2146381824 -1090210419
            1620402355 -1315600230 1766079507 1274928187</internalNodes>
          <leafValues>
            -3.7133091688156128e-01 3.4678697586059570e-01</leafValues></_>
        <_>
          <internalNodes>
            0 -1 128 -115607873 -120356175 -1668164643 -58811684
            -1493005615 -2013060971 -1683387462 -54201446</internalNodes>
          <leafValues>
            -3.8075068593025208e-01 3.5821413993835449e-01</leafValues></_>
        <_>
          <internalNodes>
            0 -1 138 2108142167 914339330 -1002135210 2048041628
            1074342072 787087530 1208517259 -1595995513</internalNodes>
          <leafValues>
            -4.7122022509574890e-01 2.7300661802291870e-01</leafValues></_>
        <_>
          <internalNodes>
            0 -1 0 -1497710661 -2102743754 -1073780929 -1141657611
            1605892021 -16777225 1038040047 -303649</internalNodes>
          <leafValues>
            -2.7172997593879700e-01 4.4891327619552612e-01</leafValues></_>
        <_>
          <internalNodes>
            0 -1 77 -115177868 491796944 -777434082 -1847631789
            -1190833484 -91695880 -285204216 482807051</internalNodes>
          <leafValues>
            -3.8436728715896606e-01 3.1793278455734253e-01</leafValues></_>
        <_>
          <internalNodes>
            0 -1 236 -259017564 -624507838 -965668847 -1226880617
            990968576 1999898625 -685969344 -568415467</internalNodes>
          <leafValues>
            -3.3681368827819824e-01 3.5616594552993774e-01</leafValues></_>
        <_>
          <internalNodes>
            0 -1 240 -573247478 2140898397 233192668 1896979505
            -2072081678 -1612751178 -1975133745 2136689176</internalNodes>
          <leafValues>
            -3.0682614445686340e-01 3.7731775641441345e-01</leafValues></_>
        <_>
          <internalNodes>
            0 -1 104 1352411391 1003168983 -796376870 799335565
            1208248504 1487274635 753736331 1592477851</internalNodes>
          <leafValues>
            -4.1430589556694031e-01 2.8428229689598083e-01</leafValues></_>
        <_>
          <internalNodes>
            0 -1 122 -955780470 -1434275613 270160733 -997684324
            -897074678 -1602219828 -115184689 -318971792</internalNodes>
          <leafValues>
            -5.8650821447372437e-01 2.1130809187889099e-01</leafValues></_></weakClassifiers></_>
    <!-- stage 10 -->
    <_>
      <maxWeakCount>15</maxWeakCount>
      <stageThreshold>-9.6119809150695801e-01</stageThreshold>
      <weakClassifiers>
        <_>
          <internalNodes>
            0 -1 88 -52906272 1142471664 1325395593 1090449278 991917916
            280920483 -79733255 1076870639</internalNodes>
          <leafValues>
            -6.3869863748550415e-01 6.9629693031311035e-01</leafValues></_>
        <_>
          <internalNodes>
            0 -1 185 -45109034 -248303794 -33556003 -573083314
            2139076268 -582046516 1904047773 499627790</internalNodes>
          <leafValues>
            -1.9064772129058838e-01 6.0110038518905640e-01</leafValues></_>
        <_>
          <internalNodes>
            0 -1 203 -229643450 -733288748 1780969196 -545267601
            206837684 68605022 351585476 1598286919</internalNodes>
          <leafValues>
            -3.0502679944038391e-01 4.8187699913978577e-01</leafValues></_>
        <_>
          <internalNodes>
            0 -1 170 -60823617 -92933217 -2112779835 -162616902
            -598744093 -350223861 -791746688 -85003532</internalNodes>
          <leafValues>
            -3.8358524441719055e-01 3.7720200419425964e-01</leafValues></_>
        <_>
          <internalNodes>
            0 -1 214 -629751994 -1818326378 352998874 134349439
            417544908 -1283223416 1988170726 1787788206</internalNodes>
          <leafValues>
            -5.3692227602005005e-01 1.9636309146881104e-01</leafValues></_>
        <_>
          <internalNodes>
            0 -1 46 -120495221 -1030765665 -1525725291 517920926
            1921075461 2110853553 -754593870 -59463018</internalNodes>
          <leafValues>
            -4.5976561307907104e-01 2.6518118381500244e-01</leafValues></_>
        <_>
          <internalNodes>
            0 -1 31 -69206049 526143325 1647410418 2008940511 1415866239
            -1141309443 -252316549 -262147</internalNodes>
          <leafValues>
            -2.3139160871505737e-01 5.4312872886657715e-01</leafValues></_>
        <_>
          <internalNodes>
            0 -1 146 1581127932 470491532 809783452 520118282 2026510588
            463080110 1317685262 1422152248</internalNodes>
          <leafValues>
            -5.5332416296005249e-01 2.1846759319305420e-01</leafValues></_>
        <_>
          <internalNodes>
            0 -1 143 -205004053 -1609654272 -771702511 138174658
            -1207483457 -659020653 -33269017 -904743968</internalNodes>
          <leafValues>
            -4.4015350937843323e-01 2.4943028390407562e-01</leafValues></_>
        <_>
          <internalNodes>
            0 -1 95 -1783230172 -18106875 -972727245 930128661
            -1559527964 -1203535254 2131499428 -1351481312</internalNodes>
          <leafValues>
            -4.7265198826789856e-01 2.3674784600734711e-01</leafValues></_>
        <_>
          <internalNodes>
            0 -1 22 -310450377 -1658406209 -40969 -2084852191 926807985
            -1073954825 -1073801219 787456811</internalNodes>
          <leafValues>
            -2.6871290802955627e-01 4.1309168934822083e-01</leafValues></_>
        <_>
          <internalNodes>
            0 -1 200 -361238970 1381148580 779603680 861253175
            1692789336 744910436 503258294 2003005022</internalNodes>
          <leafValues>
            -3.0762261152267456e-01 3.6161750555038452e-01</leafValues></_>
        <_>
          <internalNodes>
            0 -1 252 -1615934728 -235689083 -1785368297 1880084865
            -261886776 -1391169535 1243777272 -832016052</internalNodes>
          <leafValues>
            -4.2049977183341980e-01 2.7523574233055115e-01</leafValues></_>
        <_>
          <internalNodes>
            0 -1 7 -1433266892 786040372 -644393201 -1411667681
            834761141 -1300115442 -1313113189 -1077017360</internalNodes>
          <leafValues>
            -4.8452889919281006e-01 2.2218385338783264e-01</leafValues></_>
        <_>
          <internalNodes>
            0 -1 245 -1958763597 2066971492 501624574 1573061162
            527270057 -651591690 -1654734136 1536121823</internalNodes>
          <leafValues>
            -2.5917130708694458e-01 4.2266273498535156e-01</leafValues></_></weakClassifiers></_>
    <!-- stage 11 -->
    <_>
      <maxWeakCount>16</maxWeakCount>
      <stageThreshold>-7.1496045589447021e-01</stageThreshold>
      <weakClassifiers>
        <_>
          <internalNodes>
            0 -1 17 -285979044 172781116 573599347 -1560676353
            1415345661 2088042364 -51052629 2147417084</internalNodes>
          <leafValues>
            -1.5840892493724823e-01 7.3745030164718628e-01</leafValues></_>
        <_>
          <internalNodes>
            0 -1 37 -14549191 -1179734098 -550277324 1039514934
            -1210747596 -21743698 -1636684525 1543461999</internalNodes>
          <leafValues>
            -2.7518668770790100e-01 4.9568873643875122e-01</leafValues></_>
        <_>
          <internalNodes>
            0 -1 176 -124258329 2019096303 -34144393 -654588163
            -621347330 -1074041090 1291233503 -923850521</internalNodes>
          <leafValues>
            -3.2819059491157532e-01 4.2263087630271912e-01</leafValues></_>
        <_>
          <internalNodes>
            0 -1 72 2145905840 -50402073 1542373097 -34739089 -50462721
            -190876419 -61544213 -326806284</internalNodes>
          <leafValues>
            -2.9151609539985657e-01 4.3043184280395508e-01</leafValues></_>
        <_>
          <internalNodes>
            0 -1 96 -536889541 -1087520837 -302571693 -1077940228
            -939533901 -268960342 -539509237 -18941126</internalNodes>
          <leafValues>
            -2.9999697208404541e-01 4.2487013339996338e-01</leafValues></_>
        <_>
          <internalNodes>
            0 -1 24 -1395203344 30462834 -612366320 -1421672699
            -259808571 -209309555 -124970291 778021793</internalNodes>
          <leafValues>
            -4.4867628812789917e-01 2.6437911391258240e-01</leafValues></_>
        <_>
          <internalNodes>
            0 -1 55 1410503133 -863760366 -1852819169 -343015152
            -1861834271 1149470923 865442330 1329189291</internalNodes>
          <leafValues>
            -4.2171820998191833e-01 2.7568677067756653e-01</leafValues></_>
        <_>
          <internalNodes>
            0 -1 63 -850786564 1583490641 1308766685 -647859493
            -874220639 -121577288 1781294076 -25269590</internalNodes>
          <leafValues>
            -4.6894663572311401e-01 2.5007298588752747e-01</leafValues></_>
        <_>
          <internalNodes>
            0 -1 162 -436082517 -766647895 -1778121640 -60915238
            -639442029 2055276570 -1213032462 -1263144046</internalNodes>
          <leafValues>
            -3.7196204066276550e-01 3.0517125129699707e-01</leafValues></_>
        <_>
          <internalNodes>
            0 -1 231 -1594047420 -1249107835 -1541740474 535527556
            -2134794092 675512808 -2126461834 -1146404749</internalNodes>
          <leafValues>
            -3.2308399677276611e-01 3.5330995917320251e-01</leafValues></_>
        <_>
          <internalNodes>
            0 -1 2 189850538 -369034714 -1660925520 -1249879542
            -320446287 -1441922372 991719789 -571119402</internalNodes>
          <leafValues>
            -3.6657664179801941e-01 2.9801499843597412e-01</leafValues></_>
        <_>
          <internalNodes>
            0 -1 258 -87828588 -145493614 -267284253 2044552095
            -544571004 952250891 -1081055012 1530006129</internalNodes>
          <leafValues>
            -3.7561982870101929e-01 3.0616295337677002e-01</leafValues></_>
        <_>
          <internalNodes>
            0 -1 117 1394029318 -860953933 461492549 1678567595
            -1726367430 1085966389 556806502 1568600635</internalNodes>
          <leafValues>
            -5.7950758934020996e-01 1.8703165650367737e-01</leafValues></_>
        <_>
          <internalNodes>
            0 -1 174 -681586048 -1817514162 -269517137 -216793384
            -805834332 375242570 120020168 1608350917</internalNodes>
          <leafValues>
            -2.9767352342605591e-01 4.2281627655029297e-01</leafValues></_>
        <_>
          <internalNodes>
            0 -1 149 -103899841 -39862600 1593220665 -18478303 164014218
            -1148584627 -119621660 -858587264</internalNodes>
          <leafValues>
            -3.0632647871971130e-01 3.6096459627151489e-01</leafValues></_>
        <_>
          <internalNodes>
            0 -1 139 -841752500 1212248644 -2130632427 1162998616
            -1985070605 1748406433 696435103 1509406346</internalNodes>
          <leafValues>
            -3.5850900411605835e-01 3.3740329742431641e-01</leafValues></_></weakClassifiers></_>
    <!-- stage 12 -->
    <_>
      <maxWeakCount>16</maxWeakCount>
      <stageThreshold>-8.4255456924438477e-01</stageThreshold>
      <weakClassifiers>
        <_>
          <internalNodes>
            0 -1 34 -1241776321 -1251541122 -268435460 -823214602
            -1778778123 -50334339 -185532427 -1465849296</internalNodes>
          <leafValues>
            -3.7576773762702942e-01 7.1218460798263550e-01</leafValues></_>
        <_>
          <internalNodes>
            0 -1 3 -1088372933 -1750462699 -180420 1029843488
            -1088850635 -1413595157 1064521535 -1611707201</internalNodes>
          <leafValues>
            -2.7613145112991333e-01 4.7113132476806641e-01</leafValues></_>
        <_>
          <internalNodes>
            0 -1 80 -1145308276 944525949 -838782582 1819851666 8507
            1486924171 -2012509941 1856744362</internalNodes>
          <leafValues>
            -6.4414715766906738e-01 2.1309705078601837e-01</leafValues></_>
        <_>
          <internalNodes>
            0 -1 167 -67174581 -634392681 -1343755410 -686831373
            -261784084 482863070 1288590446 2010899702</internalNodes>
          <leafValues>
            -2.9726260900497437e-01 4.5845094323158264e-01</leafValues></_>
        <_>
          <internalNodes>
            0 -1 205 -8528448 -1789764605 -542696138 1605631382 5654746
            1060441374 676631194 2002649076</internalNodes>
          <leafValues>
            -2.8602033853530884e-01 4.0933194756507874e-01</leafValues></_>
        <_>
          <internalNodes>
            0 -1 208 -260840591 -678256565 -1877915034 1650895366
            -265854650 -644767725 1939337353 -341330997</internalNodes>
          <leafValues>
            -4.2040762305259705e-01 2.9620030522346497e-01</leafValues></_>
        <_>
          <internalNodes>
            0 -1 121 -286330915 -169021458 -336605393 -437260562
            -402688033 1961182452 2004835647 2004844079</internalNodes>
          <leafValues>
            -2.7462702989578247e-01 4.6117299795150757e-01</leafValues></_>
        <_>
          <internalNodes>
            0 -1 169 -371722753 -1580072309 -1098477314 -856394792
            -796669440 62554761 -226756972 -189466380</internalNodes>
          <leafValues>
            -4.6456983685493469e-01 2.6093474030494690e-01</leafValues></_>
        <_>
          <internalNodes>
            0 -1 67 -1314332128 -234753150 2131424305 2012986160
            1117263284 -369876863 838944544 -1887626954</internalNodes>
          <leafValues>
            -3.5138201713562012e-01 3.4235972166061401e-01</leafValues></_>
        <_>
          <internalNodes>
            0 -1 44 -1399192009 -1439663430 -208759811 1825790811
            -509928393 -607436590 -1566393816 -1074914880</internalNodes>
          <leafValues>
            -4.7512173652648926e-01 2.4268825352191925e-01</leafValues></_>
        <_>
          <internalNodes>
            0 -1 79 437562426 -1427855346 639975447 -290545394
            -1702221134 671232697 973253547 1807389571</internalNodes>
          <leafValues>
            -6.4561587572097778e-01 1.6697743535041809e-01</leafValues></_>
        <_>
          <internalNodes>
            0 -1 118 -150795172 -11405865 -784312930 365898468
            -1992288812 -1181517393 -2012725896 1066366804</internalNodes>
          <leafValues>
            -3.8759833574295044e-01 2.7909684181213379e-01</leafValues></_>
        <_>
          <internalNodes>
            0 -1 171 1134219514 -1677557550 -1039101845 -854616054
            -2130413136 -1607224910 669589839 1967055227</internalNodes>
          <leafValues>
            -3.4201318025588989e-01 3.4337592124938965e-01</leafValues></_>
        <_>
          <internalNodes>
            0 -1 180 -1168153602 -1907363363 -1869428668 -657077899
            453323284 539624211 -1903657316 -529081520</internalNodes>
          <leafValues>
            -4.1454550623893738e-01 2.8500789403915405e-01</leafValues></_>
        <_>
          <internalNodes>
            0 -1 239 -612631294 991989093 242309405 328405769
            -1955201830 -324722828 1196694815 -647367752</internalNodes>
          <leafValues>
            -2.9112711548805237e-01 3.8697063922882080e-01</leafValues></_>
        <_>
          <internalNodes>
            0 -1 130 2050178256 1046824024 1343243591 -36773094
            134497366 313225540 421662926 2100178526</internalNodes>
          <leafValues>
            -4.1112166643142700e-01 2.6873815059661865e-01</leafValues></_></weakClassifiers></_>
    <!-- stage 13 -->
    <_>
      <maxWeakCount>17</maxWeakCount>
      <stageThreshold>-9.8663878440856934e-01</stageThreshold>
      <weakClassifiers>
        <_>
          <internalNodes>
            0 -1 16 82708548 787639922 -33812585 -1104101582 -2869744 -1
            -1241759748 -9109640</internalNodes>
          <leafValues>
            -4.6301370859146118e-01 7.0208334922790527e-01</leafValues></_>
        <_>
          <internalNodes>
            0 -1 222 1392765439 -134510857 2146187992 -574273794
            812592812 -1639149686 -1956245970 -395347970</internalNodes>
          <leafValues>
            -1.5313424170017242e-01 6.0709989070892334e-01</leafValues></_>
        <_>
          <internalNodes>
            0 -1 172 -220793106 -1635368786 -1068859382 -414785010
            2030635338 33010 1887543881 -52191129</internalNodes>
          <leafValues>
            -3.9441999793052673e-01 3.4272077679634094e-01</leafValues></_>
        <_>
          <internalNodes>
            0 -1 30 -1857425201 -707404291 1427167258 131584651
            2043429029 1086892520 -1907918537 2117789966</internalNodes>
          <leafValues>
            -3.6067342758178711e-01 3.5154068470001221e-01</leafValues></_>
        <_>
          <internalNodes>
            0 -1 120 -372028449 -552367652 268714178 -154894006
            -1867287817 1660519060 889371643 -726351884</internalNodes>
          <leafValues>
            -4.6171289682388306e-01 2.8064078092575073e-01</leafValues></_>
        <_>
          <internalNodes>
            0 -1 145 978246206 1716710950 -1877802025 -120150102
            -1290794566 1839247660 -795137090 1848447850</internalNodes>
          <leafValues>
            -6.5449374914169312e-01 1.4813724160194397e-01</leafValues></_>
        <_>
          <internalNodes>
            0 -1 48 -753417958 1577107791 1359581470 -15864940
            1090822583 -190111095 -376853847 -660275535</internalNodes>
          <leafValues>
            -3.5123074054718018e-01 3.3975785970687866e-01</leafValues></_>
        <_>
          <internalNodes>
            0 -1 23 -368058137 -495864419 1074911133 584614785
            1359298039 -1434326362 -99670345 -286332997</internalNodes>
          <leafValues>
            -3.8045519590377808e-01 2.9738354682922363e-01</leafValues></_>
        <_>
          <internalNodes>
            0 -1 154 502267818 1922013193 538826708 1936431443
            1086341136 215756960 9928880 1398215427</internalNodes>
          <leafValues>
            -3.2760685682296753e-01 3.3543103933334351e-01</leafValues></_>
        <_>
          <internalNodes>
            0 -1 212 -752746508 -95247080 -2147433340 -853909254
            1627737249 1073807495 1764213070 1471636839</internalNodes>
          <leafValues>
            -3.4080401062965393e-01 3.3206391334533691e-01</leafValues></_>
        <_>
          <internalNodes>
            0 -1 101 -1565123242 -36687335 -2004739846 -73571311
            -1557048748 -1170169696 -1886858088 -1079615104</internalNodes>
          <leafValues>
            -3.5256215929985046e-01 3.3751338720321655e-01</leafValues></_>
        <_>
          <internalNodes>
            0 -1 116 2128428751 1850477423 -1853709113 -216222840
            1210056864 176702091 -1565587285 1823422090</internalNodes>
          <leafValues>
            -3.7170249223709106e-01 2.7717417478561401e-01</leafValues></_>
        <_>
          <internalNodes>
            0 -1 53 795675229 -851236600 -804107489 1942110347
            -1377032267 -1685556800 1007692728 1258109851</internalNodes>
          <leafValues>
            -4.0705722570419312e-01 2.4476468563079834e-01</leafValues></_>
        <_>
          <internalNodes>
            0 -1 247 -1279545921 924782603 -258190532 2103151374
            44472644 -1288855515 -1574930094 -282549496</internalNodes>
          <leafValues>
            -3.6477020382881165e-01 2.7584907412528992e-01</leafValues></_>
        <_>
          <internalNodes>
            0 -1 182 -782295157 -489744013 1548931166 -1134279359
            2058232136 -1911390066 1630489572 -487414808</internalNodes>
          <leafValues>
            -3.6886200308799744e-01 2.7248740196228027e-01</leafValues></_>
        <_>
          <internalNodes>
            0 -1 195 1527887404 999662482 16949964 371203 331250197
            -815853438 2064617614 -67650757</internalNodes>
          <leafValues>
            -3.0771493911743164e-01 3.3892843127250671e-01</leafValues></_>
        <_>
          <internalNodes>
            0 -1 215 1515125772 2033324684 29729391 -1220041136
            1078705054 -1735916857 651013992 -1026132222</internalNodes>
          <leafValues>
            -3.5532799363136292e-01 2.9314506053924561e-01</leafValues></_></weakClassifiers></_>
    <!-- stage 14 -->
    <_>
      <maxWeakCount>16</maxWeakCount>
      <stageThreshold>-1.0148146152496338e+00</stageThreshold>
      <weakClassifiers>
        <_>
          <internalNodes>
            0 -1 114 -180450234 -1356925594 1677590527 -1098973825
            -998837066 -321587970 -1598751516 -355664660</internalNodes>
          <leafValues>
            -1.8780487775802612e-01 7.2422868013381958e-01</leafValues></_>
        <_>
          <internalNodes>
            0 -1 163 -486543393 -184620306 -1392578834 -201946898
            -855834636 1825371380 -935027548 1575305431</internalNodes>
          <leafValues>
            -2.5202950835227966e-01 4.9552974104881287e-01</leafValues></_>
        <_>
          <internalNodes>
            0 -1 206 -542204005 -6316347 -596133937 -1122662554
            -297180232 -544215698 -419480161 -2120269874</internalNodes>
          <leafValues>
            -2.2746567428112030e-01 5.4200434684753418e-01</leafValues></_>
        <_>
          <internalNodes>
            0 -1 227 -225370096 1562050568 203153836 1078731340
            -207142309 -641887775 -51275106 1509633197</internalNodes>
          <leafValues>
            -4.3906489014625549e-01 2.7519747614860535e-01</leafValues></_>
        <_>
          <internalNodes>
            0 -1 29 -1119449582 391657877 1879062327 -1211629100
            -1930331820 -16056182 -1458733796 1073698971</internalNodes>
          <leafValues>
            -4.3548119068145752e-01 2.6359841227531433e-01</leafValues></_>
        <_>
          <internalNodes>
            0 -1 129 -430575875 -401300512 537002010 -1541618496
            -1872522445 1823834771 403819199 -856830791</internalNodes>
          <leafValues>
            -5.2267140150070190e-01 1.8240259587764740e-01</leafValues></_>
        <_>
          <internalNodes>
            0 -1 105 -562928176 1964552259 -396035756 -205220400
            -2063007523 -106968095 -1584645948 -1091103916</internalNodes>
          <leafValues>
            -3.9255499839782715e-01 3.0249306559562683e-01</leafValues></_>
        <_>
          <internalNodes>
            0 -1 78 2125362910 892091164 -1716705013 748458398 14681713
            2132395 -536870237 -1514437717</internalNodes>
          <leafValues>
            -4.8619726300239563e-01 2.2932268679141998e-01</leafValues></_>
        <_>
          <internalNodes>
            0 -1 11 -1211101606 248579453 -671067470 999532675
            -1070042959 2064687609 -259501144 2115651597</internalNodes>
          <leafValues>
            -4.7157511115074158e-01 2.1787732839584351e-01</leafValues></_>
        <_>
          <internalNodes>
            0 -1 58 -451676028 836194901 100752400 -1170045876 402866416
            546998444 1313082374 1858521294</internalNodes>
          <leafValues>
            -4.7196128964424133e-01 2.3177839815616608e-01</leafValues></_>
        <_>
          <internalNodes>
            0 -1 159 1253248543 269681623 -1340621762 -193806988
            1310144530 256903217 1792728983 -1643455770</internalNodes>
          <leafValues>
            -3.7730026245117188e-01 2.7713519334793091e-01</leafValues></_>
        <_>
          <internalNodes>
            0 -1 123 -882670842 -32335599 -2096083968 2141686664
            -701921900 1082658972 352608272 2072345123</internalNodes>
          <leafValues>
            -3.2162323594093323e-01 3.2954755425453186e-01</leafValues></_>
        <_>
          <internalNodes>
            0 -1 124 -1170850950 -910499152 -653619057 1624172236
            1914875947 318767250 -750550095 -1625181773</internalNodes>
          <leafValues>
            -5.6646990776062012e-01 2.0524977147579193e-01</leafValues></_>
        <_>
          <internalNodes>
            0 -1 153 -30689337 -959929435 970130836 1182442142
            -565777783 -516829087 -348470698 -867913488</internalNodes>
          <leafValues>
            -4.6861162781715393e-01 2.1217691898345947e-01</leafValues></_>
        <_>
          <internalNodes>
            0 -1 190 -232798682 -1204105038 -1021276116 -271603188
            -1737935967 543301730 1615915534 1430743154</internalNodes>
          <leafValues>
            -3.6597481369972229e-01 2.8132930397987366e-01</leafValues></_>
        <_>
          <internalNodes>
            0 -1 220 2130433738 -77167394 2146390013 1543212924
            -1462890604 -1159222140 1726922223 -300318913</internalNodes>
          <leafValues>
            -2.5076189637184143e-01 4.1376468539237976e-01</leafValues></_></weakClassifiers></_>
    <!-- stage 15 -->
    <_>
      <maxWeakCount>18</maxWeakCount>
      <stageThreshold>-7.8788256645202637e-01</stageThreshold>
      <weakClassifiers>
        <_>
          <internalNodes>
            0 -1 243 -1140806016 -1112486845 1844477388 850398736
            2081715588 -45655565 1025325244 839952224</internalNodes>
          <leafValues>
            -3.8537117838859558e-01 7.1492850780487061e-01</leafValues></_>
        <_>
          <internalNodes>
            0 -1 175 -28455855 -539590826 796704506 -14375495 2062348026
            -1074115329 1055969011 -2141443777</internalNodes>
          <leafValues>
            -3.2540279626846313e-01 4.6004712581634521e-01</leafValues></_>
        <_>
          <internalNodes>
            0 -1 15 797542451 -1146027804 -1358925579 -12305960
            -1074709712 -1357799415 -1079462991 -1618126707</internalNodes>
          <leafValues>
            -3.7815207242965698e-01 3.3570101857185364e-01</leafValues></_>
        <_>
          <internalNodes>
            0 -1 135 -246688449 -196217949 1157880616 -1397955330
            -617641281 -1147428205 822731337 1854784428</internalNodes>
          <leafValues>
            -4.0858265757560730e-01 2.8781265020370483e-01</leafValues></_>
        <_>
          <internalNodes>
            0 -1 199 -1694394490 1919082505 17925068 600286090
            -1574713923 2073691003 708911258 92639379</internalNodes>
          <leafValues>
            -3.8314622640609741e-01 3.0364760756492615e-01</leafValues></_>
        <_>
          <internalNodes>
            0 -1 62 -847055342 -243071972 -1690189552 1004368138
            -1436089352 -84766022 -2147417836 -1721278191</internalNodes>
          <leafValues>
            -3.2493621110916138e-01 3.1925609707832336e-01</leafValues></_>
        <_>
          <internalNodes>
            0 -1 26 -805183502 -673705191 268505432 -133687141
            -1340569543 -1261928268 -1476353801 -1069283200</internalNodes>
          <leafValues>
            -3.9736512303352356e-01 2.4436149001121521e-01</leafValues></_>
        <_>
          <internalNodes>
            0 -1 251 -69037325 -67676331 -2004754600 287376161
            -2048871541 -1124106403 -866828775 2131047832</internalNodes>
          <leafValues>
            -3.1324037909507751e-01 3.1760856509208679e-01</leafValues></_>
        <_>
          <internalNodes>
            0 -1 158 437586954 995324416 1402007901 -11349991 2124417208
            -931261556 -1192490309 -562678257</internalNodes>
          <leafValues>
            -4.3283420801162720e-01 2.4006956815719604e-01</leafValues></_>
        <_>
          <internalNodes>
            0 -1 246 134385180 915633557 -1448481227 -1212588939
            529423777 -1241564813 431930607 -1751166483</internalNodes>
          <leafValues>
            -2.8284457325935364e-01 3.7176710367202759e-01</leafValues></_>
        <_>
          <internalNodes>
            0 -1 126 -628934221 -1461083657 633866529 372781849
            1950577516 -1383423813 -905432392 -722155356</internalNodes>
          <leafValues>
            -3.9264044165611267e-01 2.6770925521850586e-01</leafValues></_>
        <_>
          <internalNodes>
            0 -1 194 238215834 236137147 -997805776 1746372767
            -1172147793 -1744726938 -787767222 -907047361</internalNodes>
          <leafValues>
            -3.3268770575523376e-01 3.0715155601501465e-01</leafValues></_>
        <_>
          <internalNodes>
            0 -1 82 1692861535 -540053657 -148501121 -5394964
            -1666172423 -689111553 116394940 -375554692</internalNodes>
          <leafValues>
            -3.0067768692970276e-01 3.3728560805320740e-01</leafValues></_>
        <_>
          <internalNodes>
            0 -1 36 -1480381527 -1460665590 -1228393391 1048982290
            -159170731 1636339842 -74915388 -34713504</internalNodes>
          <leafValues>
            -4.1490638256072998e-01 2.6742446422576904e-01</leafValues></_>
        <_>
          <internalNodes>
            0 -1 191 -960039868 -660419514 -303954706 -1817670982
            -706802472 365782263 -1695347590 -78684026</internalNodes>
          <leafValues>
            -2.8153550624847412e-01 3.5966396331787109e-01</leafValues></_>
        <_>
          <internalNodes>
            0 -1 152 -154431865 -1186487330 536985873 1281320850
            -1026923261 -1979604608 -874280454 -626067088</internalNodes>
          <leafValues>
            -3.3017483353614807e-01 3.0580249428749084e-01</leafValues></_>
        <_>
          <internalNodes>
            0 -1 109 923680159 1031303006 -268501249 1828289724 49333437
            -1602945793 -521110537 -335545090</internalNodes>
          <leafValues>
            -3.0478826165199280e-01 3.2569032907485962e-01</leafValues></_>
        <_>
          <internalNodes>
            0 -1 19 -1676878657 1493614603 -770305852 10457621
            -1601339219 966361106 274213352 -191956968</internalNodes>
          <leafValues>
            -4.8372349143028259e-01 1.9946373999118805e-01</leafValues></_></weakClassifiers></_>
    <!-- stage 16 -->
    <_>
      <maxWeakCount>20</maxWeakCount>
      <stageThreshold>-8.2279998064041138e-01</stageThreshold>
      <weakClassifiers>
        <_>
          <internalNodes>
            0 -1 68 788272212 -67338244 -286785545 -1082753410 -237724
            2147352309 -1359184328 -67355215</internalNodes>
          <leafValues>
            -3.1178081035614014e-01 7.0866590738296509e-01</leafValues></_>
        <_>
          <internalNodes>
            0 -1 57 -849502246 -1102823459 2146687731 -1163100424
            -497001223 2068905460 -118162510 2122317311</internalNodes>
          <leafValues>
            -3.1720423698425293e-01 4.3098393082618713e-01</leafValues></_>
        <_>
          <internalNodes>
            0 -1 229 -149241877 -814891 971877967 -1282320585 1044152300
            -16270336 918831327 931119102</internalNodes>
          <leafValues>
            -2.5203841924667358e-01 5.0079125165939331e-01</leafValues></_>
        <_>
          <internalNodes>
            0 -1 148 -278403249 1801877358 -270008323 -545820048
            -830605569 2028797693 -1534792228 1473757388</internalNodes>
          <leafValues>
            -3.0276188254356384e-01 4.0211060643196106e-01</leafValues></_>
        <_>
          <internalNodes>
            0 -1 21 -900746449 -1910794785 -1071807993 -1410428005
            294887733 -1104627705 -1630176363 1782989602</internalNodes>
          <leafValues>
            -4.7041463851928711e-01 2.2244718670845032e-01</leafValues></_>
        <_>
          <internalNodes>
            0 -1 14 -1347011305 -1342623038 268632345 -1155567221
            -1681190331 -217874269 264317411 -1079030145</internalNodes>
          <leafValues>
            -3.7657859921455383e-01 2.4870216846466064e-01</leafValues></_>
        <_>
          <internalNodes>
            0 -1 100 -1846103050 1099117531 1225799697 1622590139
            2329403 83591184 1644822827 -302079213</internalNodes>
          <leafValues>
            -4.8421359062194824e-01 2.0197769999504089e-01</leafValues></_>
        <_>
          <internalNodes>
            0 -1 94 -1611987756 -1912768051 -469613298 -2062597436
            2023784381 2022572938 2038200940 -17011994</internalNodes>
          <leafValues>
            -4.7447219491004944e-01 2.1702767908573151e-01</leafValues></_>
        <_>
          <internalNodes>
            0 -1 241 -14042735 869352883 571285461 866720112 -1028742208
            -1706317485 123223516 2135511068</internalNodes>
          <leafValues>
            -3.5002762079238892e-01 2.9329803586006165e-01</leafValues></_>
        <_>
          <internalNodes>
            0 -1 106 1530563647 1979154068 -647362 -1178145053 942710196
            -1599291651 808743984 -9619189</internalNodes>
          <leafValues>
            -2.7054280042648315e-01 3.7348425388336182e-01</leafValues></_>
        <_>
          <internalNodes>
            0 -1 136 -729814017 214155986 -2113924978 541361880
            -1061449625 -122608975 1370208093 -397548879</internalNodes>
          <leafValues>
            -4.3148642778396606e-01 2.4149468541145325e-01</leafValues></_>
        <_>
          <internalNodes>
            0 -1 168 1799318087 -1527258699 1818133120 -532491566
            724275268 1185714314 -565402924 -2064584000</internalNodes>
          <leafValues>
            -5.4673910140991211e-01 1.8210588395595551e-01</leafValues></_>
        <_>
          <internalNodes>
            0 -1 218 -980972982 -453771066 420593692 845668974 33694955
            143890451 -1012150642 -542654441</internalNodes>
          <leafValues>
            -3.7079957127571106e-01 2.6741367578506470e-01</leafValues></_>
        <_>
          <internalNodes>
            0 -1 197 -1039775424 -614316992 440669467 -1624190763
            -88204692 -1830305615 -92005718 -1440612270</internalNodes>
          <leafValues>
            -4.5546305179595947e-01 2.0347104966640472e-01</leafValues></_>
        <_>
          <internalNodes>
            0 -1 144 -814763528 1514389191 -1073856793 -48529604
            1899402460 1004535498 787743885 1509949348</internalNodes>
          <leafValues>
            -2.5759720802307129e-01 3.8257110118865967e-01</leafValues></_>
        <_>
          <internalNodes>
            0 -1 51 -5720304 -9457611 -33604227 2013084188 -1782958123
            -151289985 993467677 1073434428</internalNodes>
          <leafValues>
            -3.0268791317939758e-01 3.3059772849082947e-01</leafValues></_>
        <_>
          <internalNodes>
            0 -1 237 604627104 -1309585760 -1588329293 1295846947
            7898768 739204253 -654627925 -1282797009</internalNodes>
          <leafValues>
            -2.6971977949142456e-01 3.5327604413032532e-01</leafValues></_>
        <_>
          <internalNodes>
            0 -1 254 -109317472 490172189 -833311118 429490553
            -1488588325 50002559 1463008911 -818080903</internalNodes>
          <leafValues>
            -2.4085386097431183e-01 4.0600758790969849e-01</leafValues></_>
        <_>
          <internalNodes>
            0 -1 204 -468196668 1556538970 -2008895424 -1058291626
            1125317380 1225286052 -515473029 2141663975</internalNodes>
          <leafValues>
            -2.9361423850059509e-01 3.1265360116958618e-01</leafValues></_>
        <_>
          <internalNodes>
            0 -1 28 -1895682243 -1563281639 1528609663 -621119232
            992836088 -137113419 -1163791623 -1079032783</internalNodes>
          <leafValues>
            -3.8293156027793884e-01 2.5151678919792175e-01</leafValues></_></weakClassifiers></_>
    <!-- stage 17 -->
    <_>
      <maxWeakCount>19</maxWeakCount>
      <stageThreshold>-6.9580090045928955e-01</stageThreshold>
      <weakClassifiers>
        <_>
          <internalNodes>
            0 -1 64 537085384 -527131344 -285220734 -957419538
            1006764276 808626865 1006106681 1152285099</internalNodes>
          <leafValues>
            -6.1098039150238037e-01 7.0092570781707764e-01</leafValues></_>
        <_>
          <internalNodes>
            0 -1 132 -147587605 -21014665 -268435849 -168618274
            -343939393 2145845246 -35142466 -705178448</internalNodes>
          <leafValues>
            -1.4918346703052521e-01 6.0644346475601196e-01</leafValues></_>
        <_>
          <internalNodes>
            0 -1 207 1938814960 -1279660227 1264893211 -81805674
            216889597 -552218723 1220930653 642246030</internalNodes>
          <leafValues>
            -2.5304603576660156e-01 4.5595639944076538e-01</leafValues></_>
        <_>
          <internalNodes>
            0 -1 98 2100867376 -791649644 -784313860 -621621554
            -400351823 -1335810920 1598043321 998197534</internalNodes>
          <leafValues>
            -3.6962386965751648e-01 2.8949570655822754e-01</leafValues></_>
        <_>
          <internalNodes>
            0 -1 179 -20513970 -159383699 -134254602 -1592095 1926004731
            2063040431 535778558 2011149418</internalNodes>
          <leafValues>
            -2.4375666677951813e-01 4.2516058683395386e-01</leafValues></_>
        <_>
          <internalNodes>
            0 -1 70 -775724109 -1489388105 936843681 1072526331
            -674000501 1464188863 -205266965 -16878198</internalNodes>
          <leafValues>
            -2.9575413465499878e-01 3.4866109490394592e-01</leafValues></_>
        <_>
          <internalNodes>
            0 -1 244 -1276402021 -74059460 143378251 -260736682
            -1426420988 1359544867 -1386546108 -704620544</internalNodes>
          <leafValues>
            -4.0819707512855530e-01 2.5247925519943237e-01</leafValues></_>
        <_>
          <internalNodes>
            0 -1 193 172134608 -566192973 -1962770042 -243215738
            -1968850254 684041346 1611957175 -1562925209</internalNodes>
          <leafValues>
            -3.7550476193428040e-01 2.6608714461326599e-01</leafValues></_>
        <_>
          <internalNodes>
            0 -1 54 -2112842918 -25133040 18022809 -1886519282
            -2012204491 328892562 -922709641 801739708</internalNodes>
          <leafValues>
            -3.1892684102058411e-01 3.1497728824615479e-01</leafValues></_>
        <_>
          <internalNodes>
            0 -1 4 -1088827603 -1087262729 804421424 2041257522
            -1116622863 -218161273 -1187694721 -1157669845</internalNodes>
          <leafValues>
            -2.8364428877830505e-01 3.5650876164436340e-01</leafValues></_>
        <_>
          <internalNodes>
            0 -1 142 -747697006 -365075558 -1124331467 -50816623
            -296486844 -1904107332 1554305704 -527785328</internalNodes>
          <leafValues>
            -3.2854065299034119e-01 2.9366436600685120e-01</leafValues></_>
        <_>
          <internalNodes>
            0 -1 69 -1585253410 1544581973 554238721 1863581955
            -2063367245 -860814967 1761739019 -117863533</internalNodes>
          <leafValues>
            -3.6162480711936951e-01 2.7031686902046204e-01</leafValues></_>
        <_>
          <internalNodes>
            0 -1 86 1609645692 441725021 -499023613 716207012 8727184
            1655308962 680036362 -873483605</internalNodes>
          <leafValues>
            -4.8868370056152344e-01 2.0721293985843658e-01</leafValues></_>
        <_>
          <internalNodes>
            0 -1 224 -908023042 1416408838 266775491 -1625080083
            -976596335 -2117659153 1040010555 1661715811</internalNodes>
          <leafValues>
            -2.7643108367919922e-01 3.5197439789772034e-01</leafValues></_>
        <_>
          <internalNodes>
            0 -1 230 -76156005 -1288962061 1466372717 -551551776
            -1088619368 -327354551 1025498537 -147483320</internalNodes>
          <leafValues>
            -2.1527135372161865e-01 4.6181464195251465e-01</leafValues></_>
        <_>
          <internalNodes>
            0 -1 192 -65900910 799056390 -237994109 80445638 19757327
            1945960466 -1827593300 -674762041</internalNodes>
          <leafValues>
            -3.3622324466705322e-01 2.9738014936447144e-01</leafValues></_>
        <_>
          <internalNodes>
            0 -1 155 1288646588 1600444318 -775790114 -75496533
            469766346 1537769601 2113935918 231665426</internalNodes>
          <leafValues>
            -3.6582845449447632e-01 2.6727205514907837e-01</leafValues></_>
        <_>
          <internalNodes>
            0 -1 81 -498127753 -969730478 -402488162 60748482 973699384
            -1176868860 2081225628 697596586</internalNodes>
          <leafValues>
            -4.4602477550506592e-01 2.1411675214767456e-01</leafValues></_>
        <_>
          <internalNodes>
            0 -1 257 -577523984 -1022534687 -686171891 -1820080323
            -242043611 -907837311 -635270653 -672622576</internalNodes>
          <leafValues>
            -3.7266087532043457e-01 2.4565124511718750e-01</leafValues></_></weakClassifiers></_>
    <!-- stage 18 -->
    <_>
      <maxWeakCount>19</maxWeakCount>
      <stageThreshold>-9.0291273593902588e-01</stageThreshold>
      <weakClassifiers>
        <_>
          <internalNodes>
            0 -1 10 -1897132292 -1141178829 -1082806529 1802534451
            -1073983508 -1 -268534036 -1101201411</internalNodes>
          <leafValues>
            -2.1047794818878174e-01 7.1483606100082397e-01</leafValues></_>
        <_>
          <internalNodes>
            0 -1 164 -2361482 -152802568 -1493402913 -50340273 251574962
            -285278482 -1024554762 146751574</internalNodes>
          <leafValues>
            -2.9514479637145996e-01 4.2987015843391418e-01</leafValues></_>
        <_>
          <internalNodes>
            0 -1 47 -268435918 -83886601 -34619585 -709100434 -4865
            -1193414913 -48435269 -49691399</internalNodes>
          <leafValues>
            -2.5215625762939453e-01 4.6212762594223022e-01</leafValues></_>
        <_>
          <internalNodes>
            0 -1 161 -907608246 -228263937 -203247638 -168837514
            1240315903 80626900 1424905342 1449640014</internalNodes>
          <leafValues>
            -3.0949157476425171e-01 3.4798511862754822e-01</leafValues></_>
        <_>
          <internalNodes>
            0 -1 221 -149253157 -147632995 -570525537 -1248485605
            1819223739 -16315256 1592735711 492304362</internalNodes>
          <leafValues>
            -2.1327652037143707e-01 4.7983136773109436e-01</leafValues></_>
        <_>
          <internalNodes>
            0 -1 188 -66475391 -461219697 1142572487 -957446497
            1262578433 -1378854338 -692164874 -363661386</internalNodes>
          <leafValues>
            -4.0990993380546570e-01 2.4392417073249817e-01</leafValues></_>
        <_>
          <internalNodes>
            0 -1 157 1168104310 1243341331 -1291189863 557919003
            -1861612785 44269704 830484520 -637742582</internalNodes>
          <leafValues>
            -3.3572667837142944e-01 3.0081281065940857e-01</leafValues></_>
        <_>
          <internalNodes>
            0 -1 177 1359525112 -820779792 -2146435020 575201756
            -1690293638 1521881761 2040241070 1258113407</internalNodes>
          <leafValues>
            -5.4793316125869751e-01 1.7918641865253448e-01</leafValues></_>
        <_>
          <internalNodes>
            0 -1 75 1375475934 249512927 -1824053445 -1907072311
            2064127469 2055748008 -1998295190 1053808799</internalNodes>
          <leafValues>
            -5.0867098569869995e-01 1.9758076965808868e-01</leafValues></_>
        <_>
          <internalNodes>
            0 -1 13 -1979019341 -1434447549 -1857955371 -1738738698
            -95301929 -1146975832 -880170297 -1153532232</internalNodes>
          <leafValues>
            -3.3391731977462769e-01 3.1380918622016907e-01</leafValues></_>
        <_>
          <internalNodes>
            0 -1 234 -130960690 -1256250701 294056205 1592434837
            2049357844 529236913 2070323262 1488071168</internalNodes>
          <leafValues>
            -4.5617467164993286e-01 2.0302930474281311e-01</leafValues></_>
        <_>
          <internalNodes>
            0 -1 210 -1224698182 -193929202 -1589521782 -405850088
            -1943953173 -1177640697 1115697478 -2098764730</internalNodes>
          <leafValues>
            -3.1940039992332458e-01 3.1219476461410522e-01</leafValues></_>
        <_>
          <internalNodes>
            0 -1 111 13568023 2117026646 1623659695 -12437632
            -1393805772 -856946549 545259660 -1667677800</internalNodes>
          <leafValues>
            -4.5741200447082520e-01 2.0985803008079529e-01</leafValues></_>
        <_>
          <internalNodes>
            0 -1 90 -2010875206 -2134757341 -812333984 715414474
            623776512 -1685231485 1477187024 -867896944</internalNodes>
          <leafValues>
            -5.3651362657546997e-01 1.6795267164707184e-01</leafValues></_>
        <_>
          <internalNodes>
            0 -1 201 -898236557 1925476301 1869311602 1006048941
            343276862 2083167992 2026663920 1538483278</internalNodes>
          <leafValues>
            -2.7767843008041382e-01 3.3602526783943176e-01</leafValues></_>
        <_>
          <internalNodes>
            0 -1 238 1610916256 1357611304 462551347 2132656129
            1568193787 -927588354 1395913519 -1996417717</internalNodes>
          <leafValues>
            -2.2626826167106628e-01 3.9977839589118958e-01</leafValues></_>
        <_>
          <internalNodes>
            0 -1 213 44730320 530481272 1560444936 993034412 38073
            440565768 610723934 2135085984</internalNodes>
          <leafValues>
            -4.2338070273399353e-01 2.0269793272018433e-01</leafValues></_>
        <_>
          <internalNodes>
            0 -1 97 -214914643 -243142865 -1075282255 -774897988
            -1145907787 -1139769423 263567112 -210272965</internalNodes>
          <leafValues>
            -2.0588222146034241e-01 4.2924708127975464e-01</leafValues></_>
        <_>
          <internalNodes>
            0 -1 242 -769606934 -1553750300 48834303 -283588377 92295669
            -1665985395 794795247 -1080581470</internalNodes>
          <leafValues>
            -2.2426357865333557e-01 3.8999322056770325e-01</leafValues></_></weakClassifiers></_>
    <!-- stage 19 -->
    <_>
      <maxWeakCount>21</maxWeakCount>
      <stageThreshold>-9.0670037269592285e-01</stageThreshold>
      <weakClassifiers>
        <_>
          <internalNodes>
            0 -1 76 -268517876 1828536261 -268439554 684502188 75265885
            1090289535 1342173183 620748159</internalNodes>
          <leafValues>
            -3.5629588365554810e-01 7.0971006155014038e-01</leafValues></_>
        <_>
          <internalNodes>
            0 -1 131 1459941372 994361324 -1147457 -1076052068
            -454241093 2130673647 -420023297 -321558960</internalNodes>
          <leafValues>
            -3.6697921156883240e-01 3.9917892217636108e-01</leafValues></_>
        <_>
          <internalNodes>
            0 -1 189 -50856513 -787820294 -21313618 -646971858
            1321997756 374666367 1047881295 -71060898</internalNodes>
          <leafValues>
            -2.2994674742221832e-01 4.8657411336898804e-01</leafValues></_>
        <_>
          <internalNodes>
            0 -1 156 -605044738 -6422562 -17072387 -44189385 -138751746
            1004347101 1727446685 -539101328</internalNodes>
          <leafValues>
            -1.7173422873020172e-01 5.9611165523529053e-01</leafValues></_>
        <_>
          <internalNodes>
            0 -1 43 788793114 1059598608 348199692 -168193576 454260785
            -375355261 513110970 993334564</internalNodes>
          <leafValues>
            -4.9340039491653442e-01 1.9486095011234283e-01</leafValues></_>
        <_>
          <internalNodes>
            0 -1 209 1712866120 1115530011 -2036983538 678085136
            -1574213974 -1656938366 -374458948 1080521663</internalNodes>
          <leafValues>
            -5.2301311492919922e-01 1.7845104634761810e-01</leafValues></_>
        <_>
          <internalNodes>
            0 -1 137 -578291729 -969543296 -444395501 1141156616
            -740927011 -474916454 -400326908 -1069393724</internalNodes>
          <leafValues>
            -3.9912876486778259e-01 2.2917738556861877e-01</leafValues></_>
        <_>
          <internalNodes>
            0 -1 119 1793042527 1996757575 -12632194 -540967097
            1610424492 -1083408674 1358216380 -24152937</internalNodes>
          <leafValues>
            -2.6869040727615356e-01 3.5949337482452393e-01</leafValues></_>
        <_>
          <internalNodes>
            0 -1 235 -680395624 -1248131647 89172383 -207445681
            2054085340 -2001108942 -1193537026 2063068984</internalNodes>
          <leafValues>
            -3.1104245781898499e-01 3.0721995234489441e-01</leafValues></_>
        <_>
          <internalNodes>
            0 -1 35 -422659613 -273805673 -269632111 -1343385877
            -1077938261 -1073848335 -151142472 718252779</internalNodes>
          <leafValues>
            -2.4538667500019073e-01 3.8279265165328979e-01</leafValues></_>
        <_>
          <internalNodes>
            0 -1 83 -1005100668 1205572096 -1878786044 -770293431
            824166584 -58135872 -527332301 -58147084</internalNodes>
          <leafValues>
            -5.2599066495895386e-01 1.7562164366245270e-01</leafValues></_>
        <_>
          <internalNodes>
            0 -1 140 -785269866 1662884368 419562033 1643735599
            -2128921807 -625836014 1902809401 -99493</internalNodes>
          <leafValues>
            -2.8826969861984253e-01 3.2558038830757141e-01</leafValues></_>
        <_>
          <internalNodes>
            0 -1 223 -1435125248 -166023662 -1363712274 1344310306
            -961284667 -186529 -571527309 -137640949</internalNodes>
          <leafValues>
            -2.6988795399665833e-01 3.3281621336936951e-01</leafValues></_>
        <_>
          <internalNodes>
            0 -1 256 -1215564082 459346147 -1967049554 -1847205237
            -1203651506 2079097165 -57680231 -1844437196</internalNodes>
          <leafValues>
            -3.2129982113838196e-01 2.9294675588607788e-01</leafValues></_>
        <_>
          <internalNodes>
            0 -1 85 16815632 -117346162 -880520876 -1109679976 92407281
            -209712933 1063265072 457656096</internalNodes>
          <leafValues>
            -4.2372140288352966e-01 2.1665708720684052e-01</leafValues></_>
        <_>
          <internalNodes>
            0 -1 228 -117276144 -1621942537 1574729759 461142623
            -1393662826 -1085598211 -1656378871 -606388360</internalNodes>
          <leafValues>
            -2.6924711465835571e-01 3.3602395653724670e-01</leafValues></_>
        <_>
          <internalNodes>
            0 -1 253 151055844 329940610 750339047 -175182143
            -1765755393 11427023 1157129407 -862458445</internalNodes>
          <leafValues>
            -2.1611973643302917e-01 4.1236549615859985e-01</leafValues></_>
        <_>
          <internalNodes>
            0 -1 183 1665393510 -423215043 1095200940 96112679
            1376441156 1955725977 697168212 2102652935</internalNodes>
          <leafValues>
            -3.7162610888481140e-01 2.3803925514221191e-01</leafValues></_>
        <_>
          <internalNodes>
            0 -1 42 -1387647394 1313014081 1359647184 507609730
            -1685291600 914493824 -1580959320 -1165270897</internalNodes>
          <leafValues>
            -4.6018061041831970e-01 1.9551266729831696e-01</leafValues></_>
        <_>
          <internalNodes>
            0 -1 150 -1109699887 -1362291965 -736738405 -864855413
            595960621 -219895189 274290674 -191597582</internalNodes>
          <leafValues>
            -3.5863754153251648e-01 2.5264137983322144e-01</leafValues></_>
        <_>
          <internalNodes>
            0 -1 25 -1239878907 -592643700 461378006 2096808202
            -1191076937 -108683112 2063782707 2088040980</internalNodes>
          <leafValues>
            -4.7547179460525513e-01 1.9597761332988739e-01</leafValues></_></weakClassifiers></_></stages>
  <features>
    <_>
      <rect>
        0 0 1 2</rect></_>
    <_>
      <rect>
        0 0 1 5</rect></_>
    <_>
      <rect>
        0 0 4 2</rect></_>
    <_>
      <rect>
        0 0 4 3</rect></_>
    <_>
      <rect>
        0 0 5 4</rect></_>
    <_>
      <rect>
        0 0 5 10</rect></_>
    <_>
      <rect>
        0 0 11 9</rect></_>
    <_>
      <rect>
        0 1 1 2</rect></_>
    <_>
      <rect>
        0 1 4 3</rect></_>
    <_>
      <rect>
        0 2 3 1</rect></_>
    <_>
      <rect>
        0 2 4 7</rect></_>
    <_>
      <rect>
        0 2 7 6</rect></_>
    <_>
      <rect>
        0 3 1 14</rect></_>
    <_>
      <rect>
        0 4 1 1</rect></_>
    <_>
      <rect>
        0 4 1 3</rect></_>
    <_>
      <rect>
        0 4 3 2</rect></_>
    <_>
      <rect>
        0 4 4 5</rect></_>
    <_>
      <rect>
        0 5 8 6</rect></_>
    <_>
      <rect>
        0 6 1 4</rect></_>
    <_>
      <rect>
        0 8 7 12</rect></_>
    <_>
      <rect>
        0 15 12 10</rect></_>
    <_>
      <rect>
        0 18 3 4</rect></_>
    <_>
      <rect>
        0 20 3 6</rect></_>
    <_>
      <rect>
        0 22 2 2</rect></_>
    <_>
      <rect>
        0 24 2 6</rect></_>
    <_>
      <rect>
        0 36 3 3</rect></_>
    <_>
      <rect>
        0 42 7 1</rect></_>
    <_>
      <rect>
        1 0 1 5</rect></_>
    <_>
      <rect>
        1 1 1 2</rect></_>
    <_>
      <rect>
        1 1 3 3</rect></_>
    <_>
      <rect>
        1 1 7 4</rect></_>
    <_>
      <rect>
        1 2 8 8</rect></_>
    <_>
      <rect>
        1 2 14 11</rect></_>
    <_>
      <rect>
        1 3 5 7</rect></_>
    <_>
      <rect>
        1 15 6 10</rect></_>
    <_>
      <rect>
        1 21 2 5</rect></_>
    <_>
      <rect>
        2 0 1 1</rect></_>
    <_>
      <rect>
        2 0 4 3</rect></_>
    <_>
      <rect>
        2 0 5 3</rect></_>
    <_>
      <rect>
        2 0 7 3</rect></_>
    <_>
      <rect>
        2 0 7 5</rect></_>
    <_>
      <rect>
        2 0 14 8</rect></_>
    <_>
      <rect>
        2 2 5 5</rect></_>
    <_>
      <rect>
        2 4 3 2</rect></_>
    <_>
      <rect>
        2 5 1 2</rect></_>
    <_>
      <rect>
        2 13 5 10</rect></_>
    <_>
      <rect>
        2 20 3 1</rect></_>
    <_>
      <rect>
        2 26 10 6</rect></_>
    <_>
      <rect>
        2 33 6 4</rect></_>
    <_>
      <rect>
        3 0 14 9</rect></_>
    <_>
      <rect>
        3 0 14 10</rect></_>
    <_>
      <rect>
        3 1 3 3</rect></_>
    <_>
      <rect>
        3 2 5 8</rect></_>
    <_>
      <rect>
        3 5 4 3</rect></_>
    <_>
      <rect>
        3 19 14 4</rect></_>
    <_>
      <rect>
        3 20 13 4</rect></_>
    <_>
      <rect>
        3 42 7 1</rect></_>
    <_>
      <rect>
        4 0 6 9</rect></_>
    <_>
      <rect>
        4 0 7 4</rect></_>
    <_>
      <rect>
        4 0 9 11</rect></_>
    <_>
      <rect>
        4 0 9 15</rect></_>
    <_>
      <rect>
        4 1 1 1</rect></_>
    <_>
      <rect>
        4 1 3 2</rect></_>
    <_>
      <rect>
        4 3 4 5</rect></_>
    <_>
      <rect>
        4 12 13 4</rect></_>
    <_>
      <rect>
        4 17 6 1</rect></_>
    <_>
      <rect>
        5 0 1 3</rect></_>
    <_>
      <rect>
        5 0 3 2</rect></_>
    <_>
      <rect>
        5 3 4 8</rect></_>
    <_>
      <rect>
        5 4 9 12</rect></_>
    <_>
      <rect>
        5 20 2 3</rect></_>
    <_>
      <rect>
        5 27 5 6</rect></_>
    <_>
      <rect>
        5 29 8 4</rect></_>
    <_>
      <rect>
        5 35 4 3</rect></_>
    <_>
      <rect>
        5 42 4 1</rect></_>
    <_>
      <rect>
        6 0 5 7</rect></_>
    <_>
      <rect>
        6 0 9 9</rect></_>
    <_>
      <rect>
        6 2 3 3</rect></_>
    <_>
      <rect>
        6 2 7 10</rect></_>
    <_>
      <rect>
        6 2 13 8</rect></_>
    <_>
      <rect>
        6 4 8 8</rect></_>
    <_>
      <rect>
        6 7 4 3</rect></_>
    <_>
      <rect>
        6 8 3 2</rect></_>
    <_>
      <rect>
        6 10 7 11</rect></_>
    <_>
      <rect>
        7 0 2 5</rect></_>
    <_>
      <rect>
        7 0 3 3</rect></_>
    <_>
      <rect>
        7 0 6 9</rect></_>
    <_>
      <rect>
        7 4 1 3</rect></_>
    <_>
      <rect>
        7 6 10 8</rect></_>
    <_>
      <rect>
        7 12 6 11</rect></_>
    <_>
      <rect>
        7 14 1 1</rect></_>
    <_>
      <rect>
        7 18 12 5</rect></_>
    <_>
      <rect>
        8 0 5 6</rect></_>
    <_>
      <rect>
        8 1 5 6</rect></_>
    <_>
      <rect>
        8 2 3 5</rect></_>
    <_>
      <rect>
        8 3 1 2</rect></_>
    <_>
      <rect>
        8 19 2 3</rect></_>
    <_>
      <rect>
        9 0 2 3</rect></_>
    <_>
      <rect>
        9 0 3 3</rect></_>
    <_>
      <rect>
        9 0 12 15</rect></_>
    <_>
      <rect>
        9 3 10 14</rect></_>
    <_>
      <rect>
        9 4 1 1</rect></_>
    <_>
      <rect>
        9 15 2 1</rect></_>
    <_>
      <rect>
        9 18 1 1</rect></_>
    <_>
      <rect>
        10 0 5 7</rect></_>
    <_>
      <rect>
        10 1 1 2</rect></_>
    <_>
      <rect>
        10 1 3 3</rect></_>
    <_>
      <rect>
        10 1 4 8</rect></_>
    <_>
      <rect>
        10 3 1 3</rect></_>
    <_>
      <rect>
        10 4 5 9</rect></_>
    <_>
      <rect>
        10 5 7 8</rect></_>
    <_>
      <rect>
        10 8 2 2</rect></_>
    <_>
      <rect>
        10 10 3 3</rect></_>
    <_>
      <rect>
        10 11 5 11</rect></_>
    <_>
      <rect>
        10 12 4 8</rect></_>
    <_>
      <rect>
        10 21 6 8</rect></_>
    <_>
      <rect>
        11 0 5 9</rect></_>
    <_>
      <rect>
        11 2 10 14</rect></_>
    <_>
      <rect>
        11 3 2 3</rect></_>
    <_>
      <rect>
        11 9 3 2</rect></_>
    <_>
      <rect>
        11 19 2 1</rect></_>
    <_>
      <rect>
        11 33 11 4</rect></_>
    <_>
      <rect>
        11 36 2 3</rect></_>
    <_>
      <rect>
        12 0 5 3</rect></_>
    <_>
      <rect>
        12 0 11 14</rect></_>
    <_>
      <rect>
        12 14 1 6</rect></_>
    <_>
      <rect>
        12 15 1 1</rect></_>
    <_>
      <rect>
        12 15 6 6</rect></_>
    <_>
      <rect>
        12 22 2 1</rect></_>
    <_>
      <rect>
        12 27 3 6</rect></_>
    <_>
      <rect>
        13 0 4 5</rect></_>
    <_>
      <rect>
        13 3 3 8</rect></_>
    <_>
      <rect>
        13 13 4 6</rect></_>
    <_>
      <rect>
        13 17 1 3</rect></_>
    <_>
      <rect>
        13 22 1 1</rect></_>
    <_>
      <rect>
        13 24 2 5</rect></_>
    <_>
      <rect>
        13 26 2 4</rect></_>
    <_>
      <rect>
        13 42 1 1</rect></_>
    <_>
      <rect>
        14 0 6 9</rect></_>
    <_>
      <rect>
        14 6 5 12</rect></_>
    <_>
      <rect>
        14 6 7 13</rect></_>
    <_>
      <rect>
        14 6 9 13</rect></_>
    <_>
      <rect>
        14 14 1 1</rect></_>
    <_>
      <rect>
        14 38 1 2</rect></_>
    <_>
      <rect>
        15 0 5 5</rect></_>
    <_>
      <rect>
        15 0 9 9</rect></_>
    <_>
      <rect>
        15 3 3 5</rect></_>
    <_>
      <rect>
        15 9 10 10</rect></_>
    <_>
      <rect>
        15 14 4 7</rect></_>
    <_>
      <rect>
        15 17 1 1</rect></_>
    <_>
      <rect>
        15 19 1 1</rect></_>
    <_>
      <rect>
        15 19 1 2</rect></_>
    <_>
      <rect>
        15 22 1 3</rect></_>
    <_>
      <rect>
        15 23 1 1</rect></_>
    <_>
      <rect>
        16 0 3 2</rect></_>
    <_>
      <rect>
        16 0 4 7</rect></_>
    <_>
      <rect>
        16 0 5 6</rect></_>
    <_>
      <rect>
        16 3 6 14</rect></_>
    <_>
      <rect>
        16 10 2 3</rect></_>
    <_>
      <rect>
        16 14 1 1</rect></_>
    <_>
      <rect>
        16 16 1 1</rect></_>
    <_>
      <rect>
        16 19 3 6</rect></_>
    <_>
      <rect>
        16 24 2 1</rect></_>
    <_>
      <rect>
        16 24 3 7</rect></_>
    <_>
      <rect>
        17 0 5 10</rect></_>
    <_>
      <rect>
        17 9 4 8</rect></_>
    <_>
      <rect>
        17 13 1 1</rect></_>
    <_>
      <rect>
        17 17 3 6</rect></_>
    <_>
      <rect>
        17 19 1 1</rect></_>
    <_>
      <rect>
        17 21 1 1</rect></_>
    <_>
      <rect>
        17 21 1 2</rect></_>
    <_>
      <rect>
        17 26 8 5</rect></_>
    <_>
      <rect>
        17 28 3 3</rect></_>
    <_>
      <rect>
        17 38 1 1</rect></_>
    <_>
      <rect>
        18 0 6 4</rect></_>
    <_>
      <rect>
        18 2 3 8</rect></_>
    <_>
      <rect>
        18 2 4 10</rect></_>
    <_>
      <rect>
        18 9 9 9</rect></_>
    <_>
      <rect>
        18 11 5 7</rect></_>
    <_>
      <rect>
        18 16 3 6</rect></_>
    <_>
      <rect>
        18 17 1 1</rect></_>
    <_>
      <rect>
        18 20 1 1</rect></_>
    <_>
      <rect>
        18 21 1 1</rect></_>
    <_>
      <rect>
        18 21 4 7</rect></_>
    <_>
      <rect>
        18 22 3 5</rect></_>
    <_>
      <rect>
        19 3 7 6</rect></_>
    <_>
      <rect>
        19 14 2 1</rect></_>
    <_>
      <rect>
        19 18 4 7</rect></_>
    <_>
      <rect>
        19 22 1 2</rect></_>
    <_>
      <rect>
        19 25 2 5</rect></_>
    <_>
      <rect>
        19 27 3 3</rect></_>
    <_>
      <rect>
        19 32 2 3</rect></_>
    <_>
      <rect>
        20 0 8 15</rect></_>
    <_>
      <rect>
        20 5 3 7</rect></_>
    <_>
      <rect>
        20 5 5 11</rect></_>
    <_>
      <rect>
        20 7 6 12</rect></_>
    <_>
      <rect>
        20 10 1 1</rect></_>
    <_>
      <rect>
        20 12 1 3</rect></_>
    <_>
      <rect>
        20 14 4 10</rect></_>
    <_>
      <rect>
        20 15 3 5</rect></_>
    <_>
      <rect>
        20 17 3 7</rect></_>
    <_>
      <rect>
        20 18 3 5</rect></_>
    <_>
      <rect>
        20 21 4 8</rect></_>
    <_>
      <rect>
        20 22 2 7</rect></_>
    <_>
      <rect>
        20 26 2 6</rect></_>
    <_>
      <rect>
        21 0 3 5</rect></_>
    <_>
      <rect>
        21 3 8 7</rect></_>
    <_>
      <rect>
        21 4 4 5</rect></_>
    <_>
      <rect>
        21 9 6 12</rect></_>
    <_>
      <rect>
        21 11 4 8</rect></_>
    <_>
      <rect>
        21 13 3 5</rect></_>
    <_>
      <rect>
        21 15 7 1</rect></_>
    <_>
      <rect>
        21 26 3 6</rect></_>
    <_>
      <rect>
        22 1 3 6</rect></_>
    <_>
      <rect>
        22 5 5 8</rect></_>
    <_>
      <rect>
        22 11 2 4</rect></_>
    <_>
      <rect>
        22 13 6 10</rect></_>
    <_>
      <rect>
        22 16 2 1</rect></_>
    <_>
      <rect>
        22 16 5 8</rect></_>
    <_>
      <rect>
        23 1 5 5</rect></_>
    <_>
      <rect>
        23 3 4 10</rect></_>
    <_>
      <rect>
        23 4 6 7</rect></_>
    <_>
      <rect>
        23 8 3 7</rect></_>
    <_>
      <rect>
        23 16 2 8</rect></_>
    <_>
      <rect>
        23 33 5 4</rect></_>
    <_>
      <rect>
        24 0 7 7</rect></_>
    <_>
      <rect>
        24 14 2 1</rect></_>
    <_>
      <rect>
        24 15 7 9</rect></_>
    <_>
      <rect>
        25 5 5 5</rect></_>
    <_>
      <rect>
        25 5 5 8</rect></_>
    <_>
      <rect>
        25 5 6 4</rect></_>
    <_>
      <rect>
        25 33 2 4</rect></_>
    <_>
      <rect>
        26 36 3 3</rect></_>
    <_>
      <rect>
        27 0 6 11</rect></_>
    <_>
      <rect>
        27 5 6 12</rect></_>
    <_>
      <rect>
        27 6 6 9</rect></_>
    <_>
      <rect>
        27 13 1 1</rect></_>
    <_>
      <rect>
        27 34 3 3</rect></_>
    <_>
      <rect>
        27 36 4 3</rect></_>
    <_>
      <rect>
        28 1 3 6</rect></_>
    <_>
      <rect>
        29 2 5 8</rect></_>
    <_>
      <rect>
        29 4 4 6</rect></_>
    <_>
      <rect>
        29 29 5 5</rect></_>
    <_>
      <rect>
        30 1 5 10</rect></_>
    <_>
      <rect>
        30 12 1 2</rect></_>
    <_>
      <rect>
        30 22 5 6</rect></_>
    <_>
      <rect>
        30 38 1 2</rect></_>
    <_>
      <rect>
        31 8 2 4</rect></_>
    <_>
      <rect>
        31 12 1 1</rect></_>
    <_>
      <rect>
        32 8 2 1</rect></_>
    <_>
      <rect>
        32 16 2 1</rect></_>
    <_>
      <rect>
        33 1 4 7</rect></_>
    <_>
      <rect>
        33 11 3 4</rect></_>
    <_>
      <rect>
        33 30 4 3</rect></_>
    <_>
      <rect>
        34 0 3 5</rect></_>
    <_>
      <rect>
        36 5 3 4</rect></_>
    <_>
      <rect>
        38 9 2 2</rect></_>
    <_>
      <rect>
        38 10 2 6</rect></_>
    <_>
      <rect>
        41 2 1 4</rect></_></features></cascade>
</opencv_storage>
