<?xml version="1.0"?>
<opencv_storage>
<cascade>
  <stageType>BOOST</stageType>
  <featureType>LBP</featureType>
  <height>45</height>
  <width>45</width>
  <stageParams>
    <boostType>GAB</boostType>
    <minHitRate>9.9699997901916504e-01</minHitRate>
    <maxFalseAlarm>5.0000000000000000e-01</maxFalseAlarm>
    <weightTrimRate>9.4999999999999996e-01</weightTrimRate>
    <maxDepth>1</maxDepth>
    <maxWeakCount>100</maxWeakCount></stageParams>
  <featureParams>
    <maxCatCount>256</maxCatCount>
    <featSize>1</featSize></featureParams>
  <stageNum>20</stageNum>
  <stages>
    <!-- stage 0 -->
    <_>
      <maxWeakCount>6</maxWeakCount>
      <stageThreshold>-2.4450650215148926e+00</stageThreshold>
      <weakClassifiers>
        <_>
          <internalNodes>
            0 -1 64 -79822988 -27787458 -581705729 -459805705 -8390145
            -86001506 -1 -1073</internalNodes>
          <leafValues>
            -9.3400007486343384e-01 -1.7809376120567322e-01</leafValues></_>
        <_>
          <internalNodes>
            0 -1 159 -25297489 -220752930 2014632702 -50537846
            -148907341 -55313973 -123469890 -19989506</internalNodes>
          <leafValues>
            -7.1897077560424805e-01 3.5106793045997620e-01</leafValues></_>
        <_>
          <internalNodes>
            0 -1 94 -2030170626 -1277282337 -1073056902 -134235569
            -1295041585 -1148206929 -1075174433 -1342234625</internalNodes>
          <leafValues>
            -7.2722923755645752e-01 3.8542476296424866e-01</leafValues></_>
        <_>
          <internalNodes>
            0 -1 151 -180095404 -782894586 1946480853 -2132743227
            -538969858 -570575944 -52430625 -589302689</internalNodes>
          <leafValues>
            -5.8870816230773926e-01 4.1331896185874939e-01</leafValues></_>
        <_>
          <internalNodes>
            0 -1 267 -255375712 1656775494 -2113920992 -770414329
            -901446652 18876696 -1035939200 -1878916800</internalNodes>
          <leafValues>
            -5.5408364534378052e-01 4.2482456564903259e-01</leafValues></_>
        <_>
          <internalNodes>
            0 -1 46 -11534587 -1361904833 160535997 -1395853364
            -336593947 -4470595 -858912315 -861100024</internalNodes>
          <leafValues>
            -6.9673496484756470e-01 3.2202050089836121e-01</leafValues></_></weakClassifiers></_>
    <!-- stage 1 -->
    <_>
      <maxWeakCount>4</maxWeakCount>
      <stageThreshold>-1.9908773899078369e+00</stageThreshold>
      <weakClassifiers>
        <_>
          <internalNodes>
            0 -1 193 -152371050 -220847142 -2142223276 -60852597
            -803569016 -1609039846 -759129410 -91577942</internalNodes>
          <leafValues>
            -8.9341962337493896e-01 1.4979122579097748e-01</leafValues></_>
        <_>
          <internalNodes>
            0 -1 251 -636616576 -2100558824 8650768 805306484
            -1337188352 14815236 -2004876662 -1845357950</internalNodes>
          <leafValues>
            -8.0424809455871582e-01 3.3087128400802612e-01</leafValues></_>
        <_>
          <internalNodes>
            0 -1 106 -2036727664 -1965418544 -1794106415 -35712037
            -1188310081 -74767702 -1198842181 -1074066438</internalNodes>
          <leafValues>
            -7.1127068996429443e-01 4.4122937321662903e-01</leafValues></_>
        <_>
          <internalNodes>
            0 -1 93 -1174208334 111673488 16854 436474186 2048463504
            1476985000 218197648 -1165344624</internalNodes>
          <leafValues>
            -6.2514978647232056e-01 4.7074207663536072e-01</leafValues></_></weakClassifiers></_>
    <!-- stage 2 -->
    <_>
      <maxWeakCount>8</maxWeakCount>
      <stageThreshold>-2.2412767410278320e+00</stageThreshold>
      <weakClassifiers>
        <_>
          <internalNodes>
            0 -1 177 -3147785 -67110242 -1021332193 -13646593 -137367637
            -73422421 -68420721 -17897778</internalNodes>
          <leafValues>
            -8.7791389226913452e-01 -7.5537078082561493e-02</leafValues></_>
        <_>
          <internalNodes>
            0 -1 276 -128285566 -490471414 33579008 -252859702
            -267610624 528384 -800030590 -745856366</internalNodes>
          <leafValues>
            -6.5955394506454468e-01 3.6813500523567200e-01</leafValues></_>
        <_>
          <internalNodes>
            0 -1 231 -122748790 -2142641518 -1568407552 811904584
            -1251368960 5505040 -704601398 -1341209974</internalNodes>
          <leafValues>
            -5.3094559907913208e-01 4.2595317959785461e-01</leafValues></_>
        <_>
          <internalNodes>
            0 -1 25 -1910569285 -1899099426 -1730686181 437023704
            -24118287 1543151834 -1083993453 -1165356316</internalNodes>
          <leafValues>
            -5.0525969266891479e-01 4.3029180169105530e-01</leafValues></_>
        <_>
          <internalNodes>
            0 -1 96 -1360125954 -1158221121 -2128677929 -1140919297
            -540083285 -1148198773 -1278219301 -1372652545</internalNodes>
          <leafValues>
            -6.7384183406829834e-01 3.1148228049278259e-01</leafValues></_>
        <_>
          <internalNodes>
            0 -1 79 -666438316 604831606 -539492355 540405603 -16909316
            -50480131 -151061766 -453021106</internalNodes>
          <leafValues>
            -7.2373652458190918e-01 2.8684788942337036e-01</leafValues></_>
        <_>
          <internalNodes>
            0 -1 63 1475612532 213657567 -1491784265 1073705983
            2113873791 1056912123 2113866623 805252015</internalNodes>
          <leafValues>
            -5.9268623590469360e-01 3.2463303208351135e-01</leafValues></_>
        <_>
          <internalNodes>
            0 -1 236 -18356089 -990924022 -1031241150 1346650822
            -262053308 559257 1124135554 -2142881086</internalNodes>
          <leafValues>
            -4.5368480682373047e-01 4.4844287633895874e-01</leafValues></_></weakClassifiers></_>
    <!-- stage 3 -->
    <_>
      <maxWeakCount>6</maxWeakCount>
      <stageThreshold>-2.1814141273498535e+00</stageThreshold>
      <weakClassifiers>
        <_>
          <internalNodes>
            0 -1 194 -51713 -16417 -1613439521 -2109441 -69272578
            -67456525 -66626 -1117190</internalNodes>
          <leafValues>
            -8.7860929965972900e-01 -1.7228843271732330e-01</leafValues></_>
        <_>
          <internalNodes>
            0 -1 286 -702381952 -58679296 1082263746 -255787008
            -1608220672 269500416 269518464 -1845297152</internalNodes>
          <leafValues>
            -6.9682574272155762e-01 2.2289381921291351e-01</leafValues></_>
        <_>
          <internalNodes>
            0 -1 85 -1162146149 -1081726210 2138118137 -1073751074
            -1141114369 -4461937 -1145323525 -1074921060</internalNodes>
          <leafValues>
            -5.9938746690750122e-01 3.7332284450531006e-01</leafValues></_>
        <_>
          <internalNodes>
            0 -1 115 1289486588 1593052156 2098208767 1069440703
            1808677884 -54341 805126143 -1074812181</internalNodes>
          <leafValues>
            -6.1118268966674805e-01 3.3123612403869629e-01</leafValues></_>
        <_>
          <internalNodes>
            0 -1 219 -1697709534 -823995654 1245734126 1516786638
            1347244548 110182963 -532376960 -2147171580</internalNodes>
          <leafValues>
            -6.5704518556594849e-01 3.1279993057250977e-01</leafValues></_>
        <_>
          <internalNodes>
            0 -1 285 -771585886 -1071608688 167651280 1405419744
            -1810200960 1141249344 571569808 -2095972336</internalNodes>
          <leafValues>
            -4.1452974081039429e-01 4.2571613192558289e-01</leafValues></_></weakClassifiers></_>
    <!-- stage 4 -->
    <_>
      <maxWeakCount>8</maxWeakCount>
      <stageThreshold>-2.1831092834472656e+00</stageThreshold>
      <weakClassifiers>
        <_>
          <internalNodes>
            0 -1 77 -1077952513 -1025 -4227073 -10241 -67108865 -280133
            -1141112837 -25092</internalNodes>
          <leafValues>
            -8.6350321769714355e-01 1.2019935064017773e-02</leafValues></_>
        <_>
          <internalNodes>
            0 -1 17 217890815 -1073827841 -115201 -184321 -1073760257
            -16389 -1073790977 -1342239553</internalNodes>
          <leafValues>
            -7.6658183336257935e-01 2.0655246078968048e-01</leafValues></_>
        <_>
          <internalNodes>
            0 -1 41 -294322379 -459785 -537067521 -285413762 -524355
            -3073 -36896774 -320294672</internalNodes>
          <leafValues>
            -7.5635784864425659e-01 2.7401122450828552e-01</leafValues></_>
        <_>
          <internalNodes>
            0 -1 126 -2006054435 -1426317315 -537100291 -1613922916
            -1094926337 -280065 -1342361925 -1090642436</internalNodes>
          <leafValues>
            -5.6333875656127930e-01 3.6109322309494019e-01</leafValues></_>
        <_>
          <internalNodes>
            0 -1 9 -37888641 1590973213 797208093 1009388046 997670719
            1031752495 -46380757 772416010</internalNodes>
          <leafValues>
            -5.7169228792190552e-01 3.7121152877807617e-01</leafValues></_>
        <_>
          <internalNodes>
            0 -1 66 -1601041165 -1629573324 1038016479 -1073746440
            -1078543873 -67128839 -1162167361 -1073805060</internalNodes>
          <leafValues>
            -4.5694103837013245e-01 4.0813848376274109e-01</leafValues></_>
        <_>
          <internalNodes>
            0 -1 200 -1229515369 -189107794 2114879455 -52649538
            -1291265339 -755826436 -1139761680 -856660048</internalNodes>
          <leafValues>
            -4.4188591837882996e-01 4.3079105019569397e-01</leafValues></_>
        <_>
          <internalNodes>
            0 -1 110 -103416393 -293618817 -574173827 1840201450
            -51183629 -235165197 1143260197 -531321306</internalNodes>
          <leafValues>
            -4.2499682307243347e-01 4.0617039799690247e-01</leafValues></_></weakClassifiers></_>
    <!-- stage 5 -->
    <_>
      <maxWeakCount>11</maxWeakCount>
      <stageThreshold>-2.3226606845855713e+00</stageThreshold>
      <weakClassifiers>
        <_>
          <internalNodes>
            0 -1 272 -1 -157457 -622721 -532713 -1098412865 -4207361
            -1074840641 -47344</internalNodes>
          <leafValues>
            -8.5260057449340820e-01 -1.8510964512825012e-01</leafValues></_>
        <_>
          <internalNodes>
            0 -1 179 -1048585 -4731138 -4194305 -1794 -4097 -4201993
            -268960805 -152117556</internalNodes>
          <leafValues>
            -5.9659898281097412e-01 2.6722612977027893e-01</leafValues></_>
        <_>
          <internalNodes>
            0 -1 18 805285811 1039082995 -33652943 2146584880
            -1087258703 -4219905 1058609456 -537127820</internalNodes>
          <leafValues>
            -5.2265375852584839e-01 3.4007617831230164e-01</leafValues></_>
        <_>
          <internalNodes>
            0 -1 39 -1499807754 -1073807441 -144965697 -1073823748
            -134217729 -21765 -67109889 -1426178057</internalNodes>
          <leafValues>
            -5.2378851175308228e-01 2.7829918265342712e-01</leafValues></_>
        <_>
          <internalNodes>
            0 -1 121 13905439 1047003262 -762013953 1046273758
            1679386894 995102392 -623255814 -1125061902</internalNodes>
          <leafValues>
            -4.2521080374717712e-01 3.7918308377265930e-01</leafValues></_>
        <_>
          <internalNodes>
            0 -1 82 -1291911133 -2145252737 378205367 506862550
            -550143244 -1094771501 -696194094 -21304652</internalNodes>
          <leafValues>
            -4.1822993755340576e-01 3.3832362294197083e-01</leafValues></_>
        <_>
          <internalNodes>
            0 -1 152 1574771965 769670993 1073723391 497954778
            2147302399 -1073792513 -3198977 783231919</internalNodes>
          <leafValues>
            -4.3545806407928467e-01 3.3732354640960693e-01</leafValues></_>
        <_>
          <internalNodes>
            0 -1 287 -1340079984 -2147471856 250541424 -787135724
            -1322407280 -2012164320 -1838819968 -1828581200</internalNodes>
          <leafValues>
            -3.3009359240531921e-01 4.0843421220779419e-01</leafValues></_>
        <_>
          <internalNodes>
            0 -1 160 -18874379 -285868609 217426751 -1392526659
            2147467255 -268443649 1961651300 -303061994</internalNodes>
          <leafValues>
            -3.5293829441070557e-01 3.6833432316780090e-01</leafValues></_>
        <_>
          <internalNodes>
            0 -1 70 -1904165155 -1079460962 -116722789 -1376864292
            -198727 -1182038087 -1180679 -1896165380</internalNodes>
          <leafValues>
            -5.1852577924728394e-01 2.5412905216217041e-01</leafValues></_>
        <_>
          <internalNodes>
            0 -1 237 825488502 -941490319 -314288208 -328758249
            1144840874 -335577422 1829773486 -1105358</internalNodes>
          <leafValues>
            -3.5800430178642273e-01 3.5511633753776550e-01</leafValues></_></weakClassifiers></_>
    <!-- stage 6 -->
    <_>
      <maxWeakCount>12</maxWeakCount>
      <stageThreshold>-2.3053219318389893e+00</stageThreshold>
      <weakClassifiers>
        <_>
          <internalNodes>
            0 -1 101 -1 -16777353 -540016929 -50331849 -65537 -6358081
            -1 -1</internalNodes>
          <leafValues>
            -8.3587586879730225e-01 -1.1818181723356247e-01</leafValues></_>
        <_>
          <internalNodes>
            0 -1 23 -855765252 -16899073 -1090110465 -1073767425
            -1342437121 -1073801281 -1342230529 -1342226433</internalNodes>
          <leafValues>
            -7.2020477056503296e-01 4.6436190605163574e-02</leafValues></_>
        <_>
          <internalNodes>
            0 -1 289 -624787296 -668955344 675367445 -251329264
            362850304 -2120993024 156403616 -1291713536</internalNodes>
          <leafValues>
            -4.1015395522117615e-01 3.8244035840034485e-01</leafValues></_>
        <_>
          <internalNodes>
            0 -1 157 -556857545 -895178769 -49448065 -54858500
            -159427146 -35915265 -387009545 -54723594</internalNodes>
          <leafValues>
            -4.2633500695228577e-01 3.2941070199012756e-01</leafValues></_>
        <_>
          <internalNodes>
            0 -1 165 -250216876 1366421090 -1581910039 -1606308059
            2080364798 -36046339 -50348833 -855671993</internalNodes>
          <leafValues>
            -4.4131878018379211e-01 3.3362030982971191e-01</leafValues></_>
        <_>
          <internalNodes>
            0 -1 123 -1968564048 -50199320 -1881250371 -586280386
            -1288033869 -1166393951 1060254647 1067408830</internalNodes>
          <leafValues>
            -5.2248406410217285e-01 2.4341155588626862e-01</leafValues></_>
        <_>
          <internalNodes>
            0 -1 283 -1876819840 -2080341376 34095152 273653888
            -2147418000 135278604 17433730 -2142109566</internalNodes>
          <leafValues>
            -4.3000996112823486e-01 3.0468386411666870e-01</leafValues></_>
        <_>
          <internalNodes>
            0 -1 55 -1976620494 179845789 352041695 783178751 -2818064
            -1627396865 -1077482500 -21039460</internalNodes>
          <leafValues>
            -5.1566332578659058e-01 2.4859091639518738e-01</leafValues></_>
        <_>
          <internalNodes>
            0 -1 81 -580919310 -420574882 -113156714 -1261535010
            -91688075 -84885381 -376719116 -588649537</internalNodes>
          <leafValues>
            -4.7957694530487061e-01 2.5237494707107544e-01</leafValues></_>
        <_>
          <internalNodes>
            0 -1 125 -357487949 1451240674 2143044863 500049618
            1068515259 1073348607 800991226 533683711</internalNodes>
          <leafValues>
            -4.1183647513389587e-01 2.8286689519882202e-01</leafValues></_>
        <_>
          <internalNodes>
            0 -1 170 -1301151037 -1904516366 1422939615 -1627467330
            -1457554788 -824653318 933384890 -860999272</internalNodes>
          <leafValues>
            -4.3524593114852905e-01 2.9560256004333496e-01</leafValues></_>
        <_>
          <internalNodes>
            0 -1 288 -1683840896 1210872308 387323061 980409732
            2036082116 -501959050 1213564112 -788070320</internalNodes>
          <leafValues>
            -3.6501574516296387e-01 3.3898991346359253e-01</leafValues></_></weakClassifiers></_>
    <!-- stage 7 -->
    <_>
      <maxWeakCount>12</maxWeakCount>
      <stageThreshold>-2.8256919384002686e+00</stageThreshold>
      <weakClassifiers>
        <_>
          <internalNodes>
            0 -1 128 -1 -16777217 -129 -293601281 -4097 -1 -1 -1</internalNodes>
          <leafValues>
            -8.4986561536788940e-01 1.4720985665917397e-02</leafValues></_>
        <_>
          <internalNodes>
            0 -1 27 -285331625 -285296641 -65761 -285278241 -98305
            -69241859 -66561 -65538</internalNodes>
          <leafValues>
            -7.5571042299270630e-01 -1.5699906274676323e-02</leafValues></_>
        <_>
          <internalNodes>
            0 -1 250 -605558134 -62749088 708746274 1883724492
            -2027838208 1157656388 1938918538 -749762470</internalNodes>
          <leafValues>
            -3.5953316092491150e-01 4.3600821495056152e-01</leafValues></_>
        <_>
          <internalNodes>
            0 -1 144 -8388633 -495517849 -16781569 -420090122 -235440537
            -1267335305 -193485312 -185205042</internalNodes>
          <leafValues>
            -4.6162906289100647e-01 3.0744084715843201e-01</leafValues></_>
        <_>
          <internalNodes>
            0 -1 30 783221299 -1343345158 1064703749 2113799918
            -1087651919 -1079249037 1044012317 536829180</internalNodes>
          <leafValues>
            -5.9327393770217896e-01 2.4677519500255585e-01</leafValues></_>
        <_>
          <internalNodes>
            0 -1 0 -1962996073 183472078 1862184959 448540655 -41947161
            1275035505 -537727250 -17895681</internalNodes>
          <leafValues>
            -3.5892423987388611e-01 3.8469275832176208e-01</leafValues></_>
        <_>
          <internalNodes>
            0 -1 284 -250617216 -203257212 646454376 1346830468
            -787758080 301992196 101148564 -788315134</internalNodes>
          <leafValues>
            -3.6197808384895325e-01 3.8432011008262634e-01</leafValues></_>
        <_>
          <internalNodes>
            0 -1 188 -67109029 -285802497 2094988306 -188293938
            -1207966859 -589714433 -169412720 -729748744</internalNodes>
          <leafValues>
            -4.7286725044250488e-01 2.6077339053153992e-01</leafValues></_>
        <_>
          <internalNodes>
            0 -1 261 -162018814 -1570308505 -164575684 1349577934
            1886746950 1680143461 1667363652 -674760861</internalNodes>
          <leafValues>
            -3.4736087918281555e-01 3.4047222137451172e-01</leafValues></_>
        <_>
          <internalNodes>
            0 -1 20 774344499 107393486 1582201723 1929313246
            -1149239369 -83904401 2080110327 -4210764</internalNodes>
          <leafValues>
            -4.0284100174903870e-01 2.7748307585716248e-01</leafValues></_>
        <_>
          <internalNodes>
            0 -1 22 83640062 251569903 -1074652194 -1342292001
            -1342302210 -1680617081 -1344389121 -1073799169</internalNodes>
          <leafValues>
            -6.0003745555877686e-01 1.8901327252388000e-01</leafValues></_>
        <_>
          <internalNodes>
            0 -1 112 -82068641 -36766083 1811624334 -1192444732
            2135908159 -176818177 1779043035 -363705574</internalNodes>
          <leafValues>
            -3.8068592548370361e-01 3.3092147111892700e-01</leafValues></_></weakClassifiers></_>
    <!-- stage 8 -->
    <_>
      <maxWeakCount>9</maxWeakCount>
      <stageThreshold>-2.1548211574554443e+00</stageThreshold>
      <weakClassifiers>
        <_>
          <internalNodes>
            0 -1 149 -1 -1 -268435457 -324009985 -1 -67108865 -1 -1</internalNodes>
          <leafValues>
            -8.5599893331527710e-01 -2.8098658658564091e-03</leafValues></_>
        <_>
          <internalNodes>
            0 -1 67 -285331585 -285245441 -16842753 -16842753 -1 -1
            -65793 -328710</internalNodes>
          <leafValues>
            -6.9247901439666748e-01 6.2237925827503204e-02</leafValues></_>
        <_>
          <internalNodes>
            0 -1 26 774582195 749350894 -4472880 -1116244 -1092894785
            -148481 805269937 -536912388</internalNodes>
          <leafValues>
            -5.3254860639572144e-01 2.5021374225616455e-01</leafValues></_>
        <_>
          <internalNodes>
            0 -1 100 -8405449 -327680195 -386994692 -1359085842 -205
            -285745281 1827434052 -453727708</internalNodes>
          <leafValues>
            -6.7285156250000000e-01 2.0172096788883209e-01</leafValues></_>
        <_>
          <internalNodes>
            0 -1 38 -2103311719 -1561798924 911924703 -1090598948
            -1144062978 -3621 -1142031361 -1157755400</internalNodes>
          <leafValues>
            -5.1488870382308960e-01 2.7043485641479492e-01</leafValues></_>
        <_>
          <internalNodes>
            0 -1 7 -12586017 241156095 2144777919 -58818562 1732194087
            1044316987 1602170718 847150614</internalNodes>
          <leafValues>
            -5.4062044620513916e-01 2.5421610474586487e-01</leafValues></_>
        <_>
          <internalNodes>
            0 -1 282 -20213046 -1899324768 1987866208 -789200500
            589097984 339758356 168863362 -783826558</internalNodes>
          <leafValues>
            -3.3698639273643494e-01 3.9119324088096619e-01</leafValues></_>
        <_>
          <internalNodes>
            0 -1 65 672270930 -1361671208 1843099607 -1129431179
            -1075873673 -73675783 -1145316355 -1073870600</internalNodes>
          <leafValues>
            -6.0700625181198120e-01 2.0699062943458557e-01</leafValues></_>
        <_>
          <internalNodes>
            0 -1 109 -49581 1853783935 -16863297 -29556738 -1077936521
            2004351839 2013197030 -151191588</internalNodes>
          <leafValues>
            -5.2377784252166748e-01 2.3368704319000244e-01</leafValues></_></weakClassifiers></_>
    <!-- stage 9 -->
    <_>
      <maxWeakCount>12</maxWeakCount>
      <stageThreshold>-2.6852223873138428e+00</stageThreshold>
      <weakClassifiers>
        <_>
          <internalNodes>
            0 -1 247 -1 -134755073 -409800497 -2104569 -1091634293
            -83914561 -269227009 -213</internalNodes>
          <leafValues>
            -8.2253319025039673e-01 2.4450366199016571e-01</leafValues></_>
        <_>
          <internalNodes>
            0 -1 2 -1120948240 -1146998814 2005336004 -1695840
            -144969807 -4719753 1465599348 -704300</internalNodes>
          <leafValues>
            -6.4171695709228516e-01 8.9930623769760132e-02</leafValues></_>
        <_>
          <internalNodes>
            0 -1 195 -1359081857 -357629954 -16842818 -285458436
            -184555626 -402653185 -598348 -318964048</internalNodes>
          <leafValues>
            -5.4337793588638306e-01 2.4636843800544739e-01</leafValues></_>
        <_>
          <internalNodes>
            0 -1 223 -143658358 -744380882 507292218 -653577472
            1644949640 1065738882 143589902 1364000776</internalNodes>
          <leafValues>
            -3.9504057168960571e-01 3.6390247941017151e-01</leafValues></_>
        <_>
          <internalNodes>
            0 -1 34 212337339 179012320 1301284273 -33617890 -1414808653
            -1145948237 506927933 267324669</internalNodes>
          <leafValues>
            -5.5258196592330933e-01 2.7107074856758118e-01</leafValues></_>
        <_>
          <internalNodes>
            0 -1 253 -231219990 1348761846 -18186580 -190300613
            1618002114 1073901060 1413734401 1431562019</internalNodes>
          <leafValues>
            -3.9826071262359619e-01 3.5191711783409119e-01</leafValues></_>
        <_>
          <internalNodes>
            0 -1 16 251342363 -1427218497 -8 -428032034 -1075848467
            -1207977057 -16846860 -16843132</internalNodes>
          <leafValues>
            -4.5881506800651550e-01 2.8209972381591797e-01</leafValues></_>
        <_>
          <internalNodes>
            0 -1 234 -1359868908 -1431928906 987688556 -190792330
            -260823984 1165556535 -419498796 -185420272</internalNodes>
          <leafValues>
            -4.6656849980354309e-01 2.5822994112968445e-01</leafValues></_>
        <_>
          <internalNodes>
            0 -1 216 1426187136 -784204890 1076724055 19229728
            1918730730 -12682841 553514654 1081341098</internalNodes>
          <leafValues>
            -3.6582744121551514e-01 3.1974759697914124e-01</leafValues></_>
        <_>
          <internalNodes>
            0 -1 279 -1373197048 -287121942 -319067968 1655698856
            -1171403456 41385798 -285289290 -202701652</internalNodes>
          <leafValues>
            -3.5065704584121704e-01 3.2250437140464783e-01</leafValues></_>
        <_>
          <internalNodes>
            0 -1 155 180293237 -1363794177 -155549962 -1090634245
            -1905074186 -1163165697 -1208080706 -17162248</internalNodes>
          <leafValues>
            -4.1160348057746887e-01 2.6439973711967468e-01</leafValues></_>
        <_>
          <internalNodes>
            0 -1 229 4318278 -1622680073 1009051254 -858821116
            1333682674 708663339 451618814 796591667</internalNodes>
          <leafValues>
            -3.8273125886917114e-01 2.8993660211563110e-01</leafValues></_></weakClassifiers></_>
    <!-- stage 10 -->
    <_>
      <maxWeakCount>11</maxWeakCount>
      <stageThreshold>-2.4753768444061279e+00</stageThreshold>
      <weakClassifiers>
        <_>
          <internalNodes>
            0 -1 268 -2359329 -278327 -615787521 -12714229 -326392613
            -6567693 77843131 -10381</internalNodes>
          <leafValues>
            -8.3367639780044556e-01 5.6230317801237106e-02</leafValues></_>
        <_>
          <internalNodes>
            0 -1 58 -1691365390 966475763 1163751312 1071804114
            -360189007 -143176713 1198132500 1574256788</internalNodes>
          <leafValues>
            -6.4169043302536011e-01 9.3946009874343872e-02</leafValues></_>
        <_>
          <internalNodes>
            0 -1 84 240193335 -1371838987 -151011339 -1157695512
            -25764363 -1073744907 -109710352 -4317708</internalNodes>
          <leafValues>
            -5.0058662891387939e-01 2.6205027103424072e-01</leafValues></_>
        <_>
          <internalNodes>
            0 -1 222 -238356792 -1156893564 1412182017 -784287936
            23518090 462075082 38600712 21316864</internalNodes>
          <leafValues>
            -4.5659103989601135e-01 3.0006843805313110e-01</leafValues></_>
        <_>
          <internalNodes>
            0 -1 210 -45351446 -934960060 1232096066 84104210 2139158502
            1624438806 1896095828 1148679255</internalNodes>
          <leafValues>
            -4.3948236107826233e-01 3.2059875130653381e-01</leafValues></_>
        <_>
          <internalNodes>
            0 -1 218 750194195 -1208516709 -18874642 -16977938
            -1393068474 -814089602 -419498108 -185810948</internalNodes>
          <leafValues>
            -4.5995038747787476e-01 3.1101232767105103e-01</leafValues></_>
        <_>
          <internalNodes>
            0 -1 88 -1498238607 -1363751555 1774186975 -75585058
            -1143480330 -39059497 -1090585857 -1073783299</internalNodes>
          <leafValues>
            -4.1176593303680420e-01 3.1353241205215454e-01</leafValues></_>
        <_>
          <internalNodes>
            0 -1 142 774505780 -1364281566 -553652263 -290914380
            -1677795468 -100869 -1611445313 -51603980</internalNodes>
          <leafValues>
            -5.1983910799026489e-01 2.2966559231281281e-01</leafValues></_>
        <_>
          <internalNodes>
            0 -1 242 1946677834 -710614013 1030814390 -652103900
            1719321802 2144664928 710026666 1252522923</internalNodes>
          <leafValues>
            -2.9900422692298889e-01 3.8805872201919556e-01</leafValues></_>
        <_>
          <internalNodes>
            0 -1 256 652929568 50249138 -286906840 -353174866 2012153158
            897414999 -1126743788 -134783401</internalNodes>
          <leafValues>
            -4.2344665527343750e-01 2.7234607934951782e-01</leafValues></_>
        <_>
          <internalNodes>
            0 -1 140 1550851294 2058224354 641872479 1036268759
            735722495 -1090896897 459030331 702511087</internalNodes>
          <leafValues>
            -4.4719544053077698e-01 2.3843370378017426e-01</leafValues></_></weakClassifiers></_>
    <!-- stage 11 -->
    <_>
      <maxWeakCount>12</maxWeakCount>
      <stageThreshold>-2.2402565479278564e+00</stageThreshold>
      <weakClassifiers>
        <_>
          <internalNodes>
            0 -1 214 -1 -273 -1 -17 -71041029 -4462090 -68158465 -85</internalNodes>
          <leafValues>
            -8.0348539352416992e-01 3.8633540272712708e-01</leafValues></_>
        <_>
          <internalNodes>
            0 -1 212 -65 -270041217 -18874398 -287375362 -142606476
            -134348961 -1443916 -50528276</internalNodes>
          <leafValues>
            -6.4023619890213013e-01 9.3392252922058105e-02</leafValues></_>
        <_>
          <internalNodes>
            0 -1 19 775360279 -1360351236 -12615938 -291569782
            -1754335513 -538968129 -281104 -2177868</internalNodes>
          <leafValues>
            -5.2168452739715576e-01 2.4057067930698395e-01</leafValues></_>
        <_>
          <internalNodes>
            0 -1 117 -1363530255 -1363755528 -4720641 -136971280
            -1090523211 -12861715 -1078561615 -2157083</internalNodes>
          <leafValues>
            -3.6156746745109558e-01 3.6785763502120972e-01</leafValues></_>
        <_>
          <internalNodes>
            0 -1 4 -168493060 -323158020 -1342238849 -1073868801
            1308560607 1073684223 805244151 788467647</internalNodes>
          <leafValues>
            -3.3023869991302490e-01 3.6751464009284973e-01</leafValues></_>
        <_>
          <internalNodes>
            0 -1 211 -1090572770 2142781366 -151585026 -16977928
            -16782012 -524417 -17369444 -118423564</internalNodes>
          <leafValues>
            -4.2184123396873474e-01 2.7406093478202820e-01</leafValues></_>
        <_>
          <internalNodes>
            0 -1 184 -180879500 -176886028 -834339852 -1059019100
            -249693714 -642008744 1021366525 1156965215</internalNodes>
          <leafValues>
            -4.5854711532592773e-01 2.4282252788543701e-01</leafValues></_>
        <_>
          <internalNodes>
            0 -1 69 239021943 780045047 -1109411905 -1929576452 -655361
            -1628454915 -268500995 -318964048</internalNodes>
          <leafValues>
            -4.7608500719070435e-01 2.1514530479907990e-01</leafValues></_>
        <_>
          <internalNodes>
            0 -1 86 519839484 2147235831 -1415683105 -1073861677
            -1279379469 -2399301 -1546895361 805268991</internalNodes>
          <leafValues>
            -5.5438899993896484e-01 1.8780426681041718e-01</leafValues></_>
        <_>
          <internalNodes>
            0 -1 246 -427888662 -286331138 -353456510 -288948692
            1727221060 1198718813 -178913724 -186323536</internalNodes>
          <leafValues>
            -4.7374764084815979e-01 2.2566416859626770e-01</leafValues></_>
        <_>
          <internalNodes>
            0 -1 228 -356784628 1025765065 -420827540 -219236638
            -134419964 338558795 -71784804 -134294336</internalNodes>
          <leafValues>
            -3.1674975156784058e-01 3.2472646236419678e-01</leafValues></_>
        <_>
          <internalNodes>
            0 -1 44 -1610612941 -19209313 -1052510785 -1348146962
            -184292363 -6618629 1213074736 -319821336</internalNodes>
          <leafValues>
            -3.5385608673095703e-01 2.8118342161178589e-01</leafValues></_></weakClassifiers></_>
    <!-- stage 12 -->
    <_>
      <maxWeakCount>15</maxWeakCount>
      <stageThreshold>-2.3431537151336670e+00</stageThreshold>
      <weakClassifiers>
        <_>
          <internalNodes>
            0 -1 226 -1 -1 -1048593 -1179649 -16777217 -269484049
            -150995969 -319815681</internalNodes>
          <leafValues>
            -8.3195573091506958e-01 -1.2798634357750416e-02</leafValues></_>
        <_>
          <internalNodes>
            0 -1 52 -17891329 -319356929 -578945569 -16842786 -285278225
            -285212673 -33685649 -318967809</internalNodes>
          <leafValues>
            -6.0441744327545166e-01 6.5270133316516876e-02</leafValues></_>
        <_>
          <internalNodes>
            0 -1 134 -205 -268435673 -286789916 -289473994 -15
            1610479927 -445681868 -16978960</internalNodes>
          <leafValues>
            -5.7371819019317627e-01 1.7144194245338440e-01</leafValues></_>
        <_>
          <internalNodes>
            0 -1 76 1608507357 -1370161185 -1105251825 -1096876033
            2134847359 1065254751 -25220737 587186030</internalNodes>
          <leafValues>
            -5.0353562831878662e-01 2.2435496747493744e-01</leafValues></_>
        <_>
          <internalNodes>
            0 -1 29 780796466 211952870 -1076949064 -1074246652
            -1079296007 -145752195 792362769 531586284</internalNodes>
          <leafValues>
            -6.9474554061889648e-01 1.8215674161911011e-01</leafValues></_>
        <_>
          <internalNodes>
            0 -1 122 -4185 -327684105 -841089236 -438046723 -134219529
            -680001545 1678044962 -455742673</internalNodes>
          <leafValues>
            -3.4321811795234680e-01 2.6548752188682556e-01</leafValues></_>
        <_>
          <internalNodes>
            0 -1 119 1794900092 1054747182 -1129545729 917438126
            -71385092 -131074 -151191556 -231147550</internalNodes>
          <leafValues>
            -5.7550323009490967e-01 1.5485419332981110e-01</leafValues></_>
        <_>
          <internalNodes>
            0 -1 49 -1426084929 83665855 -681583745 250458105 -15729667
            -1343229265 -286278667 -1427190804</internalNodes>
          <leafValues>
            -3.5625395178794861e-01 2.4014912545681000e-01</leafValues></_>
        <_>
          <internalNodes>
            0 -1 62 -340808781 -140105798 -826867916 -119554 -1625162057
            -13926425 1606359025 -570470153</internalNodes>
          <leafValues>
            -2.4323064088821411e-01 3.4918352961540222e-01</leafValues></_>
        <_>
          <internalNodes>
            0 -1 137 -179833548 -654312718 -186320788 -1528649785
            1175677023 -118670442 1927901770 1349713751</internalNodes>
          <leafValues>
            -4.7908955812454224e-01 1.7770640552043915e-01</leafValues></_>
        <_>
          <internalNodes>
            0 -1 43 785393461 -1096486913 -473126145 -1418920484
            1521947595 -4197377 2144325622 -391330400</internalNodes>
          <leafValues>
            -5.5737084150314331e-01 1.4286127686500549e-01</leafValues></_>
        <_>
          <internalNodes>
            0 -1 255 -77075058 643987918 -1230281180 -260572886
            505040197 1130861157 1845368580 -241975610</internalNodes>
          <leafValues>
            -3.2539561390876770e-01 2.6099476218223572e-01</leafValues></_>
        <_>
          <internalNodes>
            0 -1 74 -1535704061 175967214 1862155255 553549627
            -119772555 1440462525 -347672834 -84219180</internalNodes>
          <leafValues>
            -4.1700384020805359e-01 1.9339755177497864e-01</leafValues></_>
        <_>
          <internalNodes>
            0 -1 290 -1516076918 11964664 285500580 -789102340
            -1677024700 71420368 1848815032 -1290665196</internalNodes>
          <leafValues>
            -3.3348250389099121e-01 2.5364792346954346e-01</leafValues></_>
        <_>
          <internalNodes>
            0 -1 199 -1229258082 -1074259470 2090253886 -1157955864
            -33628276 1073138297 -17909764 -1092946948</internalNodes>
          <leafValues>
            -3.0417656898498535e-01 2.6808780431747437e-01</leafValues></_></weakClassifiers></_>
    <!-- stage 13 -->
    <_>
      <maxWeakCount>17</maxWeakCount>
      <stageThreshold>-2.5211999416351318e+00</stageThreshold>
      <weakClassifiers>
        <_>
          <internalNodes>
            0 -1 190 -1 -67371105 -20971521 -386924633 -67109893
            -140509297 -220202049 -385876037</internalNodes>
          <leafValues>
            -8.5244446992874146e-01 -2.7824175357818604e-01</leafValues></_>
        <_>
          <internalNodes>
            0 -1 13 805289983 1073295103 -536870913 -1130498 -29639235
            -9 -1082163715 -8964</internalNodes>
          <leafValues>
            -5.7358312606811523e-01 6.0838192701339722e-02</leafValues></_>
        <_>
          <internalNodes>
            0 -1 53 -691082534 12881658 1849711637 1342499492 -573049859
            -722144771 -1638728054 -791005456</internalNodes>
          <leafValues>
            -3.4889277815818787e-01 2.8157368302345276e-01</leafValues></_>
        <_>
          <internalNodes>
            0 -1 35 215886815 -1929482241 -268500993 -1342242817
            -1073790977 -3589 -884737 -1346699265</internalNodes>
          <leafValues>
            -5.6171089410781860e-01 1.7656938731670380e-01</leafValues></_>
        <_>
          <internalNodes>
            0 -1 8 -143261857 -125961219 -4216593 -1128597249 2076127023
            492679787 -2146577 783231786</internalNodes>
          <leafValues>
            -3.4563782811164856e-01 2.9803422093391418e-01</leafValues></_>
        <_>
          <internalNodes>
            0 -1 203 -469762353 -822611969 -420609380 -286282066
            -2056034521 232634366 653028868 -458291102</internalNodes>
          <leafValues>
            -3.4157553315162659e-01 2.7261424064636230e-01</leafValues></_>
        <_>
          <internalNodes>
            0 -1 168 -2145253216 976759480 -1697334916 271936468
            1062255756 -1691063972 983445496 -1885665875</internalNodes>
          <leafValues>
            -3.4873130917549133e-01 2.5398814678192139e-01</leafValues></_>
        <_>
          <internalNodes>
            0 -1 80 -1838183685 140692717 217978943 286106157 492552183
            653360757 728874999 -2113779888</internalNodes>
          <leafValues>
            -2.8656730055809021e-01 3.0162471532821655e-01</leafValues></_>
        <_>
          <internalNodes>
            0 -1 99 1744813877 -1078280395 -438304769 -1372520834
            1324333589 -470832273 -898155163 -924042060</internalNodes>
          <leafValues>
            -6.2629175186157227e-01 1.3617782294750214e-01</leafValues></_>
        <_>
          <internalNodes>
            0 -1 78 -1073856516 -134289425 -183250413 -1219052833
            -1092653169 -1291075069 -1277742081 -1342210193</internalNodes>
          <leafValues>
            -4.1919940710067749e-01 2.0002080500125885e-01</leafValues></_>
        <_>
          <internalNodes>
            0 -1 98 -1110048804 955121023 -1175487509 -1372586181
            -203605252 -33686538 1396440318 -84541828</internalNodes>
          <leafValues>
            -3.2426127791404724e-01 2.4583867192268372e-01</leafValues></_>
        <_>
          <internalNodes>
            0 -1 205 -1361060089 -293701905 1844948586 -269489434
            1970724727 611712886 -464374746 -196868604</internalNodes>
          <leafValues>
            -4.0511342883110046e-01 2.0595505833625793e-01</leafValues></_>
        <_>
          <internalNodes>
            0 -1 73 -854263050 -19099410 -867640196 -52787458 -239488139
            -41338674 -1442448684 -1133072194</internalNodes>
          <leafValues>
            -3.6786445975303650e-01 2.1996079385280609e-01</leafValues></_>
        <_>
          <internalNodes>
            0 -1 173 1911028703 -1577652530 -1158433473 -184566044
            -1217134609 1845458941 2055078623 2062444458</internalNodes>
          <leafValues>
            -2.6467651128768921e-01 3.1815436482429504e-01</leafValues></_>
        <_>
          <internalNodes>
            0 -1 266 -1215426898 -1568391454 648789556 -1785860350
            1949632279 121667446 620648402 -1824313710</internalNodes>
          <leafValues>
            -2.7676081657409668e-01 2.8590300679206848e-01</leafValues></_>
        <_>
          <internalNodes>
            0 -1 47 -34603329 -1368827174 -44800001 -630916132
            -348460426 -1645139138 -217334800 -587682828</internalNodes>
          <leafValues>
            -3.5924553871154785e-01 2.2392386198043823e-01</leafValues></_>
        <_>
          <internalNodes>
            0 -1 37 1051636729 737033332 933182973 -541305648
            -1096942089 -21127169 960191997 532635128</internalNodes>
          <leafValues>
            -3.2335776090621948e-01 2.4031561613082886e-01</leafValues></_></weakClassifiers></_>
    <!-- stage 14 -->
    <_>
      <maxWeakCount>21</maxWeakCount>
      <stageThreshold>-2.2466981410980225e+00</stageThreshold>
      <weakClassifiers>
        <_>
          <internalNodes>
            0 -1 208 -1 -273 -2113537 -17 -19922961 -67376147 -268439553
            -17</internalNodes>
          <leafValues>
            -8.0352950096130371e-01 1.6448032855987549e-01</leafValues></_>
        <_>
          <internalNodes>
            0 -1 107 -299630861 -5576832 -1080072203 -35847370
            -1086604869 -1119879171 1065254911 -1610656513</internalNodes>
          <leafValues>
            -4.4987595081329346e-01 1.8886752426624298e-01</leafValues></_>
        <_>
          <internalNodes>
            0 -1 56 1530788347 822078463 2145380212 1072856806
            -700981584 -69517643 -1632939 1599570166</internalNodes>
          <leafValues>
            -2.8526791930198669e-01 2.9157963395118713e-01</leafValues></_>
        <_>
          <internalNodes>
            0 -1 265 -613024032 -590348571 -1496784894 -628168974
            -245891824 -465242173 1699166234 1460098375</internalNodes>
          <leafValues>
            -3.3889228105545044e-01 2.3883607983589172e-01</leafValues></_>
        <_>
          <internalNodes>
            0 -1 166 -589962 -164188382 -192613380 -328204574 -640750626
            -67970083 -268510209 1256146134</internalNodes>
          <leafValues>
            -3.4711262583732605e-01 2.2696883976459503e-01</leafValues></_>
        <_>
          <internalNodes>
            0 -1 153 2096903900 2086547052 717684727 1070081726
            -1073987585 532640766 2080309225 498925224</internalNodes>
          <leafValues>
            -4.7010710835456848e-01 1.8455009162425995e-01</leafValues></_>
        <_>
          <internalNodes>
            0 -1 158 -16826501 -1362706434 -1621100546 -856887422
            -271749513 -270140233 -1611155817 -856883744</internalNodes>
          <leafValues>
            -4.1403603553771973e-01 1.7812052369117737e-01</leafValues></_>
        <_>
          <internalNodes>
            0 -1 36 -1360068645 -1073807361 -1 -1073741825 -1140998145
            -1074397185 1073688575 -1141135561</internalNodes>
          <leafValues>
            -2.7674981951713562e-01 2.8300219774246216e-01</leafValues></_>
        <_>
          <internalNodes>
            0 -1 143 -402657801 67170134 1876681559 1627808469
            1442707447 -508054606 2004179012 1895684171</internalNodes>
          <leafValues>
            -2.9827144742012024e-01 2.5311076641082764e-01</leafValues></_>
        <_>
          <internalNodes>
            0 -1 6 1933567987 1008723167 -1386238048 -156320068
            1969174305 924270359 -9500124 1079017218</internalNodes>
          <leafValues>
            -3.8764238357543945e-01 1.9040785729885101e-01</leafValues></_>
        <_>
          <internalNodes>
            0 -1 31 235538481 715795352 1174673156 1598952118
            -1416839294 -141347981 117661501 154096863</internalNodes>
          <leafValues>
            -5.0304257869720459e-01 1.4577600359916687e-01</leafValues></_>
        <_>
          <internalNodes>
            0 -1 232 -660460374 370310674 -1359970594 -63905669
            -59729212 -231647113 -957023778 -1173978286</internalNodes>
          <leafValues>
            -2.9837560653686523e-01 2.4244141578674316e-01</leafValues></_>
        <_>
          <internalNodes>
            0 -1 59 45231667 104470332 -1916830979 774695068 -1687562700
            -4545953 -13109296 -18212984</internalNodes>
          <leafValues>
            -4.7836324572563171e-01 1.5233659744262695e-01</leafValues></_>
        <_>
          <internalNodes>
            0 -1 213 1963408734 1434166003 1725970788 1291137571
            1716937930 -1942699085 -241018746 1927552514</internalNodes>
          <leafValues>
            -3.6790233850479126e-01 1.8653531372547150e-01</leafValues></_>
        <_>
          <internalNodes>
            0 -1 220 -8917241 720303043 2128604398 -185272754 1845490229
            1827760912 635336192 -252120604</internalNodes>
          <leafValues>
            -4.2469751834869385e-01 1.5623782575130463e-01</leafValues></_>
        <_>
          <internalNodes>
            0 -1 138 -291445072 -61745344 1576990708 -680897035
            -1850036239 -2495531 -1385024295 -1644227382</internalNodes>
          <leafValues>
            -2.0531734824180603e-01 3.4038618206977844e-01</leafValues></_>
        <_>
          <internalNodes>
            0 -1 45 -1904361507 -1175147554 -240920609 -1342177539
            -497699891 -1278960979 -1315453971 -1095766788</internalNodes>
          <leafValues>
            -2.6997688412666321e-01 2.6944193243980408e-01</leafValues></_>
        <_>
          <internalNodes>
            0 -1 114 1471425756 2147361779 -213486653 1063043827
            -87147574 1807964139 -1076594742 805250767</internalNodes>
          <leafValues>
            -3.8548877835273743e-01 1.8507345020771027e-01</leafValues></_>
        <_>
          <internalNodes>
            0 -1 280 -293674880 1899993204 -1561950663 -228616342
            797174354 108263750 1467224010 -139487528</internalNodes>
          <leafValues>
            -2.2511877119541168e-01 3.1014806032180786e-01</leafValues></_>
        <_>
          <internalNodes>
            0 -1 233 -1359565949 -332090367 1987216642 698639922
            1064560639 -1531549341 2001626696 1105032799</internalNodes>
          <leafValues>
            -3.0510368943214417e-01 2.2263669967651367e-01</leafValues></_>
        <_>
          <internalNodes>
            0 -1 24 -1426182313 -289787585 1447846159 -153169505
            -8488738 -212663495 -202450472 -1115684</internalNodes>
          <leafValues>
            -4.7717875242233276e-01 1.3215306401252747e-01</leafValues></_></weakClassifiers></_>
    <!-- stage 15 -->
    <_>
      <maxWeakCount>24</maxWeakCount>
      <stageThreshold>-2.4524960517883301e+00</stageThreshold>
      <weakClassifiers>
        <_>
          <internalNodes>
            0 -1 209 -1 -1 -4198433 -574750721 -269485137 -17838081
            -288362517 -318767173</internalNodes>
          <leafValues>
            -8.2409226894378662e-01 -2.2491851449012756e-01</leafValues></_>
        <_>
          <internalNodes>
            0 -1 21 1069268987 -1163273 -1342726211 -1130498 -1089226053
            -216146961 -1082148579 1608506620</internalNodes>
          <leafValues>
            -5.2192723751068115e-01 1.7153678461909294e-02</leafValues></_>
        <_>
          <internalNodes>
            0 -1 48 -65609 -1359020126 -671486493 -1342361666 -608313867
            -2361435 1282343269 -839930996</internalNodes>
          <leafValues>
            -3.1160029768943787e-01 2.3666264116764069e-01</leafValues></_>
        <_>
          <internalNodes>
            0 -1 10 -76812579 -665518594 -69236290 -2000755186
            1039873839 2105482047 2134271548 774775342</internalNodes>
          <leafValues>
            -4.4488239288330078e-01 1.5905869007110596e-01</leafValues></_>
        <_>
          <internalNodes>
            0 -1 178 1870613035 -29420745 2129657534 -18309378
            -960758667 -461645324 -72486210 -185535748</internalNodes>
          <leafValues>
            -3.6481875181198120e-01 1.9129896163940430e-01</leafValues></_>
        <_>
          <internalNodes>
            0 -1 3 117190516 -1108040453 -209558794 -1107444107
            -1083888668 -14468343 -1409347657 788466295</internalNodes>
          <leafValues>
            -5.1492887735366821e-01 1.4871439337730408e-01</leafValues></_>
        <_>
          <internalNodes>
            0 -1 269 -1677996350 -223598488 -223003408 1389075876
            -1151458556 778259988 -206373238 -750547952</internalNodes>
          <leafValues>
            -2.5098127126693726e-01 2.5768622756004333e-01</leafValues></_>
        <_>
          <internalNodes>
            0 -1 92 -1537277827 -2073881921 -1563280651 686971519
            -81825196 1600934384 -1305544715 -1441857740</internalNodes>
          <leafValues>
            -3.9780816435813904e-01 1.5801142156124115e-01</leafValues></_>
        <_>
          <internalNodes>
            0 -1 252 1456717478 -1471348820 -2132880854 -2038121982
            356979103 618724297 1985941572 1097810982</internalNodes>
          <leafValues>
            -3.6247226595878601e-01 1.7014116048812866e-01</leafValues></_>
        <_>
          <internalNodes>
            0 -1 105 -383547758 -802991115 -420853764 1475098100
            -1099219019 -1242071247 939400657 534729982</internalNodes>
          <leafValues>
            -2.3656997084617615e-01 2.5457146763801575e-01</leafValues></_>
        <_>
          <internalNodes>
            0 -1 221 -218190105 788211691 -1359059420 -623383326
            2011165922 795950949 1403975634 -241958954</internalNodes>
          <leafValues>
            -2.1881207823753357e-01 2.8236192464828491e-01</leafValues></_>
        <_>
          <internalNodes>
            0 -1 146 -430965004 -186228228 -275190676 1324281582
            1434384245 -260375746 1998808617 660075367</internalNodes>
          <leafValues>
            -5.1452720165252686e-01 1.2148138880729675e-01</leafValues></_>
        <_>
          <internalNodes>
            0 -1 204 1901584142 -290533917 -295768466 -974147930
            -9967737 670308849 819885120 1155793924</internalNodes>
          <leafValues>
            -4.1062572598457336e-01 1.3973282277584076e-01</leafValues></_>
        <_>
          <internalNodes>
            0 -1 180 -134508685 -285329937 -164176650 -1125204314
            1929101087 2012543419 1599976402 -186061076</internalNodes>
          <leafValues>
            -3.9038124680519104e-01 1.5115951001644135e-01</leafValues></_>
        <_>
          <internalNodes>
            0 -1 141 -1438765376 1214258672 -321392643 313915324
            -1075707920 -1143140959 -1077666824 -1918172720</internalNodes>
          <leafValues>
            -3.2685962319374084e-01 1.8599279224872589e-01</leafValues></_>
        <_>
          <internalNodes>
            0 -1 111 905671892 238845684 -281893766 1052688351
            2112818559 1020732899 -255578631 721299310</internalNodes>
          <leafValues>
            -5.4505860805511475e-01 1.1086927354335785e-01</leafValues></_>
        <_>
          <internalNodes>
            0 -1 33 104333850 203948768 2132629433 -1912863016
            -1640267853 -220468773 791871419 536825084</internalNodes>
          <leafValues>
            -5.5027359724044800e-01 9.8079003393650055e-02</leafValues></_>
        <_>
          <internalNodes>
            0 -1 11 -2104555389 184476351 -292189345 586082221
            1985450965 -1796238613 -1342592267 -336667432</internalNodes>
          <leafValues>
            -3.6121112108230591e-01 1.5864169597625732e-01</leafValues></_>
        <_>
          <internalNodes>
            0 -1 270 -761101278 2125667808 -1430373758 -210471280
            -222688048 -176908952 -1414357030 -1077971586</internalNodes>
          <leafValues>
            -2.2005820274353027e-01 2.8103855252265930e-01</leafValues></_>
        <_>
          <internalNodes>
            0 -1 75 -1163706433 -1171021825 -10813442 -558055512
            964414261 -67408557 -1279560820 -571204510</internalNodes>
          <leafValues>
            -2.5327682495117188e-01 2.2296468913555145e-01</leafValues></_>
        <_>
          <internalNodes>
            0 -1 274 -2006120756 222900873 -628363526 -1745731724
            511076321 2130173715 707866500 931098420</internalNodes>
          <leafValues>
            -3.3158048987388611e-01 1.6863308846950531e-01</leafValues></_>
        <_>
          <internalNodes>
            0 -1 42 -1486995659 -1103568588 -202515521 -357633928
            -1816011978 -1617730663 -768233778 -587244500</internalNodes>
          <leafValues>
            -3.9246261119842529e-01 1.4524266123771667e-01</leafValues></_>
        <_>
          <internalNodes>
            0 -1 95 1913054928 347255280 -1059424426 -168241166
            -1322573933 -1075579503 1566513969 536810623</internalNodes>
          <leafValues>
            -2.4442084133625031e-01 2.3734261095523834e-01</leafValues></_>
        <_>
          <internalNodes>
            0 -1 71 -1426115321 -1560898602 -40904225 -1627411817
            -42222729 586701420 -20991353 -896619540</internalNodes>
          <leafValues>
            -2.7225804328918457e-01 2.0416942238807678e-01</leafValues></_></weakClassifiers></_>
    <!-- stage 16 -->
    <_>
      <maxWeakCount>25</maxWeakCount>
      <stageThreshold>-2.3691656589508057e+00</stageThreshold>
      <weakClassifiers>
        <_>
          <internalNodes>
            0 -1 259 -1 -12305 -513 -2097329 -16777473 -12577 -1 -33</internalNodes>
          <leafValues>
            -7.9976934194564819e-01 1.8160377442836761e-01</leafValues></_>
        <_>
          <internalNodes>
            0 -1 130 -326439728 -66520768 -44153347 -42154512
            -1137033729 -1076544530 -1118150659 503272927</internalNodes>
          <leafValues>
            -5.0577288866043091e-01 1.4782933518290520e-02</leafValues></_>
        <_>
          <internalNodes>
            0 -1 1 1072414623 -1146933257 -8488449 -18546698 -25437324
            -134481429 -579085067 -263690</internalNodes>
          <leafValues>
            -2.7432504296302795e-01 2.5642579793930054e-01</leafValues></_>
        <_>
          <internalNodes>
            0 -1 176 -269484059 788479591 -2067388805 1862137559
            1610594101 802923415 1258253028 1254982368</internalNodes>
          <leafValues>
            -3.3743044734001160e-01 1.9549781084060669e-01</leafValues></_>
        <_>
          <internalNodes>
            0 -1 60 800230322 -72860030 -1152909648 -41011576
            -1154859341 -8487937 796770225 1610423804</internalNodes>
          <leafValues>
            -3.1048092246055603e-01 1.9483043253421783e-01</leafValues></_>
        <_>
          <internalNodes>
            0 -1 183 1375537332 263142136 380836287 529018598 1054814092
            978725836 1316761054 1019522748</internalNodes>
          <leafValues>
            -3.8967910408973694e-01 1.9008111953735352e-01</leafValues></_>
        <_>
          <internalNodes>
            0 -1 40 -890403808 179235206 845033873 -54554914 176996259
            255387939 1132163447 1341964671</internalNodes>
          <leafValues>
            -4.9656778573989868e-01 1.1402940005064011e-01</leafValues></_>
        <_>
          <internalNodes>
            0 -1 249 386065662 1735863127 -1377682586 -901669753
            612302336 -75531330 669410106 1073161810</internalNodes>
          <leafValues>
            -2.9864361882209778e-01 1.9126480817794800e-01</leafValues></_>
        <_>
          <internalNodes>
            0 -1 28 -1967258061 713952254 -1081118755 796842988
            -1214310689 -70261861 -1146224708 -1073848872</internalNodes>
          <leafValues>
            -4.1363197565078735e-01 1.3393670320510864e-01</leafValues></_>
        <_>
          <internalNodes>
            0 -1 244 -223237974 -73540049 -1359011094 -1334667394
            -1364274876 494432077 -1151471990 -137697361</internalNodes>
          <leafValues>
            -2.0198351144790649e-01 2.7552279829978943e-01</leafValues></_>
        <_>
          <internalNodes>
            0 -1 103 -1062550286 1978687480 -816920908 2101760708
            1963620657 -8937611 -1170514599 1065307350</internalNodes>
          <leafValues>
            -2.2628434002399445e-01 2.4792790412902832e-01</leafValues></_>
        <_>
          <internalNodes>
            0 -1 72 -1905465454 -994908170 -1545732143 -1108479085
            1556072437 -838861829 -771753151 -838930434</internalNodes>
          <leafValues>
            -2.4790656566619873e-01 2.3002628982067108e-01</leafValues></_>
        <_>
          <internalNodes>
            0 -1 175 83504191 636360703 -421087017 -859507762 988311476
            -71319697 -1091182384 -387156364</internalNodes>
          <leafValues>
            -4.7385674715042114e-01 1.1954464763402939e-01</leafValues></_>
        <_>
          <internalNodes>
            0 -1 163 -152125924 -690672386 -1165181556 1010082731
            1002205182 -612616529 1779382158 238043306</internalNodes>
          <leafValues>
            -3.5733866691589355e-01 1.4550255239009857e-01</leafValues></_>
        <_>
          <internalNodes>
            0 -1 196 -270164002 -553844993 -269578386 -1207980044
            -1056966845 -798693407 1309998851 -194511050</internalNodes>
          <leafValues>
            -2.3117262125015259e-01 2.4088919162750244e-01</leafValues></_>
        <_>
          <internalNodes>
            0 -1 145 -181422153 -889536517 -271057643 -1402425938
            -1149240393 1602816918 -931325003 -1930889376</internalNodes>
          <leafValues>
            -3.9861723780632019e-01 1.4634597301483154e-01</leafValues></_>
        <_>
          <internalNodes>
            0 -1 132 1391083792 1185556164 -419686461 -127651882
            933961104 -1907151907 797520815 176116731</internalNodes>
          <leafValues>
            -3.7652128934860229e-01 1.4002291858196259e-01</leafValues></_>
        <_>
          <internalNodes>
            0 -1 257 -86703387 753172450 1818485270 -152044798 490097926
            1191052205 -27596139 -212636362</internalNodes>
          <leafValues>
            -2.3567880690097809e-01 2.2733978927135468e-01</leafValues></_>
        <_>
          <internalNodes>
            0 -1 161 -1024996032 -193642713 -471900837 1608509296
            -349107280 2108365812 -1087675395 970279630</internalNodes>
          <leafValues>
            -2.0500363409519196e-01 2.6283085346221924e-01</leafValues></_>
        <_>
          <internalNodes>
            0 -1 169 -402094478 678504486 747429699 2547810 1154708468
            -1113837125 1532181596 1618983859</internalNodes>
          <leafValues>
            -4.6564829349517822e-01 1.1617825180292130e-01</leafValues></_>
        <_>
          <internalNodes>
            0 -1 124 -1373499500 -1085002368 -1157181474 -9537059
            -1146132068 -1154753573 937369523 856889660</internalNodes>
          <leafValues>
            -4.2871737480163574e-01 1.3616691529750824e-01</leafValues></_>
        <_>
          <internalNodes>
            0 -1 186 -1299544959 -771338350 -1594442392 -1293848972
            -1208027200 -1894990923 -1244142372 -34116392</internalNodes>
          <leafValues>
            -2.0071767270565033e-01 2.6872798800468445e-01</leafValues></_>
        <_>
          <internalNodes>
            0 -1 239 -75567130 -488360928 -163842198 1563841888
            1098659559 1089927216 2080264296 1106587894</internalNodes>
          <leafValues>
            -2.8445234894752502e-01 1.8556258082389832e-01</leafValues></_>
        <_>
          <internalNodes>
            0 -1 192 -97646560 -394375319 -424771846 2028369042
            925617004 1062645637 876789470 -420042780</internalNodes>
          <leafValues>
            -2.9499045014381409e-01 1.7789258062839508e-01</leafValues></_>
        <_>
          <internalNodes>
            0 -1 14 1069527035 1006443259 1868499872 -5194578 -80043216
            2046339003 -1084285122 -2099798633</internalNodes>
          <leafValues>
            -2.2937285900115967e-01 2.3833684623241425e-01</leafValues></_></weakClassifiers></_>
    <!-- stage 17 -->
    <_>
      <maxWeakCount>24</maxWeakCount>
      <stageThreshold>-2.2278060913085938e+00</stageThreshold>
      <weakClassifiers>
        <_>
          <internalNodes>
            0 -1 227 -1 -17 -356779153 -72353297 -436471809 -335545629
            -159647813 -910163973</internalNodes>
          <leafValues>
            -8.1998836994171143e-01 -2.9772570729255676e-01</leafValues></_>
        <_>
          <internalNodes>
            0 -1 15 -67111433 2092549817 -37443585 -62248002 1092444711
            926902139 -8450748 39698</internalNodes>
          <leafValues>
            -6.1616307497024536e-01 -8.0551110208034515e-02</leafValues></_>
        <_>
          <internalNodes>
            0 -1 12 732938163 -1150458134 -537398377 -5858818 -25165827
            -18156573 -1084302980 -74308</internalNodes>
          <leafValues>
            -3.5746759176254272e-01 1.8567354977130890e-01</leafValues></_>
        <_>
          <internalNodes>
            0 -1 116 1756006064 606656800 -320872075 -706710782
            923861171 -1111901193 779967993 499078333</internalNodes>
          <leafValues>
            -3.5242393612861633e-01 1.6695317625999451e-01</leafValues></_>
        <_>
          <internalNodes>
            0 -1 189 -1038111673 1290726719 2120689937 -20971586
            -136896555 -168951817 -134791216 -137369840</internalNodes>
          <leafValues>
            -1.8659707903862000e-01 2.9872801899909973e-01</leafValues></_>
        <_>
          <internalNodes>
            0 -1 131 1815085272 1820995138 1859920639 1548379470
            397422011 1006320624 1067069934 463279871</internalNodes>
          <leafValues>
            -4.6060094237327576e-01 1.4781260490417480e-01</leafValues></_>
        <_>
          <internalNodes>
            0 -1 262 653352480 -1973177561 -811745420 -1909404044
            1882317312 -1510342731 -179997336 -1140855022</internalNodes>
          <leafValues>
            -3.5053136944770813e-01 1.5599182248115540e-01</leafValues></_>
        <_>
          <internalNodes>
            0 -1 238 -1499034966 1190615832 -889267516 1391972086
            -1210717180 91882316 -1146956390 -204004220</internalNodes>
          <leafValues>
            -2.5461238622665405e-01 2.1451878547668457e-01</leafValues></_>
        <_>
          <internalNodes>
            0 -1 248 -38537505 -671351158 742042463 -1318208192
            346814088 -1219407989 249239084 2105364824</internalNodes>
          <leafValues>
            -2.1480226516723633e-01 2.4132914841175079e-01</leafValues></_>
        <_>
          <internalNodes>
            0 -1 97 -838607688 -1079201118 -1073870895 -136429321
            -1086679109 -1078462465 1047803839 536826104</internalNodes>
          <leafValues>
            -1.9731748104095459e-01 2.5599738955497742e-01</leafValues></_>
        <_>
          <internalNodes>
            0 -1 118 1276914804 780117822 -1377502209 952040108
            -1090684080 2113465278 985185277 -1346568268</internalNodes>
          <leafValues>
            -4.8213911056518555e-01 1.0807228833436966e-01</leafValues></_>
        <_>
          <internalNodes>
            0 -1 61 638451890 229516818 1843070791 1769607032
            -1548075213 -135037961 -1170597603 535764468</internalNodes>
          <leafValues>
            -5.4385203123092651e-01 8.5029840469360352e-02</leafValues></_>
        <_>
          <internalNodes>
            0 -1 54 -1671812425 242957535 1874292667 540812255 -31756720
            1073410591 -407180297 -17107484</internalNodes>
          <leafValues>
            -3.2164344191551208e-01 1.5006418526172638e-01</leafValues></_>
        <_>
          <internalNodes>
            0 -1 187 -1737611593 -957449158 2124988150 2083445743
            -1288023612 -1489206851 510573052 -285575436</internalNodes>
          <leafValues>
            -2.9014456272125244e-01 1.7941391468048096e-01</leafValues></_>
        <_>
          <internalNodes>
            0 -1 263 -1721897690 -727626693 -56877008 1442025070
            1055333617 121901636 253899520 861345355</internalNodes>
          <leafValues>
            -2.3692685365676880e-01 2.1296931803226471e-01</leafValues></_>
        <_>
          <internalNodes>
            0 -1 224 781515378 89040617 985821778 -822807863 787543818
            725416437 259131551 -1284252374</internalNodes>
          <leafValues>
            -3.1201541423797607e-01 1.7617756128311157e-01</leafValues></_>
        <_>
          <internalNodes>
            0 -1 162 1802812952 -1195513251 -1671626884 -400318546
            903765211 220668654 2047568399 -1441658862</internalNodes>
          <leafValues>
            -3.6302587389945984e-01 1.4664597809314728e-01</leafValues></_>
        <_>
          <internalNodes>
            0 -1 5 2063582171 938930030 1040113582 2147155630 661988832
            -1275894306 -1082728690 1332164391</internalNodes>
          <leafValues>
            -1.8530468642711639e-01 2.9619753360748291e-01</leafValues></_>
        <_>
          <internalNodes>
            0 -1 113 1358942128 819539961 -1902237006 -588488712
            -1222535269 1966617383 893345540 536827134</internalNodes>
          <leafValues>
            -2.3843404650688171e-01 2.0984514057636261e-01</leafValues></_>
        <_>
          <internalNodes>
            0 -1 172 -808982529 -286281923 -596859017 -269498634 -272585
            1553529301 -690637358 -51638284</internalNodes>
          <leafValues>
            -2.4232463538646698e-01 2.0803727209568024e-01</leafValues></_>
        <_>
          <internalNodes>
            0 -1 275 -173611324 -116060734 -696854988 -218775824
            -276106480 1887081276 -1648620832 -244961472</internalNodes>
          <leafValues>
            -2.3023924231529236e-01 2.2931684553623199e-01</leafValues></_>
        <_>
          <internalNodes>
            0 -1 50 237899667 585903871 -272632333 619494396 1799120111
            1606177710 -554393231 180939764</internalNodes>
          <leafValues>
            -6.5669023990631104e-01 7.8753650188446045e-02</leafValues></_>
        <_>
          <internalNodes>
            0 -1 127 -33607925 -969409065 1071235027 -57754888
            1935346455 1924887475 -788369421 -185290832</internalNodes>
          <leafValues>
            -3.6437013745307922e-01 1.3092319667339325e-01</leafValues></_>
        <_>
          <internalNodes>
            0 -1 164 1074208850 1223920730 -1549493408 -1595741597
            303160254 157573811 -964543554 850927952</internalNodes>
          <leafValues>
            -4.5044684410095215e-01 1.1295565962791443e-01</leafValues></_></weakClassifiers></_>
    <!-- stage 18 -->
    <_>
      <maxWeakCount>26</maxWeakCount>
      <stageThreshold>-2.2632918357849121e+00</stageThreshold>
      <weakClassifiers>
        <_>
          <internalNodes>
            0 -1 206 -1 -131121 -14876673 -131089 -68162849 -287445033
            -85983233 -1089</internalNodes>
          <leafValues>
            -8.0005484819412231e-01 4.9445003271102905e-02</leafValues></_>
        <_>
          <internalNodes>
            0 -1 91 -489832530 1151311735 -450893335 557171549 -82578754
            1432341306 -469471451 611626758</internalNodes>
          <leafValues>
            -6.0010725259780884e-01 -4.9302678555250168e-02</leafValues></_>
        <_>
          <internalNodes>
            0 -1 83 -580517923 -56724706 -136368454 1605529326
            1461711846 926317911 -1234737824 1076654694</internalNodes>
          <leafValues>
            -2.9352104663848877e-01 2.3653900623321533e-01</leafValues></_>
        <_>
          <internalNodes>
            0 -1 245 -206446080 -172886063 -1065222558 -534659228
            126043090 1860931369 1759887007 -1599081534</internalNodes>
          <leafValues>
            -2.9704874753952026e-01 2.0819538831710815e-01</leafValues></_>
        <_>
          <internalNodes>
            0 -1 90 773593212 788473855 -419645985 -1365593347
            -1073775907 -218566247 -83745 -1356270610</internalNodes>
          <leafValues>
            -5.4284960031509399e-01 1.4874754846096039e-01</leafValues></_>
        <_>
          <internalNodes>
            0 -1 32 1838112498 1036686962 -174345114 -538049198
            -1087506509 2065922990 1073477471 -1611686404</internalNodes>
          <leafValues>
            -2.4209804832935333e-01 2.3671612143516541e-01</leafValues></_>
        <_>
          <internalNodes>
            0 -1 171 2147122999 -42270759 -1054883729 1878304477
            1937198079 -72614913 1350503052 2125134896</internalNodes>
          <leafValues>
            -3.4898933768272400e-01 1.6886730492115021e-01</leafValues></_>
        <_>
          <internalNodes>
            0 -1 278 65333640 -576458423 1949096754 -72337487 923840368
            -1098917577 930424763 1065180549</internalNodes>
          <leafValues>
            -2.7782589197158813e-01 1.9500012695789337e-01</leafValues></_>
        <_>
          <internalNodes>
            0 -1 198 -596459718 1877130822 -268964042 -1222071806
            1879015167 -268500993 2147467206 1169519346</internalNodes>
          <leafValues>
            -2.1635290980339050e-01 2.4168264865875244e-01</leafValues></_>
        <_>
          <internalNodes>
            0 -1 240 1960308478 2057773045 -98887 -21541138 1953875790
            1075080551 1967247139 -205127834</internalNodes>
          <leafValues>
            -2.2118560969829559e-01 2.3395302891731262e-01</leafValues></_>
        <_>
          <internalNodes>
            0 -1 87 -1178127427 -1459998297 -1016338485 -1807566045
            1672176063 -1114559556 1528505752 1425644421</internalNodes>
          <leafValues>
            -2.4550209939479828e-01 2.0546963810920715e-01</leafValues></_>
        <_>
          <internalNodes>
            0 -1 197 -1813622196 -1284784403 506870331 1472853993
            2062284757 -449645588 1249845372 1673498669</internalNodes>
          <leafValues>
            -2.1143637597560883e-01 2.7268353104591370e-01</leafValues></_>
        <_>
          <internalNodes>
            0 -1 108 -182200077 -559111550 -1631624129 -542309920
            1069531059 -79970341 1065335771 503272959</internalNodes>
          <leafValues>
            -1.5802860260009766e-01 3.3723264932632446e-01</leafValues></_>
        <_>
          <internalNodes>
            0 -1 202 -2044775074 116285406 1073656312 1179687958
            -176317833 -1108398595 -160135712 -858984484</internalNodes>
          <leafValues>
            -4.2953333258628845e-01 1.2516108155250549e-01</leafValues></_>
        <_>
          <internalNodes>
            0 -1 147 -2492963 -865208858 -1789732034 -597126154
            -1337590988 -193023723 1999632244 -991495210</internalNodes>
          <leafValues>
            -3.9151218533515930e-01 1.2622815370559692e-01</leafValues></_>
        <_>
          <internalNodes>
            0 -1 281 77242560 833904601 1792211797 1052016484 75006524
            -1208058019 1010088764 1040997744</internalNodes>
          <leafValues>
            -4.9130547046661377e-01 1.0001725703477859e-01</leafValues></_>
        <_>
          <internalNodes>
            0 -1 136 1623998576 284828230 754552916 753941067 992095415
            877051943 943130583 187505870</internalNodes>
          <leafValues>
            -3.9659067988395691e-01 1.2756288051605225e-01</leafValues></_>
        <_>
          <internalNodes>
            0 -1 148 -141513334 539487728 1065208624 863692214 -94010271
            2012519716 -304784180 1348492870</internalNodes>
          <leafValues>
            -3.3111724257469177e-01 1.4674401283264160e-01</leafValues></_>
        <_>
          <internalNodes>
            0 -1 258 880141992 -20055323 -694387024 1949621616
            1461937668 266990453 1691875316 -1245447820</internalNodes>
          <leafValues>
            -3.3896645903587341e-01 1.4008040726184845e-01</leafValues></_>
        <_>
          <internalNodes>
            0 -1 235 551810702 1254022803 2089966798 -1368343894
            484688657 496415636 1852145669 1625368576</internalNodes>
          <leafValues>
            -3.5593369603157043e-01 1.3992798328399658e-01</leafValues></_>
        <_>
          <internalNodes>
            0 -1 89 782896672 237931698 916206677 -1115913484 121518933
            1005482155 1041961685 532305148</internalNodes>
          <leafValues>
            -5.8586847782135010e-01 8.1365056335926056e-02</leafValues></_>
        <_>
          <internalNodes>
            0 -1 215 1322681429 458863349 769565437 162327536 786248442
            902658811 618632328 1553143866</internalNodes>
          <leafValues>
            -2.6558452844619751e-01 1.7788122594356537e-01</leafValues></_>
        <_>
          <internalNodes>
            0 -1 174 1181490686 1042173451 -145691782 167959130
            -115247196 -3354383 -7705412 -822641450</internalNodes>
          <leafValues>
            -3.0229109525680542e-01 1.5996110439300537e-01</leafValues></_>
        <_>
          <internalNodes>
            0 -1 104 1599326258 822304095 -1277458346 2138107214
            883405731 796139797 1073034613 536282335</internalNodes>
          <leafValues>
            -2.3353321850299835e-01 2.3015671968460083e-01</leafValues></_>
        <_>
          <internalNodes>
            0 -1 185 -1163703072 -1842467976 1929042364 846487534
            -1188306620 -851055759 -1680305236 -2134112112</internalNodes>
          <leafValues>
            -3.1251999735832214e-01 1.6046552360057831e-01</leafValues></_>
        <_>
          <internalNodes>
            0 -1 264 947103626 -1166741834 -664615178 -1144769314
            51407187 -1854804369 1650939392 635250378</internalNodes>
          <leafValues>
            -2.6859742403030396e-01 1.8086571991443634e-01</leafValues></_></weakClassifiers></_>
    <!-- stage 19 -->
    <_>
      <maxWeakCount>28</maxWeakCount>
      <stageThreshold>-2.2877333164215088e+00</stageThreshold>
      <weakClassifiers>
        <_>
          <internalNodes>
            0 -1 207 -1 -273 -2228225 -17 -4456453 -67112963 -1025 -1</internalNodes>
          <leafValues>
            -7.9786491394042969e-01 2.4965894222259521e-01</leafValues></_>
        <_>
          <internalNodes>
            0 -1 68 -59251459 -570431592 -779885645 501202384 -347260503
            -1282805503 -473185283 529501372</internalNodes>
          <leafValues>
            -4.6338596940040588e-01 1.0878532379865646e-01</leafValues></_>
        <_>
          <internalNodes>
            0 -1 135 -264517 -169934858 1656695465 -13372497 1856240087
            2079293303 1734861770 -501160390</internalNodes>
          <leafValues>
            -1.7942196130752563e-01 3.6901879310607910e-01</leafValues></_>
        <_>
          <internalNodes>
            0 -1 243 1907938048 -1259293836 1857283119 -165401040
            1848231595 -286798204 -1001659831 -928171487</internalNodes>
          <leafValues>
            -3.1642496585845947e-01 1.8894301354885101e-01</leafValues></_>
        <_>
          <internalNodes>
            0 -1 51 -294324480 -89849862 2147351425 -38734032 -303046673
            -553648129 -587211249 1325386973</internalNodes>
          <leafValues>
            -1.9783718883991241e-01 2.7631977200508118e-01</leafValues></_>
        <_>
          <internalNodes>
            0 -1 139 -323432720 -1121913222 2110028988 -1314819788
            -1650877520 -191399386 399380837 435098808</internalNodes>
          <leafValues>
            -2.3812997341156006e-01 2.2577598690986633e-01</leafValues></_>
        <_>
          <internalNodes>
            0 -1 133 1015294016 134524204 1838216091 237174331 -92455604
            -68240963 -441887796 -355428336</internalNodes>
          <leafValues>
            -5.8800441026687622e-01 1.1554452031850815e-01</leafValues></_>
        <_>
          <internalNodes>
            0 -1 254 1466289740 -456200217 787384874 -1096356238
            1733797410 -993692549 520191749 822150499</internalNodes>
          <leafValues>
            -3.5402759909629822e-01 1.4696350693702698e-01</leafValues></_>
        <_>
          <internalNodes>
            0 -1 217 -64107129 -962631156 2146742158 1426804311
            -16849231 -1511194884 -296657192 1106997974</internalNodes>
          <leafValues>
            -2.1007591485977173e-01 2.4248167872428894e-01</leafValues></_>
        <_>
          <internalNodes>
            0 -1 150 -529104176 1425670482 148544220 207205094
            -1456396650 -1593232542 -83676337 781948575</internalNodes>
          <leafValues>
            -2.9829370975494385e-01 1.6841247677803040e-01</leafValues></_>
        <_>
          <internalNodes>
            0 -1 156 711628596 -1087307981 -845882248 746124872
            1006135927 2059320315 1205604732 1988683936</internalNodes>
          <leafValues>
            -5.6415498256683350e-01 7.9423345625400543e-02</leafValues></_>
        <_>
          <internalNodes>
            0 -1 167 1632007663 -1107394948 1709561829 -1308847027
            1182230399 1601666886 1307410431 -1745063045</internalNodes>
          <leafValues>
            -1.6108153760433197e-01 3.1500998139381409e-01</leafValues></_>
        <_>
          <internalNodes>
            0 -1 271 507276296 673249032 -352961006 -1292043400 48776196
            1157463483 -1260495984 -1335861980</internalNodes>
          <leafValues>
            -3.8547274470329285e-01 1.2418691068887711e-01</leafValues></_>
        <_>
          <internalNodes>
            0 -1 102 -1091629257 -2031440104 -385982573 -391449125
            -97312687 -1644236943 -56198155 -1097173900</internalNodes>
          <leafValues>
            -3.2080504298210144e-01 1.4378505945205688e-01</leafValues></_>
        <_>
          <internalNodes>
            0 -1 201 -25411819 -352599933 -19738006 -34291100 1358232563
            519499233 1950226000 2008695830</internalNodes>
          <leafValues>
            -2.5113475322723389e-01 1.8070414662361145e-01</leafValues></_>
        <_>
          <internalNodes>
            0 -1 273 180617480 591887861 687632310 -1236509854
            1596422117 -1677735963 -1135469107 468338017</internalNodes>
          <leafValues>
            -3.3557945489883423e-01 1.3424004614353180e-01</leafValues></_>
        <_>
          <internalNodes>
            0 -1 154 -1546655224 -1302010620 1759439719 606778355
            1916821679 -222784626 -1951691939 -256953485</internalNodes>
          <leafValues>
            -3.4893831610679626e-01 1.3192203640937805e-01</leafValues></_>
        <_>
          <internalNodes>
            0 -1 277 -134271169 -1897201681 1038085050 -232521866
            -218296061 786294143 -135366668 -134742604</internalNodes>
          <leafValues>
            -2.4773404002189636e-01 1.7397557199001312e-01</leafValues></_>
        <_>
          <internalNodes>
            0 -1 129 -1640847081 -84263688 -53218723 -1146814786
            -1491736492 -4982410 435031381 -1414905772</internalNodes>
          <leafValues>
            -2.3633472621440887e-01 1.8519465625286102e-01</leafValues></_>
        <_>
          <internalNodes>
            0 -1 241 876073489 77901802 1216011350 906519739 192305944
            74840918 1446153549 85266946</internalNodes>
          <leafValues>
            -3.0257302522659302e-01 1.4682966470718384e-01</leafValues></_>
        <_>
          <internalNodes>
            0 -1 120 -2042745199 -1942177987 -438317569 -1158929795
            1055738837 -1074036806 2147249847 -1258536668</internalNodes>
          <leafValues>
            -3.5624125599861145e-01 1.2429787963628769e-01</leafValues></_>
        <_>
          <internalNodes>
            0 -1 260 1030392326 -982770142 -185480786 -1678137978
            917843863 -1405641737 62850412 1165459346</internalNodes>
          <leafValues>
            -2.4153998494148254e-01 1.8125425279140472e-01</leafValues></_>
        <_>
          <internalNodes>
            0 -1 230 -1535958904 1035972197 -1705253140 -1298184651
            -1812505596 93509 -612899702 -168160471</internalNodes>
          <leafValues>
            -2.4193178117275238e-01 1.7400267720222473e-01</leafValues></_>
        <_>
          <internalNodes>
            0 -1 57 1003535216 -2063676423 -1558063804 1478662594
            492393743 -45387217 1010769435 168497706</internalNodes>
          <leafValues>
            -4.0455129742622375e-01 1.0883385688066483e-01</leafValues></_>
        <_>
          <internalNodes>
            0 -1 182 546301428 -1603040527 -259775770 -307385627
            -1832414538 -1843488359 -449029478 953463314</internalNodes>
          <leafValues>
            -2.4825796484947205e-01 1.7504031956195831e-01</leafValues></_>
        <_>
          <internalNodes>
            0 -1 191 1814308412 210549812 190235323 193477156 -553959937
            -269309766 -483853569 -1044589344</internalNodes>
          <leafValues>
            -3.6839523911476135e-01 1.1937739700078964e-01</leafValues></_>
        <_>
          <internalNodes>
            0 -1 225 871507902 124006258 1017533094 1046652327
            -1065435814 1798748661 198341674 1028969505</internalNodes>
          <leafValues>
            -3.0255031585693359e-01 1.5438652038574219e-01</leafValues></_>
        <_>
          <internalNodes>
            0 -1 181 2012062275 1090422465 69149005 -1536318483
            1811890167 1537072089 791611461 1476338212</internalNodes>
          <leafValues>
            -2.5654652714729309e-01 1.7165857553482056e-01</leafValues></_></weakClassifiers></_></stages>
  <features>
    <_>
      <rect>
        0 0 1 1</rect></_>
    <_>
      <rect>
        0 0 3 2</rect></_>
    <_>
      <rect>
        0 0 4 3</rect></_>
    <_>
      <rect>
        0 0 4 8</rect></_>
    <_>
      <rect>
        0 0 7 8</rect></_>
    <_>
      <rect>
        0 0 8 3</rect></_>
    <_>
      <rect>
        0 0 9 5</rect></_>
    <_>
      <rect>
        0 0 11 6</rect></_>
    <_>
      <rect>
        0 0 11 9</rect></_>
    <_>
      <rect>
        0 0 13 8</rect></_>
    <_>
      <rect>
        0 0 14 7</rect></_>
    <_>
      <rect>
        0 1 1 1</rect></_>
    <_>
      <rect>
        0 1 2 3</rect></_>
    <_>
      <rect>
        0 1 3 3</rect></_>
    <_>
      <rect>
        0 1 6 4</rect></_>
    <_>
      <rect>
        0 1 11 5</rect></_>
    <_>
      <rect>
        0 2 1 1</rect></_>
    <_>
      <rect>
        0 2 3 7</rect></_>
    <_>
      <rect>
        0 2 4 3</rect></_>
    <_>
      <rect>
        0 3 1 1</rect></_>
    <_>
      <rect>
        0 3 2 1</rect></_>
    <_>
      <rect>
        0 3 3 3</rect></_>
    <_>
      <rect>
        0 3 3 8</rect></_>
    <_>
      <rect>
        0 3 5 8</rect></_>
    <_>
      <rect>
        0 3 5 14</rect></_>
    <_>
      <rect>
        0 4 1 1</rect></_>
    <_>
      <rect>
        0 4 3 2</rect></_>
    <_>
      <rect>
        0 4 5 13</rect></_>
    <_>
      <rect>
        0 5 1 2</rect></_>
    <_>
      <rect>
        0 5 3 3</rect></_>
    <_>
      <rect>
        0 5 4 3</rect></_>
    <_>
      <rect>
        0 5 5 3</rect></_>
    <_>
      <rect>
        0 7 3 2</rect></_>
    <_>
      <rect>
        0 7 3 3</rect></_>
    <_>
      <rect>
        0 7 4 3</rect></_>
    <_>
      <rect>
        0 8 4 7</rect></_>
    <_>
      <rect>
        0 9 1 8</rect></_>
    <_>
      <rect>
        0 9 2 2</rect></_>
    <_>
      <rect>
        0 11 1 2</rect></_>
    <_>
      <rect>
        0 12 1 6</rect></_>
    <_>
      <rect>
        0 13 4 1</rect></_>
    <_>
      <rect>
        0 15 7 8</rect></_>
    <_>
      <rect>
        0 15 8 10</rect></_>
    <_>
      <rect>
        0 16 5 9</rect></_>
    <_>
      <rect>
        0 18 6 9</rect></_>
    <_>
      <rect>
        0 20 2 7</rect></_>
    <_>
      <rect>
        0 21 6 8</rect></_>
    <_>
      <rect>
        0 24 3 1</rect></_>
    <_>
      <rect>
        0 25 5 6</rect></_>
    <_>
      <rect>
        0 27 1 3</rect></_>
    <_>
      <rect>
        0 29 2 3</rect></_>
    <_>
      <rect>
        0 33 4 4</rect></_>
    <_>
      <rect>
        0 36 5 3</rect></_>
    <_>
      <rect>
        0 42 2 1</rect></_>
    <_>
      <rect>
        1 0 1 1</rect></_>
    <_>
      <rect>
        1 0 1 2</rect></_>
    <_>
      <rect>
        1 0 6 3</rect></_>
    <_>
      <rect>
        1 0 14 10</rect></_>
    <_>
      <rect>
        1 1 5 3</rect></_>
    <_>
      <rect>
        1 4 1 1</rect></_>
    <_>
      <rect>
        1 4 3 2</rect></_>
    <_>
      <rect>
        1 4 3 3</rect></_>
    <_>
      <rect>
        1 4 4 2</rect></_>
    <_>
      <rect>
        1 4 7 6</rect></_>
    <_>
      <rect>
        1 4 11 12</rect></_>
    <_>
      <rect>
        1 7 1 2</rect></_>
    <_>
      <rect>
        1 8 1 2</rect></_>
    <_>
      <rect>
        1 13 6 5</rect></_>
    <_>
      <rect>
        1 19 2 7</rect></_>
    <_>
      <rect>
        1 21 1 1</rect></_>
    <_>
      <rect>
        1 24 1 6</rect></_>
    <_>
      <rect>
        1 27 1 2</rect></_>
    <_>
      <rect>
        1 33 5 4</rect></_>
    <_>
      <rect>
        1 42 9 1</rect></_>
    <_>
      <rect>
        2 0 1 1</rect></_>
    <_>
      <rect>
        2 0 3 2</rect></_>
    <_>
      <rect>
        2 0 9 7</rect></_>
    <_>
      <rect>
        2 3 1 2</rect></_>
    <_>
      <rect>
        2 5 1 6</rect></_>
    <_>
      <rect>
        2 9 10 9</rect></_>
    <_>
      <rect>
        2 34 1 1</rect></_>
    <_>
      <rect>
        2 42 6 1</rect></_>
    <_>
      <rect>
        3 0 1 1</rect></_>
    <_>
      <rect>
        3 0 13 5</rect></_>
    <_>
      <rect>
        3 3 1 1</rect></_>
    <_>
      <rect>
        3 3 1 3</rect></_>
    <_>
      <rect>
        3 4 3 7</rect></_>
    <_>
      <rect>
        3 7 14 8</rect></_>
    <_>
      <rect>
        3 9 1 2</rect></_>
    <_>
      <rect>
        3 9 2 2</rect></_>
    <_>
      <rect>
        3 12 5 5</rect></_>
    <_>
      <rect>
        3 26 9 5</rect></_>
    <_>
      <rect>
        4 0 1 1</rect></_>
    <_>
      <rect>
        4 2 1 1</rect></_>
    <_>
      <rect>
        4 3 1 7</rect></_>
    <_>
      <rect>
        4 6 4 2</rect></_>
    <_>
      <rect>
        4 9 1 7</rect></_>
    <_>
      <rect>
        4 9 3 2</rect></_>
    <_>
      <rect>
        4 9 10 6</rect></_>
    <_>
      <rect>
        4 18 5 9</rect></_>
    <_>
      <rect>
        4 24 7 7</rect></_>
    <_>
      <rect>
        5 0 6 15</rect></_>
    <_>
      <rect>
        5 2 1 1</rect></_>
    <_>
      <rect>
        5 3 3 3</rect></_>
    <_>
      <rect>
        5 3 4 2</rect></_>
    <_>
      <rect>
        5 4 3 2</rect></_>
    <_>
      <rect>
        5 8 1 3</rect></_>
    <_>
      <rect>
        5 9 3 2</rect></_>
    <_>
      <rect>
        5 10 3 2</rect></_>
    <_>
      <rect>
        5 24 4 2</rect></_>
    <_>
      <rect>
        5 25 8 6</rect></_>
    <_>
      <rect>
        6 0 6 8</rect></_>
    <_>
      <rect>
        6 0 13 11</rect></_>
    <_>
      <rect>
        6 5 3 2</rect></_>
    <_>
      <rect>
        6 5 3 7</rect></_>
    <_>
      <rect>
        6 5 4 7</rect></_>
    <_>
      <rect>
        6 7 3 2</rect></_>
    <_>
      <rect>
        6 9 1 1</rect></_>
    <_>
      <rect>
        6 12 5 4</rect></_>
    <_>
      <rect>
        6 14 5 4</rect></_>
    <_>
      <rect>
        6 15 1 1</rect></_>
    <_>
      <rect>
        6 18 5 1</rect></_>
    <_>
      <rect>
        6 24 8 7</rect></_>
    <_>
      <rect>
        7 7 2 3</rect></_>
    <_>
      <rect>
        7 8 1 2</rect></_>
    <_>
      <rect>
        7 9 3 3</rect></_>
    <_>
      <rect>
        7 14 1 2</rect></_>
    <_>
      <rect>
        7 24 2 1</rect></_>
    <_>
      <rect>
        8 0 7 12</rect></_>
    <_>
      <rect>
        8 4 1 1</rect></_>
    <_>
      <rect>
        8 9 2 2</rect></_>
    <_>
      <rect>
        8 9 3 3</rect></_>
    <_>
      <rect>
        8 10 4 2</rect></_>
    <_>
      <rect>
        8 11 7 5</rect></_>
    <_>
      <rect>
        8 24 4 3</rect></_>
    <_>
      <rect>
        9 0 9 6</rect></_>
    <_>
      <rect>
        9 3 4 3</rect></_>
    <_>
      <rect>
        9 4 10 13</rect></_>
    <_>
      <rect>
        9 7 2 2</rect></_>
    <_>
      <rect>
        9 8 2 2</rect></_>
    <_>
      <rect>
        9 8 3 4</rect></_>
    <_>
      <rect>
        9 9 1 1</rect></_>
    <_>
      <rect>
        9 16 1 1</rect></_>
    <_>
      <rect>
        9 17 8 6</rect></_>
    <_>
      <rect>
        9 18 8 9</rect></_>
    <_>
      <rect>
        9 25 1 2</rect></_>
    <_>
      <rect>
        9 33 12 4</rect></_>
    <_>
      <rect>
        9 42 4 1</rect></_>
    <_>
      <rect>
        10 0 4 2</rect></_>
    <_>
      <rect>
        10 3 8 10</rect></_>
    <_>
      <rect>
        10 4 4 3</rect></_>
    <_>
      <rect>
        10 4 8 13</rect></_>
    <_>
      <rect>
        10 5 4 6</rect></_>
    <_>
      <rect>
        10 8 3 6</rect></_>
    <_>
      <rect>
        10 12 9 6</rect></_>
    <_>
      <rect>
        10 16 1 1</rect></_>
    <_>
      <rect>
        10 19 3 4</rect></_>
    <_>
      <rect>
        10 22 2 1</rect></_>
    <_>
      <rect>
        10 23 1 1</rect></_>
    <_>
      <rect>
        10 23 3 1</rect></_>
    <_>
      <rect>
        10 27 4 6</rect></_>
    <_>
      <rect>
        11 0 3 3</rect></_>
    <_>
      <rect>
        11 0 7 11</rect></_>
    <_>
      <rect>
        11 0 8 8</rect></_>
    <_>
      <rect>
        11 0 11 14</rect></_>
    <_>
      <rect>
        11 6 7 11</rect></_>
    <_>
      <rect>
        11 9 4 11</rect></_>
    <_>
      <rect>
        11 9 11 11</rect></_>
    <_>
      <rect>
        11 10 1 1</rect></_>
    <_>
      <rect>
        11 14 7 5</rect></_>
    <_>
      <rect>
        11 16 1 1</rect></_>
    <_>
      <rect>
        11 19 2 5</rect></_>
    <_>
      <rect>
        11 29 4 2</rect></_>
    <_>
      <rect>
        12 1 11 10</rect></_>
    <_>
      <rect>
        12 14 6 3</rect></_>
    <_>
      <rect>
        12 19 1 1</rect></_>
    <_>
      <rect>
        12 19 3 8</rect></_>
    <_>
      <rect>
        12 20 1 3</rect></_>
    <_>
      <rect>
        12 21 3 1</rect></_>
    <_>
      <rect>
        12 22 1 3</rect></_>
    <_>
      <rect>
        12 24 2 1</rect></_>
    <_>
      <rect>
        12 29 2 4</rect></_>
    <_>
      <rect>
        13 1 8 14</rect></_>
    <_>
      <rect>
        13 4 3 6</rect></_>
    <_>
      <rect>
        13 6 6 13</rect></_>
    <_>
      <rect>
        13 9 1 1</rect></_>
    <_>
      <rect>
        13 10 1 1</rect></_>
    <_>
      <rect>
        13 16 1 1</rect></_>
    <_>
      <rect>
        13 25 2 1</rect></_>
    <_>
      <rect>
        13 36 1 2</rect></_>
    <_>
      <rect>
        14 0 5 13</rect></_>
    <_>
      <rect>
        14 13 3 5</rect></_>
    <_>
      <rect>
        14 15 1 1</rect></_>
    <_>
      <rect>
        14 17 1 1</rect></_>
    <_>
      <rect>
        14 17 1 3</rect></_>
    <_>
      <rect>
        14 22 1 1</rect></_>
    <_>
      <rect>
        14 24 7 7</rect></_>
    <_>
      <rect>
        15 0 9 9</rect></_>
    <_>
      <rect>
        15 11 3 8</rect></_>
    <_>
      <rect>
        15 18 1 1</rect></_>
    <_>
      <rect>
        15 20 1 1</rect></_>
    <_>
      <rect>
        15 22 3 3</rect></_>
    <_>
      <rect>
        15 23 1 1</rect></_>
    <_>
      <rect>
        15 24 3 7</rect></_>
    <_>
      <rect>
        15 28 3 3</rect></_>
    <_>
      <rect>
        15 28 4 3</rect></_>
    <_>
      <rect>
        16 0 6 9</rect></_>
    <_>
      <rect>
        16 0 9 10</rect></_>
    <_>
      <rect>
        16 1 9 9</rect></_>
    <_>
      <rect>
        16 5 3 8</rect></_>
    <_>
      <rect>
        16 18 5 4</rect></_>
    <_>
      <rect>
        16 20 1 1</rect></_>
    <_>
      <rect>
        16 25 1 1</rect></_>
    <_>
      <rect>
        17 0 7 14</rect></_>
    <_>
      <rect>
        17 0 9 12</rect></_>
    <_>
      <rect>
        17 5 4 6</rect></_>
    <_>
      <rect>
        17 11 4 7</rect></_>
    <_>
      <rect>
        17 17 3 3</rect></_>
    <_>
      <rect>
        17 22 1 1</rect></_>
    <_>
      <rect>
        17 23 1 1</rect></_>
    <_>
      <rect>
        17 25 1 2</rect></_>
    <_>
      <rect>
        17 38 1 1</rect></_>
    <_>
      <rect>
        18 0 9 6</rect></_>
    <_>
      <rect>
        18 1 9 8</rect></_>
    <_>
      <rect>
        18 1 9 11</rect></_>
    <_>
      <rect>
        18 1 9 14</rect></_>
    <_>
      <rect>
        18 5 3 9</rect></_>
    <_>
      <rect>
        18 6 3 9</rect></_>
    <_>
      <rect>
        18 8 1 1</rect></_>
    <_>
      <rect>
        18 8 9 12</rect></_>
    <_>
      <rect>
        18 9 1 1</rect></_>
    <_>
      <rect>
        18 10 1 1</rect></_>
    <_>
      <rect>
        18 18 1 1</rect></_>
    <_>
      <rect>
        18 18 5 4</rect></_>
    <_>
      <rect>
        18 21 1 1</rect></_>
    <_>
      <rect>
        18 24 2 7</rect></_>
    <_>
      <rect>
        18 42 1 1</rect></_>
    <_>
      <rect>
        19 4 8 13</rect></_>
    <_>
      <rect>
        19 7 1 1</rect></_>
    <_>
      <rect>
        19 18 3 4</rect></_>
    <_>
      <rect>
        19 23 4 7</rect></_>
    <_>
      <rect>
        19 27 2 6</rect></_>
    <_>
      <rect>
        20 4 5 10</rect></_>
    <_>
      <rect>
        20 8 3 7</rect></_>
    <_>
      <rect>
        20 10 1 1</rect></_>
    <_>
      <rect>
        20 10 3 7</rect></_>
    <_>
      <rect>
        20 42 1 1</rect></_>
    <_>
      <rect>
        21 0 6 12</rect></_>
    <_>
      <rect>
        21 0 8 7</rect></_>
    <_>
      <rect>
        21 3 8 14</rect></_>
    <_>
      <rect>
        21 8 1 1</rect></_>
    <_>
      <rect>
        21 16 1 1</rect></_>
    <_>
      <rect>
        21 18 3 6</rect></_>
    <_>
      <rect>
        21 24 3 7</rect></_>
    <_>
      <rect>
        21 29 3 5</rect></_>
    <_>
      <rect>
        21 36 1 1</rect></_>
    <_>
      <rect>
        21 38 1 1</rect></_>
    <_>
      <rect>
        21 41 1 1</rect></_>
    <_>
      <rect>
        21 42 3 1</rect></_>
    <_>
      <rect>
        22 4 6 7</rect></_>
    <_>
      <rect>
        22 16 3 5</rect></_>
    <_>
      <rect>
        22 20 3 8</rect></_>
    <_>
      <rect>
        22 24 5 6</rect></_>
    <_>
      <rect>
        22 34 2 3</rect></_>
    <_>
      <rect>
        23 18 2 7</rect></_>
    <_>
      <rect>
        23 29 3 5</rect></_>
    <_>
      <rect>
        23 38 1 1</rect></_>
    <_>
      <rect>
        23 42 1 1</rect></_>
    <_>
      <rect>
        24 0 7 9</rect></_>
    <_>
      <rect>
        24 7 1 1</rect></_>
    <_>
      <rect>
        26 36 1 3</rect></_>
    <_>
      <rect>
        26 42 1 1</rect></_>
    <_>
      <rect>
        27 0 6 9</rect></_>
    <_>
      <rect>
        27 11 6 11</rect></_>
    <_>
      <rect>
        27 27 6 6</rect></_>
    <_>
      <rect>
        28 13 1 1</rect></_>
    <_>
      <rect>
        28 33 1 1</rect></_>
    <_>
      <rect>
        29 0 4 1</rect></_>
    <_>
      <rect>
        29 27 5 6</rect></_>
    <_>
      <rect>
        29 34 1 1</rect></_>
    <_>
      <rect>
        31 15 1 1</rect></_>
    <_>
      <rect>
        33 6 4 10</rect></_>
    <_>
      <rect>
        33 22 1 1</rect></_>
    <_>
      <rect>
        33 40 1 1</rect></_>
    <_>
      <rect>
        35 20 1 1</rect></_>
    <_>
      <rect>
        39 2 1 1</rect></_>
    <_>
      <rect>
        39 20 1 1</rect></_>
    <_>
      <rect>
        41 42 1 1</rect></_>
    <_>
      <rect>
        42 1 1 1</rect></_>
    <_>
      <rect>
        42 6 1 1</rect></_>
    <_>
      <rect>
        42 17 1 1</rect></_></features></cascade>
</opencv_storage>
