<?xml version="1.0"?>
<opencv_storage>
<cascade>
  <stageType>BOOST</stageType>
  <featureType>LBP</featureType>
  <height>45</height>
  <width>45</width>
  <stageParams>
    <boostType>GAB</boostType>
    <minHitRate>9.9500000476837158e-01</minHitRate>
    <maxFalseAlarm>5.0000000000000000e-01</maxFalseAlarm>
    <weightTrimRate>9.4999999999999996e-01</weightTrimRate>
    <maxDepth>1</maxDepth>
    <maxWeakCount>100</maxWeakCount></stageParams>
  <featureParams>
    <maxCatCount>256</maxCatCount>
    <featSize>1</featSize></featureParams>
  <stageNum>20</stageNum>
  <stages>
    <!-- stage 0 -->
    <_>
      <maxWeakCount>3</maxWeakCount>
      <stageThreshold>-9.7836649417877197e-01</stageThreshold>
      <weakClassifiers>
        <_>
          <internalNodes>
            0 -1 3 -2162964 -655568644 -1986931745 -329461537 -7603204
            -120028503 -7602177 -50332929</internalNodes>
          <leafValues>
            -8.7194740772247314e-01 6.6615450382232666e-01</leafValues></_>
        <_>
          <internalNodes>
            0 -1 59 -1778252912 -1282408448 86291 991895816 -1333264224
            -1979709440 310389467 -1148514102</internalNodes>
          <leafValues>
            -7.3807680606842041e-01 7.2491317987442017e-01</leafValues></_>
        <_>
          <internalNodes>
            0 -1 103 -1610480496 8519824 1040 268439552 -2130624512
            285212673 67117194 -2147352576</internalNodes>
          <leafValues>
            -7.6868820190429688e-01 6.3165771961212158e-01</leafValues></_></weakClassifiers></_>
    <!-- stage 1 -->
    <_>
      <maxWeakCount>4</maxWeakCount>
      <stageThreshold>-4.2049580812454224e-01</stageThreshold>
      <weakClassifiers>
        <_>
          <internalNodes>
            0 -1 27 -787097601 -589033062 -1677666052 -29224808
            -1165895429 -89552765 -1868517128 -190803824</internalNodes>
          <leafValues>
            -7.8463399410247803e-01 6.3996398448944092e-01</leafValues></_>
        <_>
          <internalNodes>
            0 -1 48 -2141847536 -1143865133 -1660878835 -3735138
            -1785193744 160154313 176822954 -1140904978</internalNodes>
          <leafValues>
            -6.9539844989776611e-01 5.7537746429443359e-01</leafValues></_>
        <_>
          <internalNodes>
            0 -1 24 -3212353 -2191233 -653604393 -270535861 -73401413
            -268805 -7406593 -286326788</internalNodes>
          <leafValues>
            -7.2764450311660767e-01 5.3341507911682129e-01</leafValues></_>
        <_>
          <internalNodes>
            0 -1 67 -705692322 -599261994 -599597361 -825300274
            -933498017 -619057135 -2106393 -5</internalNodes>
          <leafValues>
            -6.8045550584793091e-01 5.2612155675888062e-01</leafValues></_></weakClassifiers></_>
    <!-- stage 2 -->
    <_>
      <maxWeakCount>4</maxWeakCount>
      <stageThreshold>-1.4688479900360107e+00</stageThreshold>
      <weakClassifiers>
        <_>
          <internalNodes>
            0 -1 13 -79437074 110625274 1343279870 -53690150 -536174341
            -2000650094 -108860434 -118428784</internalNodes>
          <leafValues>
            -7.3906296491622925e-01 5.8140051364898682e-01</leafValues></_>
        <_>
          <internalNodes>
            0 -1 115 -624458742 33951872 -2147450408 -1337949824
            -1602090492 805568512 -1375729020 -2143151872</internalNodes>
          <leafValues>
            -7.0676743984222412e-01 5.0697481632232666e-01</leafValues></_>
        <_>
          <internalNodes>
            0 -1 39 -1224067532 -1089863524 -1862183140 1005262856
            -216962416 1904345504 696527607 -1079043062</internalNodes>
          <leafValues>
            -6.6685640811920166e-01 4.9077016115188599e-01</leafValues></_>
        <_>
          <internalNodes>
            0 -1 85 -203429185 -1821502625 -1610563169 -32513734
            -1470134563 -1300002677 -221753124 -288440120</internalNodes>
          <leafValues>
            -6.7662459611892700e-01 4.7072407603263855e-01</leafValues></_></weakClassifiers></_>
    <!-- stage 3 -->
    <_>
      <maxWeakCount>5</maxWeakCount>
      <stageThreshold>-9.1570359468460083e-01</stageThreshold>
      <weakClassifiers>
        <_>
          <internalNodes>
            0 -1 96 -27286902 -1299226150 -2147483444 1955219328
            -804421632 1879085057 -796724608 -263823056</internalNodes>
          <leafValues>
            -6.2653183937072754e-01 5.1159161329269409e-01</leafValues></_>
        <_>
          <internalNodes>
            0 -1 11 -538968609 -325062241 -686949970 -285215810
            -103811587 -155413825 -54462038 -386007298</internalNodes>
          <leafValues>
            -7.6105314493179321e-01 4.0056952834129333e-01</leafValues></_>
        <_>
          <internalNodes>
            0 -1 4 -1441398254 -1829086832 -1056878177 530514306
            -1324796935 -67952479 722201259 -1073807206</internalNodes>
          <leafValues>
            -6.2749910354614258e-01 5.0233954191207886e-01</leafValues></_>
        <_>
          <internalNodes>
            0 -1 104 -748175530 1568538350 -1167130626 -444760834
            -181041938 -135278866 -865153810 -1058052385</internalNodes>
          <leafValues>
            -4.6962198615074158e-01 6.2956351041793823e-01</leafValues></_>
        <_>
          <internalNodes>
            0 -1 79 -1699601918 1315338 67113628 939627537 956778498
            939532800 570592190 -1289346944</internalNodes>
          <leafValues>
            -6.3847810029983521e-01 4.3916386365890503e-01</leafValues></_></weakClassifiers></_>
    <!-- stage 4 -->
    <_>
      <maxWeakCount>4</maxWeakCount>
      <stageThreshold>-1.3850353956222534e+00</stageThreshold>
      <weakClassifiers>
        <_>
          <internalNodes>
            0 -1 35 -2097313 -1126236211 488106501 -319889233 -69469697
            1964998847 -72627201 -344195073</internalNodes>
          <leafValues>
            -6.4851802587509155e-01 4.8708567023277283e-01</leafValues></_>
        <_>
          <internalNodes>
            0 -1 5 -1430483204 -1092815873 1771842015 -4197409 -73650180
            -4228679 -68256770 -1049601</internalNodes>
          <leafValues>
            -6.9511896371841431e-01 4.2876029014587402e-01</leafValues></_>
        <_>
          <internalNodes>
            0 -1 38 -644351241 -700128564 1342299386 -728705636
            -125239819 -1866953558 -242503244 -722691585</internalNodes>
          <leafValues>
            -6.0353666543960571e-01 4.7803458571434021e-01</leafValues></_>
        <_>
          <internalNodes>
            0 -1 71 -136319497 -204300066 -653148137 -19955372 915127977
            -123428735 -1173619793 -493957916</internalNodes>
          <leafValues>
            -5.7346546649932861e-01 4.8955464363098145e-01</leafValues></_></weakClassifiers></_>
    <!-- stage 5 -->
    <_>
      <maxWeakCount>5</maxWeakCount>
      <stageThreshold>-9.2149746417999268e-01</stageThreshold>
      <weakClassifiers>
        <_>
          <internalNodes>
            0 -1 70 -278992129 -824512481 -1751821999 -546055781
            -678069249 1319082175 -389221892 1157624222</internalNodes>
          <leafValues>
            -5.7198333740234375e-01 5.2380955219268799e-01</leafValues></_>
        <_>
          <internalNodes>
            0 -1 25 -220224561 -1617001313 268533785 -1086350693
            -254113557 -108361081 -494564645 -1431655734</internalNodes>
          <leafValues>
            -5.3683400154113770e-01 5.4065388441085815e-01</leafValues></_>
        <_>
          <internalNodes>
            0 -1 126 -180094846 338214985 -1056947120 1514115292
            -635307756 807428252 1879274112 -714869995</internalNodes>
          <leafValues>
            -6.1395984888076782e-01 4.4330990314483643e-01</leafValues></_>
        <_>
          <internalNodes>
            0 -1 89 1892941602 105677391 -1874832290 840419548
            -343229979 788660234 1930412523 -1329861637</internalNodes>
          <leafValues>
            -6.4804488420486450e-01 3.6891260743141174e-01</leafValues></_>
        <_>
          <internalNodes>
            0 -1 41 2112817407 173373437 2097762815 1867431117
            -639798787 1001406606 801590271 2130706078</internalNodes>
          <leafValues>
            -5.9065872430801392e-01 4.3236708641052246e-01</leafValues></_></weakClassifiers></_>
    <!-- stage 6 -->
    <_>
      <maxWeakCount>6</maxWeakCount>
      <stageThreshold>-1.4974948167800903e+00</stageThreshold>
      <weakClassifiers>
        <_>
          <internalNodes>
            0 -1 61 -688409153 -151080038 -620490273 -1082723558
            -778109954 -1414002499 2041375484 -51579652</internalNodes>
          <leafValues>
            -7.1298497915267944e-01 3.9261102676391602e-01</leafValues></_>
        <_>
          <internalNodes>
            0 -1 31 -1281 1003864063 -33025 803602431 1576882111
            1613066239 -1073778825 2147483647</internalNodes>
          <leafValues>
            -4.9067342281341553e-01 5.2700173854827881e-01</leafValues></_>
        <_>
          <internalNodes>
            0 -1 6 -2030129157 -2134449525 -2147237877 -355671921
            -800857713 -536379263 -536625014 -1377334</internalNodes>
          <leafValues>
            -6.3627725839614868e-01 3.9429104328155518e-01</leafValues></_>
        <_>
          <internalNodes>
            0 -1 109 -205404634 -1497172524 1073923212 -295386548
            608649331 -803482446 1504569954 -4063649</internalNodes>
          <leafValues>
            -5.8583408594131470e-01 4.4595265388488770e-01</leafValues></_>
        <_>
          <internalNodes>
            0 -1 111 -35210565 1941692101 1442480127 1028767494
            780117688 -1349694396 1870608367 487571018</internalNodes>
          <leafValues>
            -4.7369024157524109e-01 5.4527425765991211e-01</leafValues></_>
        <_>
          <internalNodes>
            0 -1 16 -535444609 -826231662 -1858005537 -53034530
            -201227265 -20216397 -91509794 -58659938</internalNodes>
          <leafValues>
            -6.6038995981216431e-01 3.5941064357757568e-01</leafValues></_></weakClassifiers></_>
    <!-- stage 7 -->
    <_>
      <maxWeakCount>7</maxWeakCount>
      <stageThreshold>-8.6251372098922729e-01</stageThreshold>
      <weakClassifiers>
        <_>
          <internalNodes>
            0 -1 92 -286261329 -253821698 -2143167794 -3215210
            1556476309 575132 -2142977340 -870331802</internalNodes>
          <leafValues>
            -5.3823828697204590e-01 4.8890694975852966e-01</leafValues></_>
        <_>
          <internalNodes>
            0 -1 130 -553849202 -756809986 -1896173888 -740838410
            -27789440 859144053 74899332 -720931344</internalNodes>
          <leafValues>
            -4.8670190572738647e-01 5.1859045028686523e-01</leafValues></_>
        <_>
          <internalNodes>
            0 -1 88 -12453388 -1718555939 -1601973492 -850945960
            -79840257 -1148616561 -387979077 1221587455</internalNodes>
          <leafValues>
            -5.4286545515060425e-01 4.4316080212593079e-01</leafValues></_>
        <_>
          <internalNodes>
            0 -1 68 -1068629322 733683470 -1090584577 2138251198
            -1237572414 2147319293 -1879066886 -4243713</internalNodes>
          <leafValues>
            -4.7197854518890381e-01 5.0773996114730835e-01</leafValues></_>
        <_>
          <internalNodes>
            0 -1 75 -119013385 -568131728 -269419009 -1057947940
            2136473591 -550502531 -537345 -355744775</internalNodes>
          <leafValues>
            -4.5536732673645020e-01 5.4855787754058838e-01</leafValues></_>
        <_>
          <internalNodes>
            0 -1 90 -385498394 -327085692 1413550202 -703063330
            -930897421 1365278721 -427124501 -116569896</internalNodes>
          <leafValues>
            -5.9339672327041626e-01 3.5992985963821411e-01</leafValues></_>
        <_>
          <internalNodes>
            0 -1 26 -801521209 641728912 -1878978145 -594276194
            2046921855 -1165293265 -1450530116 -125256812</internalNodes>
          <leafValues>
            -7.1724355220794678e-01 3.2517257332801819e-01</leafValues></_></weakClassifiers></_>
    <!-- stage 8 -->
    <_>
      <maxWeakCount>7</maxWeakCount>
      <stageThreshold>-1.0851967334747314e+00</stageThreshold>
      <weakClassifiers>
        <_>
          <internalNodes>
            0 -1 30 -80756943 889590470 1427396864 1037678594
            -1321108940 -105246024 -1169999074 1535070335</internalNodes>
          <leafValues>
            -5.2140021324157715e-01 4.6488907933235168e-01</leafValues></_>
        <_>
          <internalNodes>
            0 -1 34 -524402 -1662182420 -1853797969 -1396116726
            -1286888645 -1191377993 -1289514101 -50610261</internalNodes>
          <leafValues>
            -7.1702390909194946e-01 3.4370797872543335e-01</leafValues></_>
        <_>
          <internalNodes>
            0 -1 129 -1299012446 -732835581 268436670 -794484728
            1880301570 33816578 -670996342 -2008600384</internalNodes>
          <leafValues>
            -4.6837571263313293e-01 4.6615323424339294e-01</leafValues></_>
        <_>
          <internalNodes>
            0 -1 83 -741936642 -828988810 285245518 -1354334142
            1549890252 76021889 1480679439 1868032207</internalNodes>
          <leafValues>
            -5.2517098188400269e-01 4.2501351237297058e-01</leafValues></_>
        <_>
          <internalNodes>
            0 -1 15 -523262985 -1299840617 -1878982635 -1345372093
            -2112904486 679772293 176201867 250233518</internalNodes>
          <leafValues>
            -5.8452659845352173e-01 3.5631766915321350e-01</leafValues></_>
        <_>
          <internalNodes>
            0 -1 125 -737941888 -1904074304 49424 -128642796 -1320581484
            1073776640 -1282694658 -1830305417</internalNodes>
          <leafValues>
            -5.4094493389129639e-01 3.6665153503417969e-01</leafValues></_>
        <_>
          <internalNodes>
            0 -1 42 1691748383 2131190466 831001501 2106015759
            -813339723 -1197397832 1897233341 1588294509</internalNodes>
          <leafValues>
            -4.9863752722740173e-01 4.1446465253829956e-01</leafValues></_></weakClassifiers></_>
    <!-- stage 9 -->
    <_>
      <maxWeakCount>7</maxWeakCount>
      <stageThreshold>-9.6276080608367920e-01</stageThreshold>
      <weakClassifiers>
        <_>
          <internalNodes>
            0 -1 56 1582694367 525645278 -131201 2114256892 -98305
            2147450879 -65553 -285212929</internalNodes>
          <leafValues>
            -4.4319343566894531e-01 5.1587712764739990e-01</leafValues></_>
        <_>
          <internalNodes>
            0 -1 50 -1642200004 1958887635 -2146807660 828326045
            312420905 -174735359 -230200330 -1222155488</internalNodes>
          <leafValues>
            -5.5029690265655518e-01 4.0169474482536316e-01</leafValues></_>
        <_>
          <internalNodes>
            0 -1 91 -224933985 -740130406 940638613 -16846698 -209510242
            -100105678 1921577092 -26283692</internalNodes>
          <leafValues>
            -5.8314114809036255e-01 3.6790707707405090e-01</leafValues></_>
        <_>
          <internalNodes>
            0 -1 105 -246287676 1280237790 8560702 -393715116
            -1536745401 1252868850 1537726670 -538608785</internalNodes>
          <leafValues>
            -6.2173503637313843e-01 3.7109643220901489e-01</leafValues></_>
        <_>
          <internalNodes>
            0 -1 28 -131990598 -291179828 -918382115 -320868104
            -989091337 -9322311 -656610599 -339874312</internalNodes>
          <leafValues>
            -6.3529831171035767e-01 3.0164808034896851e-01</leafValues></_>
        <_>
          <internalNodes>
            0 -1 74 -597192550 135712786 335561045 482377747 -1207362918
            -1331527552 -805175146 -661462384</internalNodes>
          <leafValues>
            -5.0988167524337769e-01 4.1488543152809143e-01</leafValues></_>
        <_>
          <internalNodes>
            0 -1 55 -1636915709 -152387593 788523767 872214244
            -537458944 1198882668 1182791161 -143130761</internalNodes>
          <leafValues>
            -4.3197599053382874e-01 5.1549613475799561e-01</leafValues></_></weakClassifiers></_>
    <!-- stage 10 -->
    <_>
      <maxWeakCount>8</maxWeakCount>
      <stageThreshold>-1.4470957517623901e+00</stageThreshold>
      <weakClassifiers>
        <_>
          <internalNodes>
            0 -1 66 -70321537 -144510386 -150132649 2128936078
            -1207590721 1912774730 -83344838 1779379019</internalNodes>
          <leafValues>
            -6.4678543806076050e-01 3.7151703238487244e-01</leafValues></_>
        <_>
          <internalNodes>
            0 -1 7 251038259 -1252884278 -645514193 2141147483
            -1564459216 -88567669 1003254587 1868519786</internalNodes>
          <leafValues>
            -6.0187536478042603e-01 3.6556282639503479e-01</leafValues></_>
        <_>
          <internalNodes>
            0 -1 113 1394252486 2073426570 -955117174 -1788357861
            1758012088 -1291073144 1770678478 -833750130</internalNodes>
          <leafValues>
            -4.8500832915306091e-01 4.7248262166976929e-01</leafValues></_>
        <_>
          <internalNodes>
            0 -1 43 -1291427185 -1022701245 0 -1324875773 -1073528693
            1610809345 -788053877 -85007412</internalNodes>
          <leafValues>
            -7.0867151021957397e-01 3.0980795621871948e-01</leafValues></_>
        <_>
          <internalNodes>
            0 -1 100 -18362418 -795957010 -353440916 -1626657112
            1145358271 340053710 1115131036 -68446529</internalNodes>
          <leafValues>
            -3.7890043854713440e-01 5.6316089630126953e-01</leafValues></_>
        <_>
          <internalNodes>
            0 -1 23 -656971553 1330980057 1132740895 772133073
            1208497305 2100306112 -377470357 2141911711</internalNodes>
          <leafValues>
            -5.4563832283020020e-01 3.5703232884407043e-01</leafValues></_>
        <_>
          <internalNodes>
            0 -1 119 -1693911574 -1660772350 4259861 1437620817
            2016197336 -902201343 1477570607 1980218224</internalNodes>
          <leafValues>
            -5.2239680290222168e-01 3.7357056140899658e-01</leafValues></_>
        <_>
          <internalNodes>
            0 -1 58 -258768719 1884537313 1107362232 -1236008897
            402899378 -1535049712 -1022713176 -54087290</internalNodes>
          <leafValues>
            -4.3970456719398499e-01 4.6140316128730774e-01</leafValues></_></weakClassifiers></_>
    <!-- stage 11 -->
    <_>
      <maxWeakCount>8</maxWeakCount>
      <stageThreshold>-1.3032259941101074e+00</stageThreshold>
      <weakClassifiers>
        <_>
          <internalNodes>
            0 -1 0 1024114491 -1853619696 1887439126 1029809664
            -1188988619 -1149107833 1967882015 -537929538</internalNodes>
          <leafValues>
            -4.7671157121658325e-01 4.6559962630271912e-01</leafValues></_>
        <_>
          <internalNodes>
            0 -1 64 -758125645 -1031746678 -1862237037 44360705
            -511450651 -375947134 -871118053 -592457732</internalNodes>
          <leafValues>
            -5.3084379434585571e-01 4.2723590135574341e-01</leafValues></_>
        <_>
          <internalNodes>
            0 -1 47 -225218186 -585649041 428346112 -319407065 -81587406
            -1861672288 -217319013 -81808401</internalNodes>
          <leafValues>
            -6.1092412471771240e-01 3.4605127573013306e-01</leafValues></_>
        <_>
          <internalNodes>
            0 -1 99 -462507617 -616427298 1342210114 -1190424576
            1116441088 -1061058558 -796884480 -22647200</internalNodes>
          <leafValues>
            -5.4286485910415649e-01 4.0160980820655823e-01</leafValues></_>
        <_>
          <internalNodes>
            0 -1 116 -76022893 -1256593286 537107534 -1320423144
            -1336303428 -1979053824 1078188280 1198520760</internalNodes>
          <leafValues>
            -4.9407941102981567e-01 4.5845952630043030e-01</leafValues></_>
        <_>
          <internalNodes>
            0 -1 80 1248482506 1498539016 -1564840513 -170789283
            -153817652 -1135747708 -578880001 -352062358</internalNodes>
          <leafValues>
            -3.9899826049804688e-01 5.5006480216979980e-01</leafValues></_>
        <_>
          <internalNodes>
            0 -1 82 2063725276 1245761555 1073747997 764547402
            -936660534 1084358818 -1056802805 -246031541</internalNodes>
          <leafValues>
            -4.9545386433601379e-01 4.6903866529464722e-01</leafValues></_>
        <_>
          <internalNodes>
            0 -1 14 -1035495457 -141324129 -2137956581 -2018892915
            -1060797527 -1199013755 1661454474 -355546482</internalNodes>
          <leafValues>
            -6.0225301980972290e-01 3.3713558316230774e-01</leafValues></_></weakClassifiers></_>
    <!-- stage 12 -->
    <_>
      <maxWeakCount>8</maxWeakCount>
      <stageThreshold>-6.7889839410781860e-01</stageThreshold>
      <weakClassifiers>
        <_>
          <internalNodes>
            0 -1 76 -208276526 1778425990 17011465 -34398062 -234641677
            1806940846 1242534074 1442287792</internalNodes>
          <leafValues>
            -4.4757032394409180e-01 4.7391897439956665e-01</leafValues></_>
        <_>
          <internalNodes>
            0 -1 18 -2074154242 197715920 1090519056 564845572
            -939278171 -125239165 -393352501 785361835</internalNodes>
          <leafValues>
            -5.1773083209991455e-01 4.0666431188583374e-01</leafValues></_>
        <_>
          <internalNodes>
            0 -1 101 -3475761 -1142706457 -285556739 -1245184178
            -546310981 -1617959729 -16898386 -1647892902</internalNodes>
          <leafValues>
            -3.9525321125984192e-01 5.6216722726821899e-01</leafValues></_>
        <_>
          <internalNodes>
            0 -1 49 1398255935 861111043 285278475 -275535401
            -1023229445 -1048444800 -908881237 -291176648</internalNodes>
          <leafValues>
            -7.1832376718521118e-01 3.2655647397041321e-01</leafValues></_>
        <_>
          <internalNodes>
            0 -1 22 -2063160558 297929603 1090786588 -1613094282
            -1879035079 2030704640 319421083 794515502</internalNodes>
          <leafValues>
            -6.5349298715591431e-01 3.1641069054603577e-01</leafValues></_>
        <_>
          <internalNodes>
            0 -1 69 2118957815 -1719025532 -2095873272 1779040518
            -1423301838 993886392 -45401205 -29623501</internalNodes>
          <leafValues>
            -6.2779146432876587e-01 3.0879282951354980e-01</leafValues></_>
        <_>
          <internalNodes>
            0 -1 57 1791888043 -213773792 1879282202 -141079295
            -1870498818 -930611063 1477206987 -354723045</internalNodes>
          <leafValues>
            -4.6939435601234436e-01 4.5154637098312378e-01</leafValues></_>
        <_>
          <internalNodes>
            0 -1 78 -1052258053 -233537387 268437712 -569245276
            1091608755 967376921 838873746 -52111184</internalNodes>
          <leafValues>
            -5.8278983831405640e-01 3.6873835325241089e-01</leafValues></_></weakClassifiers></_>
    <!-- stage 13 -->
    <_>
      <maxWeakCount>8</maxWeakCount>
      <stageThreshold>-1.1889219284057617e+00</stageThreshold>
      <weakClassifiers>
        <_>
          <internalNodes>
            0 -1 63 -1 -353435665 -50335755 -16777474 -9 -50529025
            -923436263 -48370437</internalNodes>
          <leafValues>
            -4.3500822782516479e-01 5.1809448003768921e-01</leafValues></_>
        <_>
          <internalNodes>
            0 -1 114 -785278386 -128970190 268636556 -16289706
            -1584715086 293666853 -2013059064 -2034036274</internalNodes>
          <leafValues>
            -4.6772578358650208e-01 4.4072279334068298e-01</leafValues></_>
        <_>
          <internalNodes>
            0 -1 33 -1490099712 302127232 -788512480 1964518354
            -1714929604 -2003632062 36013441 -579350052</internalNodes>
          <leafValues>
            -5.5063098669052124e-01 3.6965298652648926e-01</leafValues></_>
        <_>
          <internalNodes>
            0 -1 122 -124025150 421706469 2145812346 1344664874
            -1632510208 504856412 -1135178110 -703132658</internalNodes>
          <leafValues>
            -3.8186100125312805e-01 5.4611814022064209e-01</leafValues></_>
        <_>
          <internalNodes>
            0 -1 118 -681133926 -1088732847 453419210 1616032032
            -1207195138 -1182597085 1342345615 1948186988</internalNodes>
          <leafValues>
            -6.6173559427261353e-01 3.0189910531044006e-01</leafValues></_>
        <_>
          <internalNodes>
            0 -1 51 1074987033 268472335 -1736388260 1360037842
            419635474 -1149239160 419629983 -247135718</internalNodes>
          <leafValues>
            -5.6754165887832642e-01 3.6904281377792358e-01</leafValues></_>
        <_>
          <internalNodes>
            0 -1 131 -2011001216 -1419702991 2045291061 1965885312
            374639620 1072660316 101994155 -2109009664</internalNodes>
          <leafValues>
            -4.0562111139297485e-01 5.0742989778518677e-01</leafValues></_>
        <_>
          <internalNodes>
            0 -1 52 152113369 -367517676 16855053 -450621426 -1811826637
            173541513 453223199 -291777637</internalNodes>
          <leafValues>
            -4.8692706227302551e-01 4.2433404922485352e-01</leafValues></_></weakClassifiers></_>
    <!-- stage 14 -->
    <_>
      <maxWeakCount>8</maxWeakCount>
      <stageThreshold>-7.7439761161804199e-01</stageThreshold>
      <weakClassifiers>
        <_>
          <internalNodes>
            0 -1 36 1574665439 1280426989 -1610071911 -1912014907
            148914363 1609040045 -472233249 2129592043</internalNodes>
          <leafValues>
            -6.4243239164352417e-01 3.7416157126426697e-01</leafValues></_>
        <_>
          <internalNodes>
            0 -1 112 -1491161506 -13532835 1376043411 -1783540845
            139031216 990609928 -496350882 1247770602</internalNodes>
          <leafValues>
            -4.9995231628417969e-01 4.2335942387580872e-01</leafValues></_>
        <_>
          <internalNodes>
            0 -1 21 785301229 -1441226239 -989790205 -6844149 -87540808
            -124925823 -310232145 -1350709</internalNodes>
          <leafValues>
            -5.3976082801818848e-01 3.6805143952369690e-01</leafValues></_>
        <_>
          <internalNodes>
            0 -1 95 2078273604 2081892562 9191851 943962955 553879742
            -360152960 570460682 785083167</internalNodes>
          <leafValues>
            -5.3375488519668579e-01 3.7032705545425415e-01</leafValues></_>
        <_>
          <internalNodes>
            0 -1 77 -219230055 -204726120 335544517 -620293631
            -1840462968 -528351083 -91694661 -351354712</internalNodes>
          <leafValues>
            -4.8721447587013245e-01 3.9017644524574280e-01</leafValues></_>
        <_>
          <internalNodes>
            0 -1 124 -1589254215 -1693056591 -2113911805 -1286094766
            436318430 -1685487610 1384925392 1934379508</internalNodes>
          <leafValues>
            -5.6808644533157349e-01 3.2912948727607727e-01</leafValues></_>
        <_>
          <internalNodes>
            0 -1 32 -2004606965 -1710223338 -1862205028 1967603714
            -1876426495 -1308082176 -1870650933 -1141962624</internalNodes>
          <leafValues>
            -5.6329411268234253e-01 3.6929240822792053e-01</leafValues></_>
        <_>
          <internalNodes>
            0 -1 93 1360253234 -1034546919 16826656 -989167482
            1074324374 -1735375983 1612366339 1607857238</internalNodes>
          <leafValues>
            -5.4190266132354736e-01 4.0461096167564392e-01</leafValues></_></weakClassifiers></_>
    <!-- stage 15 -->
    <_>
      <maxWeakCount>7</maxWeakCount>
      <stageThreshold>-9.3910455703735352e-01</stageThreshold>
      <weakClassifiers>
        <_>
          <internalNodes>
            0 -1 37 -788279213 -53088173 50434524 -191528445 -1954508397
            -191356800 294455321 -57038772</internalNodes>
          <leafValues>
            -6.0622876882553101e-01 3.9211136102676392e-01</leafValues></_>
        <_>
          <internalNodes>
            0 -1 73 -513165314 -1344750832 17314055 -545221992
            -2122077781 -1608340702 327356731 -929074776</internalNodes>
          <leafValues>
            -5.1476657390594482e-01 4.1575467586517334e-01</leafValues></_>
        <_>
          <internalNodes>
            0 -1 133 -98334068 -71286766 4100 906068232 -1878351872
            570425376 1386500750 -1577041904</internalNodes>
          <leafValues>
            -5.7577270269393921e-01 3.5245504975318909e-01</leafValues></_>
        <_>
          <internalNodes>
            0 -1 123 -154140958 1979875246 511495184 -793265664
            1014230550 1178886004 607497870 -750566142</internalNodes>
          <leafValues>
            -3.3590912818908691e-01 5.8046180009841919e-01</leafValues></_>
        <_>
          <internalNodes>
            0 -1 44 -757100677 1280041155 134316825 1021090742
            -213901253 2051180544 1090566187 -25480318</internalNodes>
          <leafValues>
            -5.6762045621871948e-01 3.7014985084533691e-01</leafValues></_>
        <_>
          <internalNodes>
            0 -1 127 -1206255102 -2142699312 4247 269976080 -1056931840
            21004416 964911818 -1836416768</internalNodes>
          <leafValues>
            -4.8114225268363953e-01 3.9062500000000000e-01</leafValues></_>
        <_>
          <internalNodes>
            0 -1 17 295116 29397122 1073741832 -1321171968 -2113305909
            -1870004151 -1874804581 244288172</internalNodes>
          <leafValues>
            -5.9543001651763916e-01 3.4358525276184082e-01</leafValues></_></weakClassifiers></_>
    <!-- stage 16 -->
    <_>
      <maxWeakCount>9</maxWeakCount>
      <stageThreshold>-9.8696076869964600e-01</stageThreshold>
      <weakClassifiers>
        <_>
          <internalNodes>
            0 -1 46 -45956262 -1111076014 -1845407210 -1075900152
            -1740561356 -1300234104 201413642 2037336591</internalNodes>
          <leafValues>
            -4.6660783886909485e-01 4.2197194695472717e-01</leafValues></_>
        <_>
          <internalNodes>
            0 -1 12 -1841212971 -292028076 285414685 1047400514 52429227
            -15204325 -215969362 -5969280</internalNodes>
          <leafValues>
            -6.8019104003906250e-01 3.0277845263481140e-01</leafValues></_>
        <_>
          <internalNodes>
            0 -1 98 -619597694 419596494 -2142228084 1687941382
            1477243050 -106192762 688458206 -387484725</internalNodes>
          <leafValues>
            -5.9245318174362183e-01 3.1157666444778442e-01</leafValues></_>
        <_>
          <internalNodes>
            0 -1 9 1292616706 537182230 1342198099 1540393232
            -1206732237 696961024 2072000947 -311581912</internalNodes>
          <leafValues>
            -5.5641251802444458e-01 3.3862400054931641e-01</leafValues></_>
        <_>
          <internalNodes>
            0 -1 108 2120383742 2147188479 -5472836 1005813757 -66106138
            -20222078 1861189286 1299703655</internalNodes>
          <leafValues>
            -3.7355834245681763e-01 5.2244824171066284e-01</leafValues></_>
        <_>
          <internalNodes>
            0 -1 117 1869135867 2134900701 2130607863 -202113243
            -318911241 -284173227 265256925 -3149588</internalNodes>
          <leafValues>
            -4.3483158946037292e-01 5.3189975023269653e-01</leafValues></_>
        <_>
          <internalNodes>
            0 -1 121 -611208639 521245669 352686664 205520900
            -1020540103 -2004777543 1892252172 1508010840</internalNodes>
          <leafValues>
            -6.1371129751205444e-01 3.4962734580039978e-01</leafValues></_>
        <_>
          <internalNodes>
            0 -1 128 -553686558 1460547186 -1091621140 -256021508
            1735348290 1717337973 1740044162 -770220150</internalNodes>
          <leafValues>
            -3.7980917096138000e-01 5.5565410852432251e-01</leafValues></_>
        <_>
          <internalNodes>
            0 -1 20 -1472056921 -1299808250 328706 906298369 1099834510
            -1560141822 696467643 -1079094551</internalNodes>
          <leafValues>
            -5.4897391796112061e-01 3.6365929245948792e-01</leafValues></_></weakClassifiers></_>
    <!-- stage 17 -->
    <_>
      <maxWeakCount>9</maxWeakCount>
      <stageThreshold>-9.5803296566009521e-01</stageThreshold>
      <weakClassifiers>
        <_>
          <internalNodes>
            0 -1 1 -4992707 -184773681 -1996455665 -1397558614
            -1450126677 833098026 -1962878001 792400827</internalNodes>
          <leafValues>
            -6.8418818712234497e-01 3.4576144814491272e-01</leafValues></_>
        <_>
          <internalNodes>
            0 -1 94 -268438972 -35914084 -7 -782369849 -571473978
            1557131212 1877983095 -1056572061</internalNodes>
          <leafValues>
            -3.8464716076850891e-01 5.1280891895294189e-01</leafValues></_>
        <_>
          <internalNodes>
            0 -1 97 1364292052 -422431849 285540685 -102682361
            1214673712 210149777 944224371 1870111434</internalNodes>
          <leafValues>
            -4.2370048165321350e-01 4.4035840034484863e-01</leafValues></_>
        <_>
          <internalNodes>
            0 -1 40 -54599811 833453736 -268783715 901590902 -9177163
            -1802572 1064662800 2139053406</internalNodes>
          <leafValues>
            -3.7259244918823242e-01 4.8602846264839172e-01</leafValues></_>
        <_>
          <internalNodes>
            0 -1 72 -83381449 -795684592 310498316 -65752750 -759068101
            -1920737135 1610784946 -26413534</internalNodes>
          <leafValues>
            -6.8799924850463867e-01 2.6472994685173035e-01</leafValues></_>
        <_>
          <internalNodes>
            0 -1 53 -1861151469 -904646377 1896878413 1338003462
            -2126413809 -1596718719 811434795 1772601839</internalNodes>
          <leafValues>
            -4.7809073328971863e-01 4.0174993872642517e-01</leafValues></_>
        <_>
          <internalNodes>
            0 -1 45 -1507332182 1912796999 -1015368336 -579473422
            -1242488364 -1242464396 925964056 -1656891905</internalNodes>
          <leafValues>
            -3.8668313622474670e-01 4.9476844072341919e-01</leafValues></_>
        <_>
          <internalNodes>
            0 -1 132 -267184956 -745832318 1073758211 -242237438
            -796073956 -1342144512 -787570150 -29212144</internalNodes>
          <leafValues>
            -4.8629456758499146e-01 3.7895026803016663e-01</leafValues></_>
        <_>
          <internalNodes>
            0 -1 106 1926576974 1747236116 84148612 -1513185018
            184748192 2072936648 2013520776 27746850</internalNodes>
          <leafValues>
            -5.7272905111312866e-01 3.4245654940605164e-01</leafValues></_></weakClassifiers></_>
    <!-- stage 18 -->
    <_>
      <maxWeakCount>9</maxWeakCount>
      <stageThreshold>-1.5694787502288818e+00</stageThreshold>
      <weakClassifiers>
        <_>
          <internalNodes>
            0 -1 107 -528052 -541208996 -50331907 1530658492 1154403801
            -1637902050 -990040582 1735914192</internalNodes>
          <leafValues>
            -3.8508334755897522e-01 5.0336492061614990e-01</leafValues></_>
        <_>
          <internalNodes>
            0 -1 102 -771820588 1895893513 1073840974 -1617853814
            1452642540 1526923939 -490336038 1224202123</internalNodes>
          <leafValues>
            -5.1833033561706543e-01 3.6561942100524902e-01</leafValues></_>
        <_>
          <internalNodes>
            0 -1 2 -576717557 -1086028880 -1333765864 1024839728
            -804875980 -1733623797 -1424993987 -806497937</internalNodes>
          <leafValues>
            -4.5521557331085205e-01 4.4997087121009827e-01</leafValues></_>
        <_>
          <internalNodes>
            0 -1 84 -666915129 -50200587 1017966212 -591826955
            -537082236 -1658986636 -1810176374 -161817638</internalNodes>
          <leafValues>
            -3.7785252928733826e-01 5.6350404024124146e-01</leafValues></_>
        <_>
          <internalNodes>
            0 -1 86 1431237071 -491355884 1073775122 -212639741
            -804861702 144347314 1502106782 2146914304</internalNodes>
          <leafValues>
            -4.6956622600555420e-01 4.0847241878509521e-01</leafValues></_>
        <_>
          <internalNodes>
            0 -1 65 1113013115 987177026 335593606 -1904177148
            1243611332 1436090544 -1073429859 -33770516</internalNodes>
          <leafValues>
            -6.0755002498626709e-01 3.1827878952026367e-01</leafValues></_>
        <_>
          <internalNodes>
            0 -1 120 419598986 500498735 285921498 -1274310600 536993991
            2087673858 1074479288 1346653020</internalNodes>
          <leafValues>
            -6.6020643711090088e-01 3.0208155512809753e-01</leafValues></_>
        <_>
          <internalNodes>
            0 -1 60 1339002619 1934076743 -257 -77115779 1843360957
            215248612 1442201309 -67141633</internalNodes>
          <leafValues>
            -3.8158103823661804e-01 5.2123892307281494e-01</leafValues></_>
        <_>
          <internalNodes>
            0 -1 19 -1026841460 159519314 1073840393 -1442146174
            999130027 -746585728 -266296437 717997738</internalNodes>
          <leafValues>
            -4.8615992069244385e-01 4.1758731007575989e-01</leafValues></_></weakClassifiers></_>
    <!-- stage 19 -->
    <_>
      <maxWeakCount>8</maxWeakCount>
      <stageThreshold>-1.4709768295288086e+00</stageThreshold>
      <weakClassifiers>
        <_>
          <internalNodes>
            0 -1 29 -1048645 -626066513 -8388625 -39190667 -1
            -1078067201 -167772291 -12255535</internalNodes>
          <leafValues>
            -3.2410204410552979e-01 6.1289227008819580e-01</leafValues></_>
        <_>
          <internalNodes>
            0 -1 62 -745549025 -601914984 -1073739490 -498154914
            -805191325 1519092003 -1199523304 1210554553</internalNodes>
          <leafValues>
            -5.9161949157714844e-01 3.3946341276168823e-01</leafValues></_>
        <_>
          <internalNodes>
            0 -1 81 -426789126 -246364152 -1073479395 -1090027131
            -1874806392 -1433755517 -1601646428 -565517350</internalNodes>
          <leafValues>
            -4.1991209983825684e-01 4.7823241353034973e-01</leafValues></_>
        <_>
          <internalNodes>
            0 -1 8 -828436933 1187177011 -805172959 834880267
            -1341492427 -593493871 -1190905592 -1142195270</internalNodes>
          <leafValues>
            -6.1678063869476318e-01 3.1261676549911499e-01</leafValues></_>
        <_>
          <internalNodes>
            0 -1 110 -1118071485 -1080360256 159406229 873391688
            -653582143 -1718548477 -1937102654 356643292</internalNodes>
          <leafValues>
            -6.0634952783584595e-01 3.3459860086441040e-01</leafValues></_>
        <_>
          <internalNodes>
            0 -1 10 6693878 268566554 285212817 -1151463101 -245137267
            -1710686074 -649912241 -202038</internalNodes>
          <leafValues>
            -7.3122143745422363e-01 2.3023562133312225e-01</leafValues></_>
        <_>
          <internalNodes>
            0 -1 87 311196250 -788299622 16982314 549919235 -2103823704
            -1868365638 276955146 -307502558</internalNodes>
          <leafValues>
            -5.2088785171508789e-01 3.9086708426475525e-01</leafValues></_>
        <_>
          <internalNodes>
            0 -1 54 -1039778304 1204813954 1207992576 1343467544
            1086873848 196737 1757976712 -1756692448</internalNodes>
          <leafValues>
            -4.9190640449523926e-01 4.2650693655014038e-01</leafValues></_></weakClassifiers></_></stages>
  <features>
    <_>
      <rect>
        0 0 4 3</rect></_>
    <_>
      <rect>
        0 0 14 8</rect></_>
    <_>
      <rect>
        0 1 5 3</rect></_>
    <_>
      <rect>
        0 1 10 11</rect></_>
    <_>
      <rect>
        0 2 1 3</rect></_>
    <_>
      <rect>
        0 2 5 7</rect></_>
    <_>
      <rect>
        0 3 1 14</rect></_>
    <_>
      <rect>
        0 3 4 3</rect></_>
    <_>
      <rect>
        0 3 5 4</rect></_>
    <_>
      <rect>
        0 6 3 1</rect></_>
    <_>
      <rect>
        0 9 4 7</rect></_>
    <_>
      <rect>
        0 15 11 10</rect></_>
    <_>
      <rect>
        0 16 8 3</rect></_>
    <_>
      <rect>
        0 18 3 1</rect></_>
    <_>
      <rect>
        0 18 3 4</rect></_>
    <_>
      <rect>
        0 20 1 4</rect></_>
    <_>
      <rect>
        0 21 6 1</rect></_>
    <_>
      <rect>
        0 24 1 7</rect></_>
    <_>
      <rect>
        0 24 2 6</rect></_>
    <_>
      <rect>
        0 25 2 4</rect></_>
    <_>
      <rect>
        1 0 1 2</rect></_>
    <_>
      <rect>
        1 0 5 8</rect></_>
    <_>
      <rect>
        1 1 3 3</rect></_>
    <_>
      <rect>
        1 1 7 6</rect></_>
    <_>
      <rect>
        1 11 5 11</rect></_>
    <_>
      <rect>
        1 17 1 5</rect></_>
    <_>
      <rect>
        1 19 5 1</rect></_>
    <_>
      <rect>
        1 20 9 1</rect></_>
    <_>
      <rect>
        1 27 7 6</rect></_>
    <_>
      <rect>
        1 33 6 4</rect></_>
    <_>
      <rect>
        2 0 4 3</rect></_>
    <_>
      <rect>
        2 0 7 5</rect></_>
    <_>
      <rect>
        2 5 1 2</rect></_>
    <_>
      <rect>
        3 0 3 2</rect></_>
    <_>
      <rect>
        3 1 9 10</rect></_>
    <_>
      <rect>
        3 1 14 9</rect></_>
    <_>
      <rect>
        4 0 6 7</rect></_>
    <_>
      <rect>
        4 30 9 5</rect></_>
    <_>
      <rect>
        4 42 6 1</rect></_>
    <_>
      <rect>
        5 0 1 3</rect></_>
    <_>
      <rect>
        5 0 3 3</rect></_>
    <_>
      <rect>
        5 1 5 6</rect></_>
    <_>
      <rect>
        5 6 3 3</rect></_>
    <_>
      <rect>
        5 7 1 11</rect></_>
    <_>
      <rect>
        6 0 8 8</rect></_>
    <_>
      <rect>
        6 1 3 2</rect></_>
    <_>
      <rect>
        6 2 3 3</rect></_>
    <_>
      <rect>
        6 2 13 14</rect></_>
    <_>
      <rect>
        6 5 1 3</rect></_>
    <_>
      <rect>
        6 16 4 8</rect></_>
    <_>
      <rect>
        8 6 1 1</rect></_>
    <_>
      <rect>
        8 9 2 1</rect></_>
    <_>
      <rect>
        8 21 12 5</rect></_>
    <_>
      <rect>
        8 22 8 5</rect></_>
    <_>
      <rect>
        9 0 1 2</rect></_>
    <_>
      <rect>
        9 0 2 1</rect></_>
    <_>
      <rect>
        9 0 5 9</rect></_>
    <_>
      <rect>
        9 8 2 2</rect></_>
    <_>
      <rect>
        9 15 2 1</rect></_>
    <_>
      <rect>
        10 3 1 3</rect></_>
    <_>
      <rect>
        10 8 3 2</rect></_>
    <_>
      <rect>
        10 14 2 3</rect></_>
    <_>
      <rect>
        10 21 4 8</rect></_>
    <_>
      <rect>
        11 21 6 8</rect></_>
    <_>
      <rect>
        11 27 2 6</rect></_>
    <_>
      <rect>
        12 0 4 5</rect></_>
    <_>
      <rect>
        12 0 11 9</rect></_>
    <_>
      <rect>
        12 3 11 14</rect></_>
    <_>
      <rect>
        12 8 1 2</rect></_>
    <_>
      <rect>
        12 10 11 8</rect></_>
    <_>
      <rect>
        12 15 6 6</rect></_>
    <_>
      <rect>
        12 20 1 4</rect></_>
    <_>
      <rect>
        12 21 3 3</rect></_>
    <_>
      <rect>
        13 5 3 8</rect></_>
    <_>
      <rect>
        13 15 1 1</rect></_>
    <_>
      <rect>
        13 26 2 6</rect></_>
    <_>
      <rect>
        14 12 4 7</rect></_>
    <_>
      <rect>
        14 13 1 3</rect></_>
    <_>
      <rect>
        14 24 3 1</rect></_>
    <_>
      <rect>
        15 10 1 1</rect></_>
    <_>
      <rect>
        15 12 2 2</rect></_>
    <_>
      <rect>
        15 15 1 2</rect></_>
    <_>
      <rect>
        15 21 7 6</rect></_>
    <_>
      <rect>
        15 24 5 4</rect></_>
    <_>
      <rect>
        16 16 1 1</rect></_>
    <_>
      <rect>
        16 18 1 6</rect></_>
    <_>
      <rect>
        16 18 3 6</rect></_>
    <_>
      <rect>
        17 3 7 12</rect></_>
    <_>
      <rect>
        17 6 4 9</rect></_>
    <_>
      <rect>
        17 12 4 1</rect></_>
    <_>
      <rect>
        17 14 9 1</rect></_>
    <_>
      <rect>
        17 20 1 2</rect></_>
    <_>
      <rect>
        17 21 3 8</rect></_>
    <_>
      <rect>
        17 21 5 8</rect></_>
    <_>
      <rect>
        18 0 7 6</rect></_>
    <_>
      <rect>
        18 1 5 9</rect></_>
    <_>
      <rect>
        18 19 1 1</rect></_>
    <_>
      <rect>
        18 19 5 6</rect></_>
    <_>
      <rect>
        19 9 8 6</rect></_>
    <_>
      <rect>
        19 21 1 2</rect></_>
    <_>
      <rect>
        19 29 2 3</rect></_>
    <_>
      <rect>
        20 2 8 7</rect></_>
    <_>
      <rect>
        20 4 3 9</rect></_>
    <_>
      <rect>
        20 12 1 1</rect></_>
    <_>
      <rect>
        21 5 3 9</rect></_>
    <_>
      <rect>
        21 12 6 11</rect></_>
    <_>
      <rect>
        21 15 3 6</rect></_>
    <_>
      <rect>
        22 0 3 6</rect></_>
    <_>
      <rect>
        22 4 4 10</rect></_>
    <_>
      <rect>
        22 15 4 10</rect></_>
    <_>
      <rect>
        23 0 6 7</rect></_>
    <_>
      <rect>
        23 2 7 8</rect></_>
    <_>
      <rect>
        23 5 4 7</rect></_>
    <_>
      <rect>
        23 5 4 8</rect></_>
    <_>
      <rect>
        23 9 2 7</rect></_>
    <_>
      <rect>
        23 16 1 1</rect></_>
    <_>
      <rect>
        24 2 6 5</rect></_>
    <_>
      <rect>
        26 5 6 6</rect></_>
    <_>
      <rect>
        27 2 6 8</rect></_>
    <_>
      <rect>
        27 2 6 10</rect></_>
    <_>
      <rect>
        27 7 5 5</rect></_>
    <_>
      <rect>
        27 17 6 8</rect></_>
    <_>
      <rect>
        29 4 1 1</rect></_>
    <_>
      <rect>
        29 5 1 1</rect></_>
    <_>
      <rect>
        29 7 5 4</rect></_>
    <_>
      <rect>
        29 42 3 1</rect></_>
    <_>
      <rect>
        32 6 4 1</rect></_>
    <_>
      <rect>
        32 38 1 1</rect></_>
    <_>
      <rect>
        33 18 1 1</rect></_>
    <_>
      <rect>
        35 13 1 1</rect></_>
    <_>
      <rect>
        36 8 3 1</rect></_>
    <_>
      <rect>
        41 32 1 1</rect></_>
    <_>
      <rect>
        42 14 1 5</rect></_>
    <_>
      <rect>
        42 16 1 2</rect></_></features></cascade>
</opencv_storage>
